tree
version=v4
num_class=1
num_tree_per_iteration=1
label_index=0
max_feature_idx=3
objective=regression
feature_names=Column_0 Column_1 Column_2 Column_3
feature_infos=[60:140] [0.10000000000000001:2] [0:0.050000000000000003] [0.050000000000000003:0.40000000000000002]
tree_sizes=4379 5194 5112 4751 4651 4915 5276 4838 4841 4844 4846 4814 4646 4938 5093 4772 4763 4996 4662 4698 4614 4700 5098 4604 4934 4997 4671 4803 4816 4821 4811 4995 4509 4730 5209 5010 5195 4833 5020 4603 5038 5009 4611 5129 4792 5226 5237 4801 5150 4918 4919 4842 4862 4928 5061 4850 4807 4875 4981 5217 5224 5139 5176 5236 4796 4899 4654 5372 5138 5154 5012 4891 4839 4841 4928 5160 5157 4933 5153 4764 4935 5339 4867 4988 5126 4953 4759 4996 4672 4901 5260 5120 5126 5033 5089 5274 5303 5102 4869 4948 5152 5113 5296 5058 5060 4972 5070 4685 4691 5205 5039 4810 5330 5126 5226 5168 5038 5156 5160 5257 5258 5153 5248 5077 5173 5066 4897 5260 5085 4821 5356 5341 5342 5088 5085 5105 5170 4832 5167 5295 4932 4896 5175 5106 4846 4845 5107 4985 4984 5094 5084 4991 5102 5014 4840 4987 5215 5163 5298 4769 5579 5401 4792 4947 5084 5040 4901 5387 4774 5300 5029 5132 5406 4868 5229 4957 5277 5043 5274 4677 5060 4885 5065 5074 4984 4506 5055 5337 4687 5082 5091 5058 5004 5342 4992 4791 4992 5061 5079 4897 4992 5272 4893 5092 5066 5083 5099 5100 5106 4788 5079 4995 4903 5158 5157 5000 5076 5158 4988 4995 5092 4798 4984 5534 5367 4885 5457 4897 4975 4988 5064 4902 4990 5355 5723 5461 4617 5624 4619 5470 5089 5366 5451 4798 5345 5263 5338 5161 5272 5178 5173 4986 5158 5097 4909 5449 5103 5451 5084 4994 5292 5174 4999 4881 5197 5006 5017 5255 4920 5097 5261 5371 4914 5105 5384 5536 5202 5010 5073 5371 5288 5814 5814 5458 5178 5010 5001 5382 4817 4901 4990 5289 5196 5381 5301 5387 5262 5077 4996 5450 5200 5307 5478 5798 5798 5628 5183 5176 5710 5372 5983 5628 5254 5271 5191 5445 5355 5519 5365 5430 5530 5160 5286 5106 5101 5542 5532 5100 5101 5184 5290 5096 5567 5088 5095 5095 5101 5299 5109 4711 5175 5076 4891 4910 4941 5032 5083 5655 5203 5198 5024 5442 4444 5109 5352 5470 4988 4759 4807 4934 5174 4633 4991 4912 5286 4448 5203 5116 4998 4348 5470 5193 4360 4352 5000 5025 4357 5475 5111 5104 4985 5108 5087 4942 4716 5123 4626 5036 5373 5382 5279 5287 5099 5172 5170 5199 5257 5462 5259 5208 5124 5354 5312 5085 4993 5095 5091 5356 5204 5377 5232 5295 5000 5320 5291 5285 5283 5185 5188 5381 4995 4826 4904 5190 5181 4815 5008 5081 4943 4883 4925 5086 5091 5183 5209 5192 5202 5374 4823 5363 4725 5089 4828 5101 5088 5101 5461 5375 4835 5011 5655 5662 5012 4918 4919 4939 4920 5190 4552 4737 4735 5028 5287 5204 4824 4824 5209 5310 4907 4907 5041 4820 5102 5137 5283 5042 5018 5651 5365 4954 5308 5058 4892 5190 5102 5370 5184 5102 5467 5462 5044 5361 5008 5012 5226 5374 5273 5213 4957 5101

Tree=0
num_leaves=53
num_cat=0
split_feature=0 0 0 1 0 1 0 0 1 0 1 1 0 1 0 1 1 1 1 1 0 2 0 1 1 1 2 1 1 1 0 2 1 0 1 1 1 1 2 2 2 2 1 0 2 1 2 1 2 1 2 0
split_gain=2552.63 188.912 98.5024 36.6811 26.35 18.1508 14.5327 12.8758 9.55939 5.92237 5.17421 4.56645 2.62095 1.57489 1.36013 1.14922 0.931262 0.825029 0.785652 0.617115 0.638852 0.44348 0.257019 0.221096 0.20997 0.136032 0.133567 0.121226 0.0920282 0.0853192 0.0423984 0.0333871 0.027498 0.0146616 0.0268215 0.0127783 0.0118999 0.00870517 0.00849683 0.00791929 0.00464616 0.00199518 0.00112727 0.00122118 0.000961437 0.00105057 0.000894468 0.000495543 0.000564746 0.000149917 4.89254e-05 3.72256e-09
threshold=95.000000000000014 105.00000000000001 75.000000000000014 1.5000000000000002 85.000000000000014 0.37500000000000006 115.00000000000001 125.00000000000001 0.37500000000000006 65.000000000000014 1.5000000000000002 0.62500000000000011 125.00000000000001 0.17500000000000002 115.00000000000001 0.62500000000000011 0.87500000000000011 0.62500000000000011 0.17500000000000002 0.37500000000000006 125.00000000000001 0.025000000000000005 135.00000000000003 1.5000000000000002 0.37500000000000006 1.5000000000000002 0.015000000000000001 0.87500000000000011 0.87500000000000011 0.87500000000000011 135.00000000000003 0.015000000000000001 0.87500000000000011 125.00000000000001 0.17500000000000002 0.87500000000000011 0.17500000000000002 0.37500000000000006 0.015000000000000001 0.025000000000000005 0.015000000000000001 0.040000000000000008 0.17500000000000002 135.00000000000003 0.025000000000000005 0.62500000000000011 0.025000000000000005 0.37500000000000006 0.015000000000000001 0.62500000000000011 0.015000000000000001 135.00000000000003
decision_type=2 2 2 2 2 2 2 2 2 2 2 2 2 2 2 2 2 2 2 2 2 2 2 2 2 2 2 2 2 2 2 2 2 2 2 2 2 2 2 2 2 2 2 2 2 2 2 2 2 2 2 2
left_child=2 5 9 6 25 13 8 14 18 44 17 19 27 -2 -5 -10 24 -7 -3 33 -21 -19 28 -18 36 32 -9 -13 -14 -24 -22 -26 37 34 -8 41 -6 46 -37 -39 -17 47 51 -44 49 -46 -4 50 -49 -1 -11 -35
right_child=1 3 4 7 16 10 11 26 15 35 -12 12 22 -15 -16 40 23 21 -20 20 30 -23 29 -25 31 -27 -28 -29 -30 -31 -32 -33 -34 42 -36 38 -38 39 -40 -41 -42 -43 43 -45 45 -47 -48 48 -50 -51 -52 -53
leaf_value=1.8063567156868008 1.6652793680798506 1.6234766912924032 1.7730140540238233 1.6883432285027198 1.7410312716599317 1.6945929111588509 1.6208103507126415 1.642637098021746 1.6483757888732586 1.7923544137116285 1.7271007513712855 1.6398819222003516 1.6294556019136865 1.6813494758231948 1.6727186768519144 1.6604282186609942 1.7490780503849712 1.7016344573377344 1.6354463190999673 1.6319514835674078 1.6245775917612422 1.7108328959743255 1.624679616627978 1.7553302073483905 1.7446242947330373 1.7777104680012161 1.647738032499914 1.6444943249357307 1.6333741598219855 1.6286572489376874 1.621917845005362 1.7471460881212222 1.7753038820858806 1.620653801839296 1.6229879666755456 1.792800151268606 1.7425198417417083 1.7736040270894113 1.7940766166385025 1.7748449388380856 1.6613795840912571 1.7930576621443328 1.6211996023128921 1.6207366680481898 1.8064698160922539 1.8068956667845033 1.7734154456958746 1.7924652161132955 1.7928238484497876 1.806480399217258 1.792457936670838 1.6206529709931226
leaf_weight=49 31 26 35 26 25 30 31 21 27 25 25 28 31 30 30 21 31 38 29 32 29 20 28 26 21 29 33 29 29 26 31 35 30 28 26 22 29 36 32 20 33 21 29 28 30 28 23 23 21 49 21 26
leaf_count=49 31 26 35 26 25 30 31 21 27 25 25 28 31 30 30 21 31 38 29 32 29 20 28 26 21 29 33 29 29 26 31 35 30 28 26 22 29 36 32 20 33 21 29 28 30 28 23 23 21 49 21 26
internal_value=1.70595 1.64869 1.77966 1.63675 1.76091 1.69516 1.63162 1.66317 1.64588 1.79953 1.70703 1.62713 1.63347 1.67318 1.67997 1.6568 1.74674 1.70132 1.62979 1.62295 1.62625 1.70481 1.6291 1.75193 1.74406 1.77459 1.64575 1.64223 1.63135 1.62659 1.6232 1.7462 1.77396 1.62115 1.6218 1.79293 1.74183 1.7736 1.79356 1.77405 1.66101 1.79262 1.62082 1.62097 1.80651 1.80668 1.77317 1.79252 1.79264 1.80642 1.7924 1.62065
internal_weight=1512 851 661 677 340 174 567 110 136 321 113 431 171 61 56 81 167 88 55 260 92 58 114 57 110 173 54 57 60 54 60 56 144 168 57 165 54 114 54 56 54 111 111 57 156 58 58 90 44 98 46 54
internal_count=1512 851 661 677 340 174 567 110 136 321 113 431 171 61 56 81 167 88 55 260 92 58 114 57 110 173 54 57 60 54 60 56 144 168 57 165 54 114 54 56 54 111 111 57 156 58 58 90 44 98 46 54
is_linear=0
shrinkage=1


Tree=1
num_leaves=59
num_cat=0
split_feature=0 0 0 3 0 3 0 3 0 0 3 3 3 0 3 0 3 3 0 3 3 3 2 3 3 3 0 0 3 3 2 3 0 3 0 2 2 2 2 3 2 2 2 0 2 3 2 0 2 3 0 2 0 2 3 2 0 3
split_gain=2303.75 170.493 88.8985 44.2614 23.7809 22.816 22.1686 5.96558 5.34494 5.09538 4.99388 2.8331 2.66691 4.15562 2.64155 1.54443 0.970035 0.872075 0.653112 0.633117 0.432071 0.27209 0.23722 0.191902 0.151496 0.120144 0.112045 0.0858186 0.165724 0.0801518 0.0700478 0.0606953 0.0513173 0.0423445 0.0306731 0.0303336 0.0265958 0.00742273 0.00718788 0.00697321 0.00308956 0.00263114 0.00164687 0.00116135 0.00100956 0.000930713 0.000899113 0.000667451 0.000613322 0.000585332 0.000492779 0.000201512 0.000127125 0.000105859 2.11996e-05 6.34054e-05 1.9631e-05 3.31496e-06
threshold=95.000000000000014 105.00000000000001 75.000000000000014 0.22500000000000003 85.000000000000014 0.17500000000000002 125.00000000000001 0.35000000000000003 65.000000000000014 115.00000000000001 0.35000000000000003 0.35000000000000003 0.12500000000000003 115.00000000000001 0.075000000000000025 115.00000000000001 0.27500000000000008 0.22500000000000003 125.00000000000001 0.22500000000000003 0.12500000000000003 0.17500000000000002 0.025000000000000005 0.35000000000000003 0.27500000000000008 0.17500000000000002 135.00000000000003 115.00000000000001 0.075000000000000025 0.27500000000000008 0.015000000000000001 0.27500000000000008 135.00000000000003 0.35000000000000003 135.00000000000003 0.025000000000000005 0.025000000000000005 0.025000000000000005 0.025000000000000005 0.22500000000000003 0.015000000000000001 0.040000000000000008 1.0000000180025095e-35 135.00000000000003 0.040000000000000008 0.075000000000000025 0.040000000000000008 125.00000000000001 1.0000000180025095e-35 0.22500000000000003 125.00000000000001 1.0000000180025095e-35 135.00000000000003 0.025000000000000005 0.27500000000000008 0.015000000000000001 135.00000000000003 0.12500000000000003
decision_type=2 2 2 2 2 2 2 2 2 2 2 2 2 2 2 2 2 2 2 2 2 2 2 2 2 2 2 2 2 2 2 2 2 2 2 2 2 2 2 2 2 2 2 2 2 2 2 2 2 2 2 2 2 2 2 2 2 2
left_child=2 5 8 12 33 14 7 9 46 16 24 17 27 -14 -2 -9 -5 -7 21 30 -16 -15 -12 35 34 43 -26 28 -3 -11 -6 -19 -27 36 -8 -21 39 -32 42 40 48 -38 -10 -20 -40 50 51 -47 -4 57 -29 -1 -52 54 55 -53 -49 -44
right_child=1 3 4 6 19 11 10 15 38 29 22 -13 13 18 20 -17 -18 31 25 23 -22 -23 -24 -25 26 32 -28 45 -30 -31 37 -33 -34 -35 -36 -37 41 -39 44 -41 -42 -43 49 -45 -46 47 -48 56 -50 -51 52 53 -54 -55 -56 -57 -58 -59
leaf_value=0.095365847349166866 -0.045979863001654547 -0.081730864048004156 0.063628896361305601 -0.040727071917575339 0.034291142708546406 -0.0079767922190232925 -0.072733053824175969 -0.012678965872951918 0.082071278673229803 -0.05741290226578713 -0.054985874256602042 0.018048200397086996 -0.058858009412083349 -0.075805592298507696 -0.030448820374228736 -0.030909829987929419 -0.026868903503886293 0.0015159187838435174 -0.080523927056271094 0.039525842852890493 -0.020647635861583379 -0.068566638562414392 -0.047801353149116044 0.045965533412021142 -0.067654516935348505 -0.075739724360979532 -0.072490138722502664 -0.081700399269660329 -0.075780686871571981 -0.053447793968021878 0.036365756108647306 0.0049663699446962431 -0.079108555912971501 0.067201596757640022 -0.075344493849710981 0.04200808301568032 0.065389939149220797 0.037561351060867311 0.082847634483786195 0.064988665426931075 0.064563403810773579 0.066070296168327339 0.08236698985099794 -0.081016236543655404 0.083242156813221599 -0.081040682999984084 0.095792027456419807 -0.081397343675295511 0.064015780985355375 0.082682681966710969 -0.081506226154474115 0.095442533493041992 -0.081351325026264909 0.095592183669408165 0.095439060709693213 0.09556004892696035 -0.08133571850402016 0.082395777702331544
leaf_weight=30 24 25 21 23 37 26 23 21 33 26 27 28 43 25 22 26 28 25 23 32 23 27 20 23 25 26 23 24 22 25 21 26 20 23 22 20 27 34 34 31 21 30 20 25 31 23 28 24 20 27 26 24 27 30 22 22 28 20
leaf_count=30 24 25 21 23 37 26 23 21 33 26 27 28 43 25 22 26 28 25 23 32 23 27 20 23 25 26 23 24 22 25 21 26 20 23 22 20 27 34 34 31 21 30 20 25 31 23 28 24 20 27 26 24 27 30 22 22 28 20
internal_value=2.41223e-10 -0.0543935 0.0700286 -0.0657394 0.0522118 -0.0102489 -0.050926 -0.0375027 0.0889 -0.0442939 -0.0652123 0.00442835 -0.0767731 -0.0725195 -0.0325839 -0.0227641 -0.0331187 -0.000524325 -0.0765431 0.0387529 -0.0254393 -0.0720469 -0.0519286 0.0421626 -0.0719255 -0.0790304 -0.0699716 -0.0808129 -0.0789457 -0.0554692 0.0359733 0.00327497 -0.0772044 0.0652039 -0.0740098 0.0404806 0.0648976 0.0371049 0.0826265 0.0643764 0.0640702 0.065748 0.0823604 -0.0807803 0.0830358 -0.0813903 0.0955354 -0.081265 0.0638176 0.0825028 -0.0815124 0.0954792 -0.0814273 0.0955139 0.0954794 0.0954987 -0.0813642 0.0823814
internal_weight=1512 851 661 677 340 174 289 149 321 102 140 105 388 189 69 47 51 77 146 167 45 52 47 75 93 94 48 199 47 51 92 51 46 173 45 52 150 55 165 93 62 57 100 48 65 152 156 75 41 67 77 128 53 98 68 46 52 40
internal_count=1512 851 661 677 340 174 289 149 321 102 140 105 388 189 69 47 51 77 146 167 45 52 47 75 93 94 48 199 47 51 92 51 46 173 45 52 150 55 165 93 62 57 100 48 65 152 156 75 41 67 77 128 53 98 68 46 52 40
is_linear=0
shrinkage=0.05


Tree=2
num_leaves=58
num_cat=0
split_feature=0 0 0 3 0 3 0 3 0 0 3 3 3 0 3 0 3 3 0 3 3 3 2 3 3 3 0 0 3 3 2 3 0 3 0 2 2 2 2 3 2 2 3 0 2 3 2 2 2 2 0 2 2 0 2 3 2
split_gain=2079.13 153.87 80.2309 39.9459 21.4622 20.5914 20.0072 5.38393 4.82381 4.59858 4.50698 2.55687 2.40689 3.75045 2.384 1.39385 0.875456 0.787048 0.589433 0.571389 0.389944 0.245561 0.214091 0.173192 0.136725 0.10843 0.10112 0.0774514 0.149566 0.072337 0.0632182 0.0547775 0.0463139 0.0382159 0.0276825 0.0273761 0.0240027 0.00669901 0.00648701 0.00629333 0.00278833 0.00237461 0.00152049 0.00104812 0.000911129 0.000839969 0.000811451 0.000697356 0.00062923 0.000553526 0.000444729 0.000186409 0.000181865 0.000114732 9.55322e-05 1.91328e-05 5.7222e-05
threshold=95.000000000000014 105.00000000000001 75.000000000000014 0.22500000000000003 85.000000000000014 0.17500000000000002 125.00000000000001 0.35000000000000003 65.000000000000014 115.00000000000001 0.35000000000000003 0.35000000000000003 0.12500000000000003 115.00000000000001 0.075000000000000025 115.00000000000001 0.27500000000000008 0.22500000000000003 125.00000000000001 0.22500000000000003 0.12500000000000003 0.17500000000000002 0.025000000000000005 0.35000000000000003 0.27500000000000008 0.17500000000000002 135.00000000000003 115.00000000000001 0.075000000000000025 0.27500000000000008 0.015000000000000001 0.27500000000000008 135.00000000000003 0.35000000000000003 135.00000000000003 0.025000000000000005 0.025000000000000005 0.025000000000000005 0.025000000000000005 0.22500000000000003 0.015000000000000001 0.040000000000000008 0.27500000000000008 135.00000000000003 0.040000000000000008 0.075000000000000025 0.040000000000000008 1.0000000180025095e-35 0.025000000000000005 1.0000000180025095e-35 125.00000000000001 0.015000000000000001 1.0000000180025095e-35 135.00000000000003 0.025000000000000005 0.27500000000000008 0.015000000000000001
decision_type=2 2 2 2 2 2 2 2 2 2 2 2 2 2 2 2 2 2 2 2 2 2 2 2 2 2 2 2 2 2 2 2 2 2 2 2 2 2 2 2 2 2 2 2 2 2 2 2 2 2 2 2 2 2 2 2 2
left_child=2 5 8 12 33 14 7 9 46 16 24 17 27 -14 -2 -9 -5 -7 21 30 -16 -15 -12 35 34 43 -26 28 -3 -11 -6 -19 -27 36 -8 -21 39 -32 42 40 49 -38 47 -20 -40 50 52 -10 -47 -4 -29 -49 -1 -52 55 56 -54
right_child=1 3 4 6 19 11 10 15 38 29 22 -13 13 18 20 -17 -18 31 25 23 -22 -23 -24 -25 26 32 -28 45 -30 -31 37 -33 -34 -35 -36 -37 41 -39 44 -41 -42 -43 -44 -45 -46 48 -48 51 -50 -51 53 -53 54 -55 -56 -57 -58
leaf_value=0.090597553253173826 -0.043680870129416391 -0.077644320249557502 0.060447450762703303 -0.038690717955646312 0.032576585299259907 -0.007577952281840575 -0.06909640081550765 -0.012045017257332803 0.077926531102922234 -0.054542256777103129 -0.052236581455778197 0.0171457904790129 -0.055915109328059265 -0.072015312075614943 -0.028926379775459116 -0.029364338216300197 -0.025525457997407231 0.0014401229694485666 -0.076497729964878247 0.037549551110714674 -0.019615253773720368 -0.065138305447719716 -0.045411285832524302 0.043667257091273434 -0.064271790742874146 -0.071952739357948312 -0.068865632362987692 -0.077615379293759668 -0.071991651437499304 -0.050775403438135983 0.034547468736058191 0.0047180512633461227 -0.075153127908706666 0.063841516038645879 -0.071577268567952254 0.039907679110765461 0.062120439608891811 0.035683283209800722 0.078705250690965095 0.061739232655494448 0.061335234131131858 0.062766780257225041 0.078580074548721318 -0.076965425491333006 0.079080047915058752 -0.077323275804519656 0.091002424699919565 0.078153526553740874 -0.077029173797176734 0.060814992189407349 -0.077430916520265444 0.078351280905983672 0.090670406818389893 -0.077283759470339178 0.090812570651372271 0.09066710688851097 0.090782045234333392
leaf_weight=30 24 25 21 23 37 26 23 21 27 26 27 28 43 25 22 26 28 25 23 32 23 27 20 23 25 26 23 24 22 25 21 26 20 23 22 20 27 34 34 31 21 30 25 25 31 44 28 26 31 20 26 22 24 27 30 22 22
leaf_count=30 24 25 21 23 37 26 23 21 27 26 27 28 43 25 22 26 28 25 23 32 23 27 20 23 25 26 23 24 22 25 21 26 20 23 22 20 27 34 34 31 21 30 25 25 31 44 28 26 31 20 26 22 24 27 30 22 22
internal_value=-1.06483e-11 -0.0516739 0.0665272 -0.0624524 0.0496012 -0.00973646 -0.0483797 -0.0356275 0.084455 -0.0420792 -0.0619517 0.00420693 -0.0729345 -0.0688936 -0.0309547 -0.0216259 -0.0314627 -0.000498108 -0.072716 0.0368153 -0.0241674 -0.0684446 -0.0493322 0.0400545 -0.0683293 -0.0750789 -0.066473 -0.0767723 -0.0749984 -0.0526958 0.0341746 0.00311122 -0.0733442 0.0619437 -0.0703093 0.0384565 0.0616527 0.0352496 0.0784951 0.0611576 0.0608667 0.0624606 0.0782424 -0.0767413 0.078884 -0.0773208 0.0907586 0.0781298 -0.0772017 0.0606267 -0.0774368 0.0782442 0.0907053 -0.0773559 0.0907382 0.0907055 0.0907238
internal_weight=1512 851 661 677 340 174 289 149 321 102 140 105 388 189 69 47 51 77 146 167 45 52 47 75 93 94 48 199 47 51 92 51 46 173 45 52 150 55 165 93 62 57 100 48 65 152 156 75 75 41 77 48 128 53 98 68 46
internal_count=1512 851 661 677 340 174 289 149 321 102 140 105 388 189 69 47 51 77 146 167 45 52 47 75 93 94 48 199 47 51 92 51 46 173 45 52 150 55 165 93 62 57 100 48 65 152 156 75 75 41 77 48 128 53 98 68 46
is_linear=0
shrinkage=0.05


Tree=3
num_leaves=54
num_cat=0
split_feature=0 0 0 1 0 1 0 0 1 1 0 1 0 1 1 0 1 1 1 1 0 2 0 1 1 1 1 2 1 1 0 2 1 1 1 0 1 1 0 1 2 1 2 0 1 2 1 2 0 1 2 2 1
split_gain=1876.41 138.867 72.4083 32.9628 19.3697 16.3319 10.4166 10.4138 8.72439 4.57056 4.35349 4.12483 2.00444 1.39292 1.06432 1.03699 0.840479 0.753538 0.676407 0.549623 0.441766 0.376604 0.21985 0.198887 0.188317 0.12239 0.117463 0.113997 0.0853279 0.0734524 0.0311339 0.0250175 0.0244995 0.0116334 0.0115153 0.0111112 0.00994074 0.0088613 0.00838893 0.00800336 0.00574856 0.00284807 0.00197037 0.00108275 0.000798568 0.000581529 0.000425163 0.000418073 0.000177384 0.000171137 0.000133183 6.24652e-05 1.20036e-05
threshold=95.000000000000014 105.00000000000001 75.000000000000014 1.5000000000000002 85.000000000000014 0.37500000000000006 115.00000000000001 125.00000000000001 0.37500000000000006 1.5000000000000002 65.000000000000014 0.62500000000000011 125.00000000000001 0.17500000000000002 0.62500000000000011 115.00000000000001 0.87500000000000011 0.62500000000000011 0.17500000000000002 0.37500000000000006 125.00000000000001 0.025000000000000005 135.00000000000003 1.5000000000000002 0.37500000000000006 1.5000000000000002 0.87500000000000011 0.015000000000000001 0.87500000000000011 0.87500000000000011 135.00000000000003 0.015000000000000001 0.87500000000000011 1.5000000000000002 0.17500000000000002 125.00000000000001 0.17500000000000002 0.87500000000000011 125.00000000000001 0.37500000000000006 0.025000000000000005 0.62500000000000011 0.015000000000000001 135.00000000000003 0.87500000000000011 0.015000000000000001 0.37500000000000006 0.025000000000000005 135.00000000000003 0.37500000000000006 0.015000000000000001 0.015000000000000001 0.17500000000000002
decision_type=2 2 2 2 2 2 2 2 2 2 2 2 2 2 2 2 2 2 2 2 2 2 2 2 2 2 2 2 2 2 2 2 2 2 2 2 2 2 2 2 2 2 2 2 2 2 2 2 2 2 2 2 2
left_child=2 5 10 6 25 13 8 15 18 17 44 19 26 -2 -10 -5 24 -7 -3 34 -21 -19 28 -18 36 32 -13 -9 -14 -24 -22 -26 39 41 38 -36 -6 -16 -8 47 -41 46 -43 -40 49 -46 51 -4 -37 52 -51 -12 -1
right_child=1 3 4 7 16 9 11 27 14 -11 33 12 22 -15 37 -17 23 21 -20 20 30 -23 29 -25 31 -27 -28 -29 -30 -31 -32 -33 -34 -35 35 48 -38 -39 43 40 -42 42 -44 -45 45 -47 -48 -49 -50 50 -52 -53 -54
leaf_value=0.086046956550507314 -0.037531455149573671 -0.07334930071463952 0.057394679103578844 -0.011865456946319543 0.029583695888519286 -0.0097878727161635967 -0.074728930957855724 -0.052827722718939187 -0.049794964657889476 0.020871501997113229 0.074057582378387457 -0.056619049076523098 -0.065533269701465488 -0.022418276521687708 -0.038253934468541834 -0.025508281885025404 0.037197238687546028 -0.0029499345998230736 -0.062242989601760085 -0.064112246502190828 -0.070209262699916439 0.005526624278863892 -0.069884105452469411 0.043127085497746104 0.033088291400954838 0.061810007177550225 -0.052078802421175199 -0.048115268338358767 -0.06176005735479552 -0.066193445141498872 -0.072488463694049474 0.035271235534123015 0.059521048267682397 0.075499057131154207 -0.072388806709876435 -0.073549421696827336 0.030944223239504062 -0.036972047144081442 -0.073912736986364636 0.057963923613230384 0.059021172821521764 0.074298956990242013 0.074913644790649422 -0.073464646476965698 0.086193020777268856 0.086536539452416572 0.074355299770832065 0.057669096666833633 -0.073725857479231702 0.086103466578892299 0.086262740748269229 0.074164596199989316 0.0860965932237691
leaf_weight=21 31 26 35 26 25 30 31 21 27 25 25 28 31 30 28 30 31 38 29 32 29 20 28 26 21 29 29 33 29 26 31 35 30 28 26 29 29 26 28 36 20 22 32 26 22 28 28 23 28 21 35 30 29
leaf_count=21 31 26 35 26 25 30 31 21 27 25 25 28 31 30 28 30 31 38 29 32 29 20 28 26 21 29 29 33 29 26 31 35 30 28 26 29 29 26 28 36 20 22 32 26 22 28 28 23 28 21 35 30 29
internal_value=-4.45874e-11 -0.0490902 0.0632008 -0.0593298 0.0471211 -0.00924964 -0.0641893 -0.0342812 -0.0521248 0.00200519 0.0802322 -0.0679962 -0.0619648 -0.0300987 -0.0416895 -0.0191741 0.0349745 -0.00335456 -0.0674932 -0.0719631 -0.0688566 -2.69833e-05 -0.0657926 0.0399021 0.0324211 0.0588465 -0.0543091 -0.0499479 -0.0637096 -0.0681071 -0.0713868 0.0344526 0.0582497 0.0745704 -0.0736643 -0.0732454 0.0303143 -0.0376367 -0.0740733 0.0579152 0.0583415 0.0743806 0.0746632 -0.073697 0.0862207 0.0863854 0.0741967 0.0575035 -0.0736361 0.086143 0.086203 0.074116 0.0860757
internal_weight=1512 851 661 677 340 174 567 110 136 113 321 431 171 61 81 56 167 88 55 260 92 58 114 57 110 173 57 54 60 54 60 56 144 165 168 83 54 54 85 114 56 137 54 54 156 50 83 58 57 106 56 55 50
internal_count=1512 851 661 677 340 174 567 110 136 113 321 431 171 61 81 56 167 88 55 260 92 58 114 57 110 173 57 54 60 54 60 56 144 165 168 83 54 54 85 114 56 137 54 54 156 50 83 58 57 106 56 55 50
is_linear=0
shrinkage=0.05


Tree=4
num_leaves=53
num_cat=0
split_feature=0 0 0 3 1 3 0 1 0 1 3 1 0 0 1 3 1 0 0 1 0 3 1 3 0 1 3 1 3 1 1 1 1 1 1 1 0 3 0 3 3 1 1 3 1 1 1 1 1 3 3 1
split_gain=1693.46 125.328 65.3485 35.9825 43.0304 18.4878 17.4811 14.9126 13.9938 10.1005 5.32264 4.18306 4.11185 3.92902 2.69507 3.91971 1.81648 1.70355 1.48847 1.06862 0.770119 1.38174 0.758532 0.582632 0.228445 0.169956 0.161866 0.110457 0.0509645 0.106595 0.0288572 0.0221108 0.0105031 0.00897151 0.00798688 0.00722302 0.00305927 0.00461219 0.00310639 0.00299059 0.00145119 0.00102704 0.000720709 0.000297906 0.000219654 0.000154452 0.000132172 0.000121541 4.26317e-05 3.31107e-05 1.87032e-05 1.08336e-05
threshold=95.000000000000014 105.00000000000001 75.000000000000014 0.22500000000000003 1.5000000000000002 0.17500000000000002 85.000000000000014 0.37500000000000006 115.00000000000001 0.37500000000000006 0.35000000000000003 0.37500000000000006 125.00000000000001 65.000000000000014 1.5000000000000002 0.12500000000000003 0.87500000000000011 125.00000000000001 115.00000000000001 0.87500000000000011 115.00000000000001 0.12500000000000003 0.87500000000000011 0.22500000000000003 135.00000000000003 0.37500000000000006 0.22500000000000003 1.5000000000000002 0.17500000000000002 0.62500000000000011 0.17500000000000002 0.87500000000000011 0.87500000000000011 0.17500000000000002 0.37500000000000006 0.37500000000000006 135.00000000000003 0.12500000000000003 125.00000000000001 0.22500000000000003 0.22500000000000003 0.37500000000000006 0.87500000000000011 0.12500000000000003 0.17500000000000002 0.37500000000000006 0.62500000000000011 1.5000000000000002 0.17500000000000002 0.17500000000000002 0.17500000000000002 0.17500000000000002
decision_type=2 2 2 2 2 2 2 2 2 2 2 2 2 2 2 2 2 2 2 2 2 2 2 2 2 2 2 2 2 2 2 2 2 2 2 2 2 2 2 2 2 2 2 2 2 2 2 2 2 2 2 2
left_child=2 5 13 14 7 11 27 18 -9 -7 17 -2 -6 42 20 -16 -11 -10 -5 -13 21 -3 25 -24 -19 33 -27 31 34 -30 -20 35 41 -8 43 44 37 38 -36 -34 -37 50 45 48 -4 51 -43 -44 -22 -47 -15 -1
right_child=1 3 6 4 12 9 22 8 10 16 -12 19 -14 32 15 -17 -18 24 30 -21 28 -23 23 -25 -26 26 -28 -29 29 -31 -32 -33 39 -35 36 40 -38 -39 -40 -41 -42 46 47 -45 -46 49 -48 -49 -50 -51 -52 -53
leaf_value=0.08174460870879037 -0.045224677443504335 -0.070327004408225036 0.054527607347284048 -0.056236469745635988 0.014447894413024187 -0.017044591851946383 0.028104511260986328 -0.013795110995748214 -0.047326423686284286 0.0076303631836448661 -0.034496844439087689 -0.026725765038281682 -0.015707572671817615 0.070442094564437868 -0.069309589080512532 -0.044561764903482987 0.023857282266459046 -0.05981550920009613 -0.071445313862391877 -0.011076746629551054 -0.069398083510222267 -0.056838737951742636 0.033277461701823823 0.043426783039019659 -0.066644919912020359 0.030315970124736909 0.035723397374153136 0.05871950778467902 -0.069929136004712844 -0.065571514938188635 -0.069429078035884426 0.056544996102650957 0.071128420619403609 0.029397011830888949 -0.07105029275019964 0.05521194320736509 -0.069814476752892526 -0.069819065469961902 -0.070261449997241682 0.07189895302057267 0.055729318442551995 0.070637533707278113 0.081994172820338496 -0.069657942004825765 0.054722328980763763 0.081848468383153294 0.070791163401944301 0.082150584718455447 -0.069489670544862756 0.081926158815622332 0.070383537610371902 0.081791764292223706
leaf_weight=21 25 39 28 25 26 36 25 35 26 35 37 24 20 25 32 32 34 25 35 20 27 37 31 26 24 31 25 29 36 23 36 30 34 29 24 33 39 26 26 20 23 28 27 23 30 24 28 23 24 32 30 29
leaf_count=21 25 39 28 25 26 36 25 35 26 35 37 24 20 25 32 32 34 25 35 20 27 37 31 26 24 31 25 29 36 23 36 30 34 29 24 33 39 26 26 20 23 28 27 23 30 24 28 23 24 32 30 29
internal_value=4.09994e-13 -0.0466357 0.0600408 -0.0563633 -0.043007 -0.00878716 0.0447651 -0.0514013 -0.0413916 0.00442481 -0.0500155 -0.0288923 0.00133682 0.0762206 -0.0663118 -0.0569357 0.0156262 -0.0576714 -0.0667286 -0.0196126 -0.0681638 -0.0637603 0.0332258 0.037907 -0.0631605 0.0308001 0.03273 0.0559042 -0.0695133 -0.0682304 -0.070423 0.0553372 0.0708419 0.0287986 -0.0699137 0.0550194 -0.0701745 -0.0703592 -0.0706401 0.0714138 0.0554244 0.0705636 0.0819096 -0.0695086 0.0546283 0.0818358 0.0707143 0.0820661 -0.0694412 0.0818929 0.0704102 0.081772
internal_weight=1512 851 661 677 289 174 340 243 147 105 112 69 46 321 388 64 69 75 96 44 324 76 167 57 49 110 56 173 248 59 71 144 165 54 189 114 115 76 50 54 56 111 156 74 58 106 56 50 51 56 55 50
internal_count=1512 851 661 677 289 174 340 243 147 105 112 69 46 321 388 64 69 75 96 44 324 76 167 57 49 110 56 173 248 59 71 144 165 54 189 114 115 76 50 54 56 111 156 74 58 106 56 50 51 56 55 50
is_linear=0
shrinkage=0.05


Tree=5
num_leaves=55
num_cat=0
split_feature=3 1 1 3 1 3 1 1 3 2 3 2 2 2 3 1 3 2 2 3 1 2 3 2 1 1 3 2 2 3 3 2 3 3 3 1 2 1 1 2 3 1 1 1 3 1 3 2 3 1 2 2 1 2
split_gain=30.0932 31.347 10.9735 5.45585 4.75681 3.69095 3.32335 3.03923 1.80677 1.79822 1.30651 1.59514 1.01254 0.955237 1.08857 0.862895 0.698755 0.675406 1.23444 0.45113 0.35083 0.707437 0.380837 0.347757 0.495672 0.425665 0.334644 0.329679 0.304143 0.256193 0.253628 0.487954 0.23134 0.20737 0.118708 0.11835 0.419709 0.330392 0.131088 0.0988541 0.0818188 0.409771 0.338486 0.0714265 0.052656 0.0381177 0.0271131 0.0259668 0.020048 0.018887 0.244121 0.0173804 0.0118042 0.00770679
threshold=0.22500000000000003 1.5000000000000002 0.62500000000000011 0.35000000000000003 0.17500000000000002 0.12500000000000003 0.17500000000000002 0.87500000000000011 0.35000000000000003 0.040000000000000008 0.17500000000000002 0.015000000000000001 0.015000000000000001 0.025000000000000005 0.27500000000000008 0.87500000000000011 0.075000000000000025 0.015000000000000001 1.0000000180025095e-35 0.17500000000000002 0.37500000000000006 0.015000000000000001 0.35000000000000003 0.025000000000000005 1.5000000000000002 0.62500000000000011 0.075000000000000025 0.040000000000000008 0.040000000000000008 0.17500000000000002 0.27500000000000008 0.015000000000000001 0.35000000000000003 0.17500000000000002 0.35000000000000003 0.62500000000000011 1.0000000180025095e-35 0.87500000000000011 0.37500000000000006 0.015000000000000001 0.27500000000000008 0.87500000000000011 0.87500000000000011 1.5000000000000002 0.27500000000000008 0.37500000000000006 0.075000000000000025 1.0000000180025095e-35 0.075000000000000025 0.37500000000000006 0.025000000000000005 1.0000000180025095e-35 1.5000000000000002 1.0000000180025095e-35
decision_type=2 2 2 2 2 2 2 2 2 2 2 2 2 2 2 2 2 2 2 2 2 2 2 2 2 2 2 2 2 2 2 2 2 2 2 2 2 2 2 2 2 2 2 2 2 2 2 2 2 2 2 2 2 2
left_child=4 2 6 27 10 23 9 12 13 32 11 -1 33 14 -3 -5 -13 18 -9 52 21 47 44 35 25 45 -27 40 49 -30 -22 -32 39 51 -33 36 -6 48 -38 -2 42 -42 -4 46 -23 -25 -39 -8 -37 -14 -51 -7 -19 -35
right_child=1 8 3 15 5 7 20 17 -10 -11 -12 16 28 -15 -16 -17 -18 19 -20 -21 30 22 -24 24 -26 26 -28 -29 29 -31 31 34 -34 53 -36 37 38 43 -40 -41 41 -43 -44 -45 -46 -47 -48 -49 -50 50 -52 -53 -54 -55
leaf_value=-0.0097462848538444162 -0.010458443562189739 0.015758871083909814 0.010212997882626952 0.017943990396128762 -0.0053731130865904003 -0.0037326353517445651 0.0047532523749396205 0.0026934655326785462 0.041773703873056817 -0.023458872064948084 -0.0060536349520963787 -0.015761220455169679 -0.0066334878576212912 0.03571158120265374 0.031487900348094462 0.028969354566652328 -0.02646951064085349 0.0047466818420659933 0.017423076257109645 -0.0019876172128868732 -0.00042798864440276078 -0.00026853960752487187 -0.009929945985121388 -0.0033674657344818118 -0.00042913307746251421 -0.014775544073846606 -0.0069739780122680325 0.011792628831850987 -0.014357682479464491 -0.0068105079064315014 -0.0011295825093984603 0.0049430148986478652 -0.0027181535065174105 0.0014496698088589171 0.0098660516142845163 -0.0060319877483628014 -0.010678877402096987 -0.010210464311682661 -0.015240994672621451 -0.0062461942434310913 -0.0004799650223166855 0.0079454632926612128 0.0028203458090623225 -0.011893285769555305 -0.0035835185614616974 -0.0059538487344980243 -0.0078537494517289669 0.0024273653204242391 -0.0039423663169145589 -0.0019618916635711988 -0.0085153093320076128 -0.0018056968450546264 0.006443969458341599 0.0028042732072728026
leaf_weight=42 30 22 32 36 26 22 24 33 37 20 34 25 29 26 22 35 39 21 25 38 39 25 21 29 30 27 28 24 23 22 25 24 25 21 25 22 32 23 31 26 27 31 30 36 23 28 26 24 24 30 27 25 20 21
leaf_count=42 30 22 32 36 26 22 24 33 37 20 34 25 29 26 22 35 39 21 25 38 39 25 21 29 30 27 28 24 23 22 25 24 25 21 25 22 32 23 31 26 27 31 30 36 23 28 26 24 24 30 27 25 20 21
internal_value=-4.85449e-12 0.00809036 0.00324075 0.0120359 -0.00615018 -0.00450834 -0.00247209 -0.000900939 0.032837 -0.0100325 -0.0145822 -0.0173178 -0.00454149 0.0281133 0.0236234 0.023379 -0.0222866 0.00494519 0.00904244 0.00193709 0.000847931 -0.00107118 -0.00431396 -0.00806592 -0.00613697 -0.00766585 -0.0108038 0.00644305 -0.0073374 -0.010668 0.00283498 0.00455465 -0.00671739 -0.000426153 0.00745477 -0.00931097 -0.0107179 -0.00835509 -0.0129237 -0.00850276 0.00537314 0.00402328 0.00663591 -0.0102023 -0.00185697 -0.00463797 -0.00895996 0.00359031 -0.00494175 -0.00559467 -0.00506614 -0.00270767 0.00557463 0.00212697
internal_weight=1512 653 546 215 859 719 331 357 107 101 140 106 220 70 44 71 64 137 58 79 230 117 69 362 142 112 55 144 131 45 113 74 81 89 49 220 89 131 63 56 120 58 62 85 48 57 49 48 46 86 57 47 41 42
internal_count=1512 653 546 215 859 719 331 357 107 101 140 106 220 70 44 71 64 137 58 79 230 117 69 362 142 112 55 144 131 45 113 74 81 89 49 220 89 131 63 56 120 58 62 85 48 57 49 48 46 86 57 47 41 42
is_linear=0
shrinkage=0.05


Tree=6
num_leaves=60
num_cat=0
split_feature=0 0 0 3 3 0 0 3 0 0 3 3 3 3 0 0 3 3 0 3 3 3 2 2 3 3 3 0 3 2 3 3 0 0 0 2 2 2 2 3 2 3 3 3 3 0 3 2 3 2 0 2 3 0 2 3 2 3 3
split_gain=1526.4 112.938 58.9091 30.4306 15.9506 15.7512 15.4505 4.61764 3.5142 3.51157 3.44619 2.15657 2.13444 1.83921 1.67689 1.1123 0.746446 0.668541 0.523374 0.902742 0.350207 0.342654 0.338269 0.182791 0.135578 0.134835 0.129693 0.0886747 0.0805817 0.0672572 0.0571172 0.0499376 0.09527 0.0392513 0.0271868 0.0264142 0.0201378 0.0107835 0.0078264 0.0077698 0.00663872 0.00554539 0.00461048 0.00225671 0.00181079 0.00130554 0.00116441 0.00101049 0.000873939 0.000752326 0.000507771 0.000427683 0.000415503 0.000411318 0.000159556 7.55272e-05 5.71133e-05 1.61158e-05 3.42933e-07
threshold=95.000000000000014 105.00000000000001 75.000000000000014 0.22500000000000003 0.17500000000000002 85.000000000000014 125.00000000000001 0.35000000000000003 115.00000000000001 65.000000000000014 0.35000000000000003 0.35000000000000003 0.075000000000000025 0.17500000000000002 125.00000000000001 115.00000000000001 0.27500000000000008 0.22500000000000003 115.00000000000001 0.12500000000000003 0.22500000000000003 0.12500000000000003 0.025000000000000005 0.025000000000000005 0.075000000000000025 0.27500000000000008 0.35000000000000003 135.00000000000003 0.27500000000000008 0.015000000000000001 0.27500000000000008 0.12500000000000003 125.00000000000001 135.00000000000003 135.00000000000003 0.040000000000000008 0.025000000000000005 0.015000000000000001 0.025000000000000005 0.22500000000000003 0.015000000000000001 0.27500000000000008 0.22500000000000003 0.35000000000000003 0.12500000000000003 125.00000000000001 0.12500000000000003 0.040000000000000008 0.27500000000000008 0.025000000000000005 135.00000000000003 1.0000000180025095e-35 0.075000000000000025 135.00000000000003 0.025000000000000005 0.075000000000000025 1.0000000180025095e-35 0.27500000000000008 0.075000000000000025
decision_type=2 2 2 2 2 2 2 2 2 2 2 2 2 2 2 2 2 2 2 2 2 2 2 2 2 2 2 2 2 2 2 2 2 2 2 2 2 2 2 2 2 2 2 2 2 2 2 2 2 2 2 2 2 2 2 2 2 2 2
left_child=2 4 9 13 12 35 7 8 16 39 25 17 -2 18 22 -9 -5 -6 19 24 29 -14 -15 -12 -3 34 36 -27 -10 -7 -19 45 -33 -16 -8 37 -22 41 -31 46 44 51 47 57 -11 52 58 -42 49 -39 -34 -4 -20 55 -55 -47 -46 -41 -1
right_child=1 3 5 6 11 20 10 15 28 40 23 -13 21 14 33 -17 -18 30 31 -21 26 -23 -24 -25 -26 27 -28 -29 -30 38 -32 32 50 -35 -36 -37 -38 48 -40 43 42 -43 -44 -45 56 53 -48 -49 -50 -51 -52 -53 -54 54 -56 -57 -58 -59 -60
leaf_value=0.078238519281148916 -0.039062974850336718 -0.067526488542556759 0.051892098665237432 -0.033389174517082135 -0.0069207214580204058 0.027829687659804887 -0.059494939835175224 -0.0084950701111838941 -0.047225370902854669 0.067311924397945408 -0.044802634990601629 0.015808369997622713 -0.025060162286866795 -0.053418358291188878 -0.06178860515356064 -0.023966618770590198 -0.021232599508948624 0.0012244801521301271 -0.066624860962231955 -0.05339610281472023 0.031920532323420049 -0.016331871356005254 -0.044613810852169991 -0.03849597071297467 -0.062144626947966491 -0.054825930774211884 0.037207550069560176 -0.059127794011779457 -0.043249642550945287 0.029827852334295003 0.0045716822147369388 -0.062166361331939701 -0.065803253650665292 -0.064734885990619662 -0.061953493546355855 0.054321542557548078 0.033943028002977375 0.052909834296615034 0.031055526785990772 0.077518759489059452 0.067672491967678078 0.053024810850620274 0.067095488309860229 0.076939461447975865 0.066688709096475091 -0.066325098046889672 0.0778693321423653 0.06810777038335801 0.053464972431009464 0.053308861028580436 -0.066128783226013191 0.052187596013148631 -0.066327464062234637 -0.065995710343122488 -0.066168361383935684 -0.066202095399300262 0.066796363890171059 0.077575532436370859 0.078247268426985983
leaf_weight=24 24 25 25 23 26 37 23 21 26 20 27 28 22 24 26 26 28 25 24 26 32 23 20 20 22 25 23 23 25 21 26 25 23 20 22 34 20 27 34 25 40 20 35 22 22 26 39 20 22 21 25 24 23 32 23 24 28 25 21
leaf_count=24 24 25 25 23 26 37 23 21 26 20 27 28 22 24 26 26 28 25 24 26 32 23 20 20 22 25 23 23 25 21 26 25 23 20 22 34 20 27 34 25 40 20 35 22 22 26 39 20 22 21 25 24 23 32 23 24 28 25 21
internal_value=-1.31968e-11 -0.0442756 0.0570023 -0.0535099 -0.00834653 0.0424988 -0.0412271 -0.0300208 -0.0359957 0.0723643 -0.0531538 0.00392544 -0.0270213 -0.0626587 -0.0563946 -0.0170538 -0.026715 -0.000395624 -0.0645505 -0.0608718 0.0315453 -0.020599 -0.0494163 -0.0421189 -0.0650073 -0.0587306 0.0340812 -0.0568872 -0.0452765 0.0294779 0.0029309 -0.0657441 -0.0646692 -0.0630696 -0.0606969 0.0530723 0.0326984 0.0527668 0.0305868 0.0777426 0.0672793 0.0523232 0.0675515 0.0773615 0.0669098 -0.0662603 0.0780693 0.0678176 0.053204 0.0530844 -0.0659728 0.0520368 -0.0664793 -0.0661623 -0.0660679 -0.0662661 0.066749 0.0775471 0.0782426
internal_weight=1512 851 661 677 174 340 289 149 102 321 140 105 69 388 90 47 51 77 298 73 167 45 44 47 47 93 75 48 51 92 51 225 73 46 45 173 52 139 55 156 165 69 95 72 70 152 84 60 70 48 48 49 47 105 55 50 50 50 45
internal_count=1512 851 661 677 174 340 289 149 102 321 140 105 69 388 90 47 51 77 298 73 167 45 44 47 47 93 75 48 51 92 51 225 73 46 45 173 52 139 55 156 165 69 95 72 70 152 84 60 70 48 48 49 47 105 55 50 50 50 45
is_linear=0
shrinkage=0.05


Tree=7
num_leaves=55
num_cat=0
split_feature=0 0 0 1 0 1 0 1 0 1 0 0 1 0 1 0 1 1 1 1 2 0 1 0 1 2 1 2 1 1 0 1 2 2 1 2 1 1 0 1 0 1 0 2 2 1 2 1 1 2 1 1 2 1
split_gain=1377.58 101.927 53.1655 25.1786 14.2154 12.6798 8.1999 7.70301 7.59505 3.61141 3.16919 1.75081 1.7659 1.56442 1.14682 0.902195 0.587042 0.571836 0.542081 0.350979 0.321529 0.317971 0.227084 0.191915 0.106423 0.0945981 0.074939 0.0581006 0.0569938 0.05366 0.021653 0.0124226 0.0122579 0.0120151 0.0110683 0.00599144 0.0034366 0.00326658 0.00296449 0.00757574 0.0093111 0.00447733 0.00437255 0.00279487 0.0019754 0.0012273 0.000718231 0.000566357 0.00055976 0.00054393 0.000253019 0.000198179 9.03075e-05 2.41258e-05
threshold=95.000000000000014 105.00000000000001 75.000000000000014 1.5000000000000002 85.000000000000014 0.37500000000000006 125.00000000000001 0.62500000000000011 115.00000000000001 1.5000000000000002 65.000000000000014 115.00000000000001 0.37500000000000006 125.00000000000001 0.17500000000000002 115.00000000000001 0.62500000000000011 1.5000000000000002 0.17500000000000002 0.37500000000000006 0.025000000000000005 125.00000000000001 0.37500000000000006 135.00000000000003 0.87500000000000011 0.015000000000000001 0.87500000000000011 0.025000000000000005 0.87500000000000011 1.5000000000000002 135.00000000000003 0.87500000000000011 0.025000000000000005 0.015000000000000001 0.62500000000000011 0.015000000000000001 0.17500000000000002 1.5000000000000002 135.00000000000003 0.17500000000000002 125.00000000000001 0.17500000000000002 125.00000000000001 0.015000000000000001 0.040000000000000008 0.17500000000000002 1.0000000180025095e-35 0.87500000000000011 0.87500000000000011 0.015000000000000001 0.62500000000000011 0.62500000000000011 1.0000000180025095e-35 0.37500000000000006
decision_type=2 2 2 2 2 2 2 2 2 2 2 2 2 2 2 2 2 2 2 2 2 2 2 2 2 2 2 2 2 2 2 2 2 2 2 2 2 2 2 2 2 2 2 2 2 2 2 2 2 2 2 2 2 2
left_child=2 5 10 7 29 14 15 11 31 16 37 12 18 24 -2 -5 -7 22 -3 38 -18 -21 36 26 -10 -8 -15 33 -25 32 -23 -9 43 -24 -34 48 -6 45 39 40 -13 -40 -41 46 47 -1 -4 53 52 50 -47 -51 -12 -37
right_child=1 3 4 6 17 9 25 8 13 -11 35 19 -14 23 -16 -17 20 -19 -20 21 -22 30 27 28 -26 -27 -28 -29 -30 -31 -32 -33 34 -35 -36 44 -38 -39 41 42 -42 -43 -44 -45 -46 49 -48 -49 -50 51 -52 -53 -54 -55
leaf_value=0.074301389285496303 -0.033044181523784515 -0.063821743772580083 0.049279806840008711 -0.0087198325217916414 0.02573510068655014 -0.0084548235808809599 -0.04546768534041587 -0.032280000046427761 -0.048494138355766027 0.018758035704493525 0.063585506785999654 -0.064312145786900685 -0.042965922532258213 -0.056203343118390731 -0.019330903096124532 -0.02144510316041609 -0.0025402860372866457 0.036781521657338515 -0.053879193396403874 -0.055310130398720507 0.0052919780591037125 -0.060499812405684895 0.02867149742263736 -0.060168233407395223 -0.044172510984032576 -0.041174876732243737 -0.052667282727257958 0.031905721741564134 -0.05691724740541898 0.052380972484062462 -0.062400561763394272 -0.030762224860686378 0.050070079459863553 0.030224597454071047 0.051552433371543888 0.063945535818735758 0.026535049286381951 0.073305280312247909 -0.062399452924728399 -0.062428659659165602 -0.063054272958210533 -0.063310646797929498 -0.063321621870172443 0.050032405961643572 0.064501572808911722 0.073865139981110897 0.049634833846773418 0.064220802621407946 0.063355492732741617 0.07406089726616355 0.073630388216538875 0.073887534253299234 0.063723149895668033 0.063869745106924156
leaf_weight=21 31 26 29 26 25 30 21 28 28 25 22 31 27 31 30 30 38 26 29 32 20 29 33 28 29 33 29 34 26 29 31 26 34 20 20 21 29 23 26 26 28 28 29 33 31 24 28 22 22 34 22 32 26 21
leaf_count=21 31 26 29 26 25 30 21 28 28 25 22 31 27 31 30 30 38 26 29 32 20 29 33 28 29 33 29 34 26 29 31 26 34 20 20 21 29 23 26 26 28 28 29 33 31 24 28 22 22 34 22 32 26 21
internal_value=-2.29058e-11 -0.0420618 0.0541522 -0.0508344 0.0403738 -0.00792921 -0.0289424 -0.0550816 -0.0478965 0.00198774 0.0687461 -0.0598086 -0.0534383 -0.0530588 -0.0262999 -0.0155369 -0.00277655 0.029968 -0.0585793 -0.0618176 0.000160495 -0.0593352 0.0287116 -0.0564405 -0.0462954 -0.0428443 -0.0544942 0.0302925 -0.0586029 0.0504187 -0.0614819 -0.0315492 0.0500235 0.0292576 0.0506191 0.0639153 0.0261647 0.0738555 -0.0631771 -0.0633217 -0.0637152 -0.0628719 -0.0628995 0.0496662 0.064174 0.0739506 0.0494542 0.0640153 0.0635643 0.0738849 0.0737529 0.0739768 0.0636601 0.0639076
internal_weight=1512 851 661 677 340 174 110 567 225 113 321 342 82 171 61 56 88 167 55 260 58 92 141 114 57 54 60 87 54 173 60 54 144 53 54 165 54 156 168 114 59 54 55 90 95 133 57 64 70 112 46 66 48 42
internal_count=1512 851 661 677 340 174 110 567 225 113 321 342 82 171 61 56 88 167 55 260 58 92 141 114 57 54 60 87 54 173 60 54 144 53 54 165 54 156 168 114 59 54 55 90 95 133 57 64 70 112 46 66 48 42
is_linear=0
shrinkage=0.05


Tree=8
num_leaves=55
num_cat=0
split_feature=0 0 0 1 0 1 0 1 0 1 0 0 1 0 1 0 1 1 1 1 0 2 1 0 1 0 1 2 1 1 1 0 2 2 1 2 2 1 0 1 0 1 0 2 2 1 2 1 1 2 1 1 2 1
split_gain=1243.26 91.989 47.9819 22.7237 12.8294 11.4436 7.40041 6.95197 6.85453 3.2593 2.86019 1.58011 1.59373 1.41189 1.03501 0.814231 0.53188 0.518365 0.489228 0.316758 0.286969 0.27389 0.204018 0.173203 0.0960469 0.0881692 0.0676324 0.0517404 0.0514369 0.0484282 0.0430936 0.0195418 0.0115261 0.0110628 0.00998909 0.00540727 0.00326793 0.0029481 0.00267545 0.00683712 0.00840328 0.00404079 0.00394624 0.00252237 0.0017828 0.00110765 0.000648203 0.000511139 0.000505181 0.000490898 0.00022835 0.000178856 8.15026e-05 2.17731e-05
threshold=95.000000000000014 105.00000000000001 75.000000000000014 1.5000000000000002 85.000000000000014 0.37500000000000006 125.00000000000001 0.62500000000000011 115.00000000000001 1.5000000000000002 65.000000000000014 115.00000000000001 0.37500000000000006 125.00000000000001 0.17500000000000002 115.00000000000001 0.87500000000000011 0.62500000000000011 0.17500000000000002 0.37500000000000006 125.00000000000001 0.015000000000000001 1.5000000000000002 135.00000000000003 0.87500000000000011 135.00000000000003 0.87500000000000011 0.025000000000000005 0.87500000000000011 1.5000000000000002 0.37500000000000006 135.00000000000003 0.015000000000000001 0.025000000000000005 0.62500000000000011 0.015000000000000001 0.015000000000000001 1.5000000000000002 135.00000000000003 0.17500000000000002 125.00000000000001 0.17500000000000002 125.00000000000001 0.015000000000000001 0.040000000000000008 0.17500000000000002 1.0000000180025095e-35 0.87500000000000011 0.87500000000000011 0.015000000000000001 0.62500000000000011 0.62500000000000011 1.0000000180025095e-35 0.37500000000000006
decision_type=2 2 2 2 2 2 2 2 2 2 2 2 2 2 2 2 2 2 2 2 2 2 2 2 2 2 2 2 2 2 2 2 2 2 2 2 2 2 2 2 2 2 2 2 2 2 2 2 2 2 2 2 2 2
left_child=2 5 10 7 29 14 15 11 32 16 37 12 18 24 -2 -5 21 30 -3 38 -21 -7 27 26 -10 -8 -15 -19 -25 33 36 -22 -9 43 -35 48 -6 45 39 40 -13 -40 -41 46 47 -1 -4 53 52 50 -47 -51 -12 -37
right_child=1 3 4 6 17 9 25 8 13 -11 35 19 -14 23 -16 -17 -18 22 -20 20 31 -23 -24 28 -26 -27 -28 -29 -30 -31 -32 -33 -34 34 -36 44 -38 -39 41 42 -42 -43 -44 -45 -46 49 -48 -49 -50 51 -52 -53 -54 -55
leaf_value=0.070586320615950091 -0.031391972495663549 -0.060630656434939457 0.046815816595636571 -0.0082838415096585568 0.024404895953510121 -0.0094769454444758594 -0.038526078820228578 -0.030887475148552942 -0.046069432262863433 0.017820133894681931 0.060406231067397377 -0.061096539035920175 -0.040817625641270922 -0.053393175621186534 -0.018364357805500428 -0.020372847511122626 0.0029067811459816736 0.028447239970167477 -0.051185232606427426 -0.05254462389275432 -0.057474821805953979 -0.0025419764812769636 0.034942444929709805 -0.05715982126338142 -0.041963885624989358 -0.042577956160851596 -0.05003391794603447 0.031570164930252803 -0.054071384209852962 0.049761924147605899 0.027219983190298083 -0.059280534136679865 -0.029389029677787965 0.047566575425512653 0.048974811136722564 0.060748258374986201 0.025191504676495832 0.069640015519183626 -0.05927948103501246 -0.059307226080160882 -0.05990155956574849 -0.060145114575113567 -0.060155541115793687 0.047530784841739775 0.061276494303057275 0.0701718827088674 0.047153092282158991 0.061009762774814263 0.060187718543139368 0.070357852297670706 0.069948868588967761 0.070193157717585566 0.060536992091398983 0.060676257950919014
leaf_weight=21 31 26 29 26 23 24 25 21 28 25 22 31 27 31 30 30 29 36 29 32 29 35 26 28 29 29 29 21 26 29 30 31 33 34 20 21 31 23 26 26 28 28 29 33 31 24 28 22 22 34 22 32 26 21
leaf_count=21 31 26 29 26 23 24 25 21 28 25 22 31 27 31 30 30 29 36 29 32 29 35 26 28 29 29 29 21 26 29 30 31 33 34 20 21 31 23 26 26 28 28 29 33 31 24 28 22 22 34 22 32 26 21
internal_value=-3.75578e-11 -0.0399587 0.0514446 -0.0482927 0.0383551 -0.00753275 -0.0274953 -0.0523275 -0.0455017 0.00188836 0.0653088 -0.0568181 -0.0507664 -0.0504058 -0.0249849 -0.0147601 -0.00263772 0.0284696 -0.0556503 -0.0587268 -0.0563684 -0.00536298 0.031272 -0.0536184 -0.0439806 -0.0407021 -0.0517695 0.0295978 -0.0556728 0.0478978 0.0257006 -0.0584078 -0.0299718 0.0475224 0.0480881 0.0607196 0.0248565 0.0701627 -0.0600182 -0.0601556 -0.0605294 -0.0597283 -0.0597545 0.0471829 0.0609653 0.0702531 0.0469815 0.0608145 0.0603861 0.0701906 0.0700652 0.070278 0.0604771 0.0607123
internal_weight=1512 851 661 677 340 174 110 567 225 113 321 342 82 171 61 56 88 167 55 260 92 59 83 114 57 54 60 57 54 173 84 60 54 144 54 165 54 156 168 114 59 54 55 90 95 133 57 64 70 112 46 66 48 42
internal_count=1512 851 661 677 340 174 110 567 225 113 321 342 82 171 61 56 88 167 55 260 92 59 83 114 57 54 60 57 54 173 84 60 54 144 54 165 54 156 168 114 59 54 55 90 95 133 57 64 70 112 46 66 48 42
is_linear=0
shrinkage=0.05


Tree=9
num_leaves=55
num_cat=0
split_feature=0 0 0 1 0 1 0 1 0 1 0 0 1 0 1 0 1 1 1 1 2 0 1 0 1 2 2 2 1 1 1 0 1 2 1 2 1 1 0 1 0 1 0 2 2 1 2 1 1 2 1 1 2 1
split_gain=1122.04 83.02 43.3036 20.5081 11.5786 10.3278 6.67887 6.27415 6.18622 2.94152 2.58132 1.42605 1.43834 1.27423 0.934093 0.734844 0.503828 0.467824 0.441528 0.285874 0.283649 0.25899 0.184127 0.156316 0.0866823 0.0855585 0.0631393 0.0466957 0.0464218 0.0437064 0.038892 0.0176365 0.0112883 0.00998414 0.00901516 0.00488007 0.00309312 0.00266066 0.0024146 0.00617049 0.00758396 0.00364682 0.00356149 0.00227644 0.00160897 0.00099965 0.000585003 0.000461301 0.000455928 0.000443035 0.000206085 0.000161419 7.35567e-05 1.96496e-05
threshold=95.000000000000014 105.00000000000001 75.000000000000014 1.5000000000000002 85.000000000000014 0.37500000000000006 125.00000000000001 0.62500000000000011 115.00000000000001 1.5000000000000002 65.000000000000014 115.00000000000001 0.37500000000000006 125.00000000000001 0.17500000000000002 115.00000000000001 0.62500000000000011 0.62500000000000011 0.17500000000000002 0.37500000000000006 0.015000000000000001 125.00000000000001 1.5000000000000002 135.00000000000003 0.87500000000000011 0.015000000000000001 0.025000000000000005 0.025000000000000005 0.87500000000000011 1.5000000000000002 0.37500000000000006 135.00000000000003 0.87500000000000011 0.025000000000000005 0.62500000000000011 0.015000000000000001 0.17500000000000002 1.5000000000000002 135.00000000000003 0.17500000000000002 125.00000000000001 0.17500000000000002 125.00000000000001 0.015000000000000001 0.040000000000000008 0.17500000000000002 1.0000000180025095e-35 0.87500000000000011 0.87500000000000011 0.015000000000000001 0.62500000000000011 0.62500000000000011 1.0000000180025095e-35 0.37500000000000006
decision_type=2 2 2 2 2 2 2 2 2 2 2 2 2 2 2 2 2 2 2 2 2 2 2 2 2 2 2 2 2 2 2 2 2 2 2 2 2 2 2 2 2 2 2 2 2 2 2 2 2 2 2 2 2 2
left_child=2 5 10 7 29 14 15 11 32 16 37 12 18 24 -2 -5 -7 30 -3 38 -18 -21 27 26 -10 -8 -15 -19 -25 33 36 -23 -9 43 -35 48 -6 45 39 40 -13 -40 -41 46 47 -1 -4 53 52 50 -47 -51 -12 -37
right_child=1 3 4 6 17 9 25 8 13 -11 35 19 -14 23 -16 -17 20 22 -20 21 -22 31 -24 28 -26 -27 -28 -29 -30 -31 -32 -33 -34 34 -36 44 -38 -39 41 42 -42 -43 -44 -45 -46 49 -48 -49 -50 51 -52 -53 -54 -55
leaf_value=0.06705700471287683 -0.029822373846846242 -0.057599123624654913 0.044475025760716408 -0.007869649148331239 0.023206076085567476 -0.0077662841261674958 -0.041161876508877399 -0.029169790340321407 -0.043765959795564413 0.016929127037525176 0.057385919581760064 -0.058041711776487294 -0.038776744550300973 -0.050505396185649767 -0.01744613990808527 -0.019354205494746566 -0.0038022027090191843 0.027024877857830788 -0.048625971325512593 -0.049917391873896128 0.0032584955153817478 -0.054601081075339487 0.033195322522750273 -0.054301829848970688 -0.039865690932191652 -0.037079322974508007 -0.047194551614423597 0.029991656399908518 -0.051367815870505124 0.047273827729554019 0.025858984142541886 -0.056316507054913437 -0.027722964171904937 0.045188246492077325 0.046526070684194565 0.057710845697493789 0.023964996224847334 0.066158015054205196 -0.05631550573385679 -0.056341864512516909 -0.056906481087207798 -0.057137858654771535 -0.057147764954073678 0.045154245875098489 0.058212669241812925 0.066663288821776717 0.044795437582901554 0.057959274541247975 0.057178332317959185 0.066839960217475888 0.066451425714926279 0.066683499701321133 0.057510143059950614 0.057642446245465967
leaf_weight=21 31 26 29 26 25 30 21 28 28 25 22 31 27 36 30 30 25 36 29 32 33 29 26 28 29 33 24 21 26 29 30 31 26 34 20 21 29 23 26 26 28 28 29 33 31 24 28 22 22 34 22 32 26 21
leaf_count=21 31 26 29 26 25 30 21 28 28 25 22 31 27 36 30 30 25 36 29 32 33 29 26 28 29 33 24 21 26 29 30 31 26 34 20 21 29 23 26 26 28 28 29 33 31 24 28 22 22 34 22 32 26 21
internal_value=4.01095e-11 -0.0379608 0.0488723 -0.0458781 0.0364374 -0.00715611 -0.0261205 -0.0497111 -0.0432266 0.00179394 0.0620433 -0.0539772 -0.0482281 -0.0478856 -0.0237357 -0.0140221 -0.00250583 0.0270461 -0.0528678 -0.0557904 0.000215091 -0.05355 0.0297084 -0.0509375 -0.0417816 -0.038667 -0.0491811 0.0281179 -0.0528892 0.0455029 0.0244156 -0.0554874 -0.0284732 0.0451462 0.0456837 0.0576836 0.0236136 0.0666546 -0.0570173 -0.0571478 -0.057503 -0.0567419 -0.0567668 0.0448238 0.057917 0.0667404 0.0446324 0.0577738 0.0573668 0.0666811 0.066562 0.0667641 0.0574532 0.0576766
internal_weight=1512 851 661 677 340 174 110 567 225 113 321 342 82 171 61 56 88 167 55 260 58 92 83 114 57 54 60 57 54 173 84 60 54 144 54 165 54 156 168 114 59 54 55 90 95 133 57 64 70 112 46 66 48 42
internal_count=1512 851 661 677 340 174 110 567 225 113 321 342 82 171 61 56 88 167 55 260 58 92 83 114 57 54 60 57 54 173 84 60 54 144 54 165 54 156 168 114 59 54 55 90 95 133 57 64 70 112 46 66 48 42
is_linear=0
shrinkage=0.05


Tree=10
num_leaves=55
num_cat=0
split_feature=0 0 0 1 0 1 0 1 0 1 0 0 1 0 1 0 1 1 1 1 2 0 0 1 1 0 1 1 1 1 2 0 2 2 1 2 2 1 0 1 0 1 0 2 2 1 2 1 1 2 1 1 2 1
split_gain=1012.64 74.9256 39.0815 18.5086 10.4496 9.32085 6.02768 5.66242 5.58306 2.65472 2.32964 1.28701 1.2981 1.14999 0.843019 0.663197 0.456626 0.424037 0.39848 0.258002 0.234693 0.233738 0.141075 0.104859 0.0888636 0.0797474 0.0782308 0.060448 0.0418957 0.0394451 0.0171807 0.0159169 0.0104756 0.00901068 0.00813617 0.00440426 0.00294134 0.00240125 0.00217917 0.00556887 0.00684453 0.00329124 0.00321424 0.00205449 0.0014521 0.000902183 0.000527967 0.000416326 0.000411471 0.000399837 0.000185992 0.000145681 6.63843e-05 1.7734e-05
threshold=95.000000000000014 105.00000000000001 75.000000000000014 1.5000000000000002 85.000000000000014 0.37500000000000006 125.00000000000001 0.62500000000000011 115.00000000000001 1.5000000000000002 65.000000000000014 115.00000000000001 0.37500000000000006 125.00000000000001 0.17500000000000002 115.00000000000001 0.87500000000000011 0.87500000000000011 0.17500000000000002 0.37500000000000006 0.015000000000000001 125.00000000000001 135.00000000000003 1.5000000000000002 0.37500000000000006 135.00000000000003 0.87500000000000011 0.87500000000000011 0.87500000000000011 1.5000000000000002 0.025000000000000005 135.00000000000003 0.015000000000000001 0.025000000000000005 0.62500000000000011 0.015000000000000001 0.015000000000000001 1.5000000000000002 135.00000000000003 0.17500000000000002 125.00000000000001 0.17500000000000002 125.00000000000001 0.015000000000000001 0.040000000000000008 0.17500000000000002 1.0000000180025095e-35 0.87500000000000011 0.87500000000000011 0.015000000000000001 0.62500000000000011 0.62500000000000011 1.0000000180025095e-35 0.37500000000000006
decision_type=2 2 2 2 2 2 2 2 2 2 2 2 2 2 2 2 2 2 2 2 2 2 2 2 2 2 2 2 2 2 2 2 2 2 2 2 2 2 2 2 2 2 2 2 2 2 2 2 2 2 2 2 2 2
left_child=2 5 10 7 29 14 15 11 32 16 37 12 18 26 -2 -5 20 24 -3 38 -7 -21 27 -19 36 -8 -10 -15 -24 33 -26 -23 -9 43 -35 48 -6 45 39 40 -13 -40 -41 46 47 -1 -4 53 52 50 -47 -51 -12 -37
right_child=1 3 4 6 17 9 25 8 13 -11 35 19 -14 22 -16 -17 -18 23 -20 21 -22 31 28 -25 30 -27 -28 -29 -30 -31 -32 -33 -34 34 -36 44 -38 -39 41 42 -42 -43 -44 -45 -46 49 -48 -49 -50 51 -52 -53 -54 -55
leaf_value=0.063704154037293945 -0.028331255191756832 -0.054719168291642119 0.042251274297977315 -0.0074761662488946543 0.022004549270090851 -0.0087138859128269072 -0.034664157699793578 -0.027922504893060598 -0.041577662554170405 0.016082670941948891 0.054516623507846487 -0.055139626610663628 -0.036837907107891858 -0.048256988102389924 -0.016573832947760821 -0.018386495395485935 0.0027567745025815636 0.02722987080774 -0.046194672635917006 -0.047421522252261643 -0.0022943080642393657 -0.051871026795485921 -0.051586738973855975 0.031535556683173552 0.024571224915630678 -0.038517664167387736 -0.037872406853170233 -0.045081161219498206 -0.048799424790419071 0.044910136481811261 0.026364444670352066 -0.053500681923281758 -0.026493970911498323 0.042928834259510044 0.044199766963720327 0.054825303100404288 0.022750816710533635 0.062850113796151214 -0.053499731879967906 -0.053524771447365109 -0.054061157149927958 -0.05428096609456199 -0.054290376038386906 0.042896533825180751 0.055302036193109333 0.063330124566952389 0.042555665863411772 0.05506131107156928 0.054319416663863446 0.063497961794628827 0.063128854469819515 0.063349324278533459 0.054634635265056908 0.054760323251996729
leaf_weight=21 31 26 29 26 23 24 25 21 28 25 22 31 27 31 30 30 29 31 29 32 35 29 28 26 34 29 29 29 26 29 22 31 33 34 20 21 31 23 26 26 28 28 29 33 31 24 28 22 22 34 22 32 26 21
leaf_count=21 31 26 29 26 23 24 25 21 28 25 22 31 27 31 30 30 29 31 29 32 35 29 28 26 34 29 29 29 26 29 22 31 33 34 20 21 31 23 26 26 28 28 29 33 31 24 28 22 22 34 22 32 26 21
internal_value=-2.51386e-11 -0.0360627 0.0464287 -0.0435842 0.0346155 -0.0067983 -0.0248145 -0.0472255 -0.0410653 0.00170424 0.0589412 -0.0512784 -0.0458167 -0.0454913 -0.0225489 -0.013321 -0.00238054 0.0256938 -0.0502244 -0.0530009 -0.00490566 -0.0508725 -0.0483906 0.0291939 0.0238802 -0.0367336 -0.0396925 -0.046722 -0.0502447 0.0432278 0.0252757 -0.052713 -0.0270495 0.0428889 0.0433996 0.0547994 0.022433 0.0633218 -0.0541665 -0.0542904 -0.0546278 -0.0539048 -0.0539285 0.0425826 0.0550212 0.0634034 0.0424008 0.0548851 0.0544985 0.063347 0.0632339 0.0634259 0.0545805 0.0547928
internal_weight=1512 851 661 677 340 174 110 567 225 113 321 342 82 171 61 56 88 167 55 260 59 92 114 57 110 54 57 60 54 173 56 60 54 144 54 165 54 156 168 114 59 54 55 90 95 133 57 64 70 112 46 66 48 42
internal_count=1512 851 661 677 340 174 110 567 225 113 321 342 82 171 61 56 88 167 55 260 59 92 114 57 110 54 57 60 54 173 56 60 54 144 54 165 54 156 168 114 59 54 55 90 95 133 57 64 70 112 46 66 48 42
is_linear=0
shrinkage=0.05


Tree=11
num_leaves=55
num_cat=0
split_feature=0 0 0 3 1 3 1 0 1 0 3 1 0 0 1 0 3 1 1 3 0 1 1 3 1 3 0 1 0 1 3 1 0 1 3 1 1 3 3 1 1 1 1 1 0 3 3 3 3 1 3 1 3 1
split_gain=913.912 67.6203 35.2711 27.3328 26.4115 14.1021 9.48681 9.43081 5.8975 5.61414 5.16362 6.45759 3.23374 3.011 2.23685 2.1025 1.41696 1.06317 0.631491 0.413268 0.502389 0.41057 0.385543 0.41247 0.248901 0.0815636 0.132442 0.0806489 0.0574661 0.0355992 0.0320687 0.0252891 0.0226445 0.0355205 0.0115457 0.00999035 0.00712951 0.00698189 0.00460316 0.00411188 0.00243992 0.00209415 0.00199131 0.00158509 0.00138751 0.00107704 0.00106976 0.000738346 0.000602723 0.000632727 0.000429858 0.000287893 0.000233634 3.82634e-05
threshold=95.000000000000014 105.00000000000001 75.000000000000014 0.27500000000000008 0.62500000000000011 0.17500000000000002 1.5000000000000002 85.000000000000014 0.37500000000000006 125.00000000000001 0.17500000000000002 1.5000000000000002 115.00000000000001 115.00000000000001 0.37500000000000006 65.000000000000014 0.27500000000000008 0.37500000000000006 0.87500000000000011 0.12500000000000003 115.00000000000001 0.87500000000000011 0.62500000000000011 0.22500000000000003 0.62500000000000011 0.075000000000000025 125.00000000000001 0.62500000000000011 115.00000000000001 1.5000000000000002 0.27500000000000008 0.17500000000000002 125.00000000000001 0.62500000000000011 0.12500000000000003 0.37500000000000006 0.87500000000000011 0.22500000000000003 0.17500000000000002 0.62500000000000011 0.37500000000000006 0.37500000000000006 0.17500000000000002 0.37500000000000006 125.00000000000001 0.17500000000000002 0.12500000000000003 0.22500000000000003 0.12500000000000003 0.62500000000000011 0.22500000000000003 0.62500000000000011 0.17500000000000002 0.62500000000000011
decision_type=2 2 2 2 2 2 2 2 2 2 2 2 2 2 2 2 2 2 2 2 2 2 2 2 2 2 2 2 2 2 2 2 2 2 2 2 2 2 2 2 2 2 2 2 2 2 2 2 2 2 2 2 2 2
left_child=2 5 15 10 13 14 9 29 -7 -6 19 12 -12 -5 -2 37 -10 31 -16 24 -21 27 30 34 28 26 -26 41 -3 36 40 -15 -22 -34 -24 42 43 46 48 -39 -9 47 -30 45 -27 -4 53 -14 49 -17 -40 -52 -45 -1
right_child=1 3 7 4 6 8 -8 22 16 -11 11 -13 21 17 18 38 -18 -19 -20 20 32 -23 23 -25 25 44 -28 -29 35 -31 -32 -33 33 -35 -36 -37 -38 39 50 -41 -42 -43 -44 52 -46 -47 -48 -49 -50 -51 51 -53 -54 -55
leaf_value=0.060586450670076453 -0.035960880815982824 -0.05360861550206724 0.040637263034780824 -0.028309729768894617 -0.0020235227521819376 -0.01132465792923338 0.016108515792556347 0.021169220904509227 0.006370115345378187 -0.031909279344659862 -0.03207838280924729 -0.020399613197772736 -0.05177191988281582 -0.053748267640670144 -0.022699906366566817 0.052264626897298376 0.020701878709452493 -0.040112442924426152 -0.010670085020828994 -0.043253499613358427 -0.050127203345298771 -0.043695804595947269 0.022803685133871827 0.030661658393709285 -0.059281658042560928 -0.05324605755184008 -0.054055439322083093 -0.048344710080519965 -0.050059232888398343 0.042664629632029043 0.023565754915277164 -0.051497507668458502 -0.050678350567817693 -0.053401026518448538 0.02440586327151819 -0.051558093612010664 0.041430310308933266 0.060172300371858813 0.051991335982861736 0.059416592452261191 0.021837706083343143 -0.051401641850288095 -0.05068517923355103 0.040871680527925495 -0.053774536539007114 0.040199786775252405 0.060273764225152827 -0.05218198498090109 0.052148599496909559 0.05261692190170289 0.051840696190342761 0.05162668426831564 0.040665308386087423 0.060678684982386502
leaf_weight=23 25 23 24 25 30 36 31 39 34 33 35 31 23 24 24 26 35 26 20 26 25 25 23 38 22 23 27 23 27 29 24 26 25 23 22 26 30 36 23 36 21 26 24 24 27 34 39 21 28 25 33 30 32 22
leaf_count=23 25 23 24 25 30 36 31 39 34 33 35 31 23 24 24 26 35 26 20 26 25 25 23 38 22 23 27 23 27 29 24 26 25 23 22 26 30 36 23 36 21 26 24 24 27 34 39 21 28 25 33 30 32 22
internal_value=-2.03072e-11 -0.0342596 0.0441073 -0.041405 -0.0256098 -0.00645839 -0.00653562 0.0328847 0.00508059 -0.017678 -0.0477951 -0.0412091 -0.0454254 -0.043362 -0.0240177 0.0559941 0.0136399 -0.0483134 -0.0172318 -0.0518616 -0.0492218 -0.0493843 0.0244091 0.026826 -0.053175 -0.0549522 -0.0564019 -0.0509134 -0.0514155 0.0410664 0.0220211 -0.0525779 -0.0513474 -0.051983 0.023587 -0.0507604 0.0407445 0.0601557 0.0520594 0.0597944 0.0214032 -0.0517574 -0.0503538 0.040564 -0.0535314 0.0403808 0.0604654 -0.0519676 0.052335 0.0524373 0.0518063 0.0517388 0.0407538 0.0606315
internal_weight=1512 851 661 677 195 174 94 340 105 63 482 184 153 101 69 321 69 76 44 298 99 118 167 83 199 99 49 93 100 173 84 50 73 48 45 77 144 156 165 72 60 70 51 114 50 58 84 44 79 51 86 63 56 45
internal_count=1512 851 661 677 195 174 94 340 105 63 482 184 153 101 69 321 69 76 44 298 99 118 167 83 199 99 49 93 100 173 84 50 73 48 45 77 144 156 165 72 60 70 51 114 50 58 84 44 79 51 86 63 56 45
is_linear=0
shrinkage=0.05


Tree=12
num_leaves=53
num_cat=0
split_feature=0 0 0 3 1 3 1 0 0 1 0 0 1 0 0 3 1 3 1 1 0 3 0 1 1 1 3 3 0 0 1 1 0 1 1 1 1 3 3 1 1 1 1 0 3 3 3 1 3 1 3 1
split_gain=824.805 61.0274 31.8321 24.8153 26.4067 12.7272 9.88007 8.5113 6.37503 5.3225 2.66327 2.23506 2.01875 1.89751 1.51674 1.43691 1.61182 1.27881 0.705744 0.56992 0.543678 0.372974 0.453406 0.362787 0.224633 0.163084 0.161445 0.0736111 0.119529 0.0518632 0.0369159 0.0321282 0.0204367 0.0320572 0.013003 0.00901628 0.00643438 0.00630114 0.00415434 0.00371097 0.00220203 0.00179716 0.00143054 0.00125223 0.000972027 0.00096546 0.000543958 0.000571035 0.000387947 0.00025982 0.000210854 3.45324e-05
threshold=95.000000000000014 105.00000000000001 75.000000000000014 0.22500000000000003 1.5000000000000002 0.17500000000000002 0.62500000000000011 85.000000000000014 125.00000000000001 0.37500000000000006 115.00000000000001 125.00000000000001 0.37500000000000006 65.000000000000014 115.00000000000001 0.17500000000000002 0.87500000000000011 0.27500000000000008 0.37500000000000006 0.87500000000000011 135.00000000000003 0.12500000000000003 115.00000000000001 1.5000000000000002 0.62500000000000011 0.37500000000000006 0.27500000000000008 0.075000000000000025 125.00000000000001 115.00000000000001 0.62500000000000011 1.5000000000000002 125.00000000000001 0.62500000000000011 0.17500000000000002 0.37500000000000006 0.87500000000000011 0.22500000000000003 0.17500000000000002 0.62500000000000011 0.37500000000000006 0.17500000000000002 0.37500000000000006 125.00000000000001 0.17500000000000002 0.12500000000000003 0.12500000000000003 0.62500000000000011 0.22500000000000003 0.62500000000000011 0.17500000000000002 0.62500000000000011
decision_type=2 2 2 2 2 2 2 2 2 2 2 2 2 2 2 2 2 2 2 2 2 2 2 2 2 2 2 2 2 2 2 2 2 2 2 2 2 2 2 2 2 2 2 2 2 2 2 2 2 2 2 2
left_child=2 5 13 15 6 12 10 31 14 -7 -5 -6 -2 37 -8 21 25 -11 34 -14 -10 24 -23 26 29 -17 30 28 -26 -3 40 36 -24 -34 -12 41 42 45 46 -39 -9 -31 44 -29 -4 51 47 -15 -40 -50 -44 -1
right_child=1 3 7 4 11 9 8 23 20 17 18 -13 19 38 -16 16 -18 -19 -20 -21 -22 22 32 -25 27 -27 -28 43 -30 35 -32 -33 33 -35 -36 -37 -38 39 48 -41 -42 -43 50 -45 -46 -47 -48 -49 49 -51 -52 -53
leaf_value=0.05755712830502055 -0.034162836134433744 -0.050928185297095252 0.03860540017485619 -0.031362095497850628 0.016161308681162504 -0.010758425125903968 -0.00019180992790295381 0.020110759673974452 -0.029906344289580986 0.0060516096175620877 -0.050523985454014368 -0.0060713691730052239 -0.021564911119639874 0.049651395128323485 -0.017983273427933457 -0.049577784857579639 -0.03259677012761434 0.019666784671800479 -0.041465754768787291 -0.010136580769903959 -0.040549008361995223 -0.041090825221572931 -0.047620844006538397 0.028615688876463818 -0.056317574598572478 -0.044352646032348279 0.024876415282487869 -0.050583754933398707 -0.051352666925500945 -0.047556270934917315 0.02227960112618237 0.040531397996277647 -0.048144432544708259 -0.050730975037035733 -0.049170556747251092 -0.048980188484375298 0.039358794788519544 0.057163685891363364 0.04939176880795023 0.056445763342910342 0.02074582080046336 -0.048150919998685524 0.038828096538782123 -0.051085810087345265 0.038189797629328337 0.057260075899270874 0.049541168872799191 0.049986075162887576 0.049248660604159042 0.049045350452264158 0.038632042985409502 0.057644750584255569
leaf_weight=23 25 23 24 37 26 36 23 39 24 34 35 20 24 26 25 28 30 35 39 20 24 26 25 26 22 32 40 23 27 27 41 29 25 23 36 26 30 36 23 36 21 24 24 27 34 39 28 25 33 30 32 22
leaf_count=23 25 23 24 37 26 36 23 39 24 34 35 20 24 26 25 28 30 35 39 20 24 26 25 26 22 32 40 23 27 27 41 29 25 23 36 26 30 36 23 36 21 24 24 27 34 39 28 25 33 30 32 22
internal_value=1.92486e-11 -0.0325466 0.0419019 -0.0393347 -0.0282429 -0.00613547 -0.0348188 0.0312405 -0.0223429 0.00482656 -0.0429663 0.00649493 -0.0228168 0.0531944 -0.0094582 -0.0475964 -0.0420596 0.0129579 -0.0468695 -0.0163702 -0.0352277 -0.0492686 -0.0467607 0.0231887 -0.0505162 -0.046791 0.022188 -0.0522046 -0.0535818 -0.0488447 0.0211232 0.039013 -0.0487801 -0.0493838 -0.0498377 -0.0482224 0.0387073 0.057148 0.0494565 0.0568047 0.020333 -0.0478361 0.0385358 -0.0508549 0.0383618 0.0574422 0.0497182 0.0498155 0.049216 0.0491518 0.0387161 0.0576
internal_weight=1512 851 661 677 289 174 243 340 96 105 147 46 69 321 48 388 90 69 110 44 48 298 99 167 199 60 141 99 49 100 101 173 73 48 71 77 144 156 165 72 60 51 114 50 58 84 79 51 86 63 56 45
internal_count=1512 851 661 677 289 174 243 340 96 105 147 46 69 321 48 388 90 69 110 44 48 298 99 167 199 60 141 99 49 100 101 173 73 48 71 77 144 156 165 72 60 51 114 50 58 84 79 51 86 63 56 45
is_linear=0
shrinkage=0.05


Tree=13
num_leaves=56
num_cat=0
split_feature=0 0 0 1 0 1 0 1 0 1 0 0 1 0 1 0 1 1 1 2 1 0 0 0 1 1 1 2 1 1 2 1 0 2 1 2 2 1 2 0 1 0 1 0 2 1 2 2 1 1 1 2 2 2 1
split_gain=744.387 55.0772 28.7285 13.8241 7.68145 6.85168 4.97671 4.30668 4.38993 2.28759 1.7125 0.86296 1.17246 0.849086 0.733281 0.615295 0.404035 0.353993 0.329532 0.234797 0.181814 0.207398 0.113773 0.0862433 0.0819543 0.0715584 0.0697957 0.0557058 0.0311376 0.0289958 0.0161303 0.0147633 0.0130199 0.00819155 0.00660706 0.00394257 0.00278013 0.00197726 0.00186209 0.00174419 0.00444183 0.00616787 0.00316723 0.00272305 0.00130703 0.000739165 0.000475746 0.000380606 0.000375808 0.00036707 0.000129391 8.45585e-05 6.3361e-05 2.66738e-05 1.61422e-05
threshold=95.000000000000014 105.00000000000001 75.000000000000014 1.5000000000000002 85.000000000000014 0.37500000000000006 125.00000000000001 0.62500000000000011 115.00000000000001 1.5000000000000002 65.000000000000014 115.00000000000001 0.37500000000000006 125.00000000000001 0.17500000000000002 115.00000000000001 0.62500000000000011 0.17500000000000002 0.87500000000000011 0.025000000000000005 0.37500000000000006 125.00000000000001 135.00000000000003 135.00000000000003 1.5000000000000002 0.87500000000000011 0.37500000000000006 0.025000000000000005 0.87500000000000011 1.5000000000000002 0.025000000000000005 0.87500000000000011 135.00000000000003 0.025000000000000005 0.62500000000000011 0.015000000000000001 0.015000000000000001 1.5000000000000002 0.015000000000000001 135.00000000000003 0.17500000000000002 125.00000000000001 0.17500000000000002 125.00000000000001 0.040000000000000008 0.17500000000000002 1.0000000180025095e-35 0.015000000000000001 0.87500000000000011 0.87500000000000011 0.62500000000000011 0.025000000000000005 1.0000000180025095e-35 0.040000000000000008 0.37500000000000006
decision_type=2 2 2 2 2 2 2 2 2 2 2 2 2 2 2 2 2 2 2 2 2 2 2 2 2 2 2 2 2 2 2 2 2 2 2 2 2 2 2 2 2 2 2 2 2 2 2 2 2 2 2 2 2 2 2
left_child=2 5 10 7 29 14 15 11 31 16 37 12 17 25 -2 -5 -7 -3 26 -18 39 -22 27 -8 -20 -10 36 -15 -24 33 -28 -9 -23 38 -35 48 -6 45 46 40 41 -13 -41 -42 49 -1 -4 50 52 54 -47 -49 -12 -53 -37
right_child=1 3 4 6 18 9 23 8 13 -11 35 20 -14 22 -16 -17 19 -19 24 -21 21 32 28 -25 -26 -27 30 -29 -30 -31 -32 -33 -34 34 -36 44 -38 -39 -40 42 43 -43 -44 -45 -46 47 -48 51 -50 -51 -52 53 -54 -55 -56
leaf_value=0.054636802275975553 -0.024725749728179747 -0.048002608235065754 0.036164804368183527 -0.0050732387390990674 0.018731332926646523 -0.0070414224111785498 -0.029824776031076913 -0.023510982985940898 -0.03588750834044601 0.014808410927653313 0.046714901788668203 -0.047336500498556325 -0.031043972709664594 -0.041304010897874832 -0.013760242216327849 -0.015582165829837322 -0.002201999569507806 -0.039968028150755786 0.023378405647893105 0.0044910477474331854 -0.040422540716826917 -0.044645453938122456 -0.044380555621215276 -0.033832156632480952 0.027184904252107331 -0.032343785875830158 0.020984593472060036 -0.038194163632579152 -0.041977610954871548 0.038504828152985414 0.022722131962125955 -0.021856385627045082 -0.046119360481539085 0.036834570940803078 0.037979863435029987 0.04700870613257091 0.019456861432521576 0.053862504596295574 0.036778694030010342 -0.045806962480911845 -0.045854490880782792 -0.046312727140528816 -0.046573336422443393 -0.04655917286872864 0.047459925855359728 0.054283427198727932 0.03645375062312399 0.054465362677971522 0.046527795222672551 0.047229823470115666 0.054115552793849601 0.054309721155600114 0.046830194959273708 0.054389504194259641 0.046946711057708382
leaf_weight=21 31 26 29 26 23 30 25 28 28 25 22 31 27 36 30 30 38 29 31 20 32 29 28 29 26 29 34 24 26 29 22 26 31 34 20 21 31 23 33 26 26 28 28 29 31 24 28 24 22 22 22 22 26 20 21
leaf_count=21 31 26 29 26 23 30 25 28 28 25 22 31 27 36 30 30 38 29 31 20 32 29 28 29 26 29 34 24 26 29 22 26 31 34 20 21 31 23 33 26 26 28 28 29 31 24 28 24 22 22 22 22 26 20 21
internal_value=-3.44203e-11 -0.0309193 0.0398068 -0.037368 0.0296785 -0.0058287 -0.0211466 -0.040515 -0.0351425 0.00146117 0.0505347 -0.0440495 -0.0395772 -0.0390672 -0.0193329 -0.010703 -0.00233066 -0.0437662 0.0220292 0.000105948 -0.04546 -0.0436733 -0.0415586 -0.0319769 0.0251147 -0.0340846 0.0204304 -0.0400601 -0.0432236 0.0370624 0.0216672 -0.0227143 -0.045407 0.0367719 0.0372588 0.0469836 0.0191478 0.0542906 0.0364798 -0.0464384 -0.0465493 -0.0468506 -0.0462043 -0.0462261 0.0471934 0.0543646 0.0363067 0.0543135 0.0466989 0.0470644 0.0542031 0.0543905 0.0467774 0.0543477 0.0469777
internal_weight=1512 851 661 677 340 174 110 567 225 113 321 342 82 171 61 56 88 55 167 58 260 92 114 54 57 57 110 60 54 173 56 54 60 144 54 165 54 156 90 168 114 59 54 55 95 133 57 112 70 64 46 66 48 42 42
internal_count=1512 851 661 677 340 174 110 567 225 113 321 342 82 171 61 56 88 55 167 58 260 92 114 54 57 57 110 60 54 173 56 54 60 144 54 165 54 156 90 168 114 59 54 55 95 133 57 112 70 64 46 66 48 42 42
is_linear=0
shrinkage=0.05


Tree=14
num_leaves=58
num_cat=0
split_feature=0 0 0 3 3 0 0 3 0 3 3 3 3 0 0 0 0 3 3 0 3 3 3 2 3 0 0 2 0 3 3 0 3 3 2 0 2 0 2 2 0 3 3 3 2 3 2 2 3 2 2 2 3 0 3 3 3
split_gain=671.809 49.7072 25.9275 22.9153 11.4334 6.93251 6.93207 4.00262 3.6168 1.97624 1.94341 1.77666 1.71826 1.54553 1.44389 0.713119 0.634911 0.54758 0.333269 0.35213 0.329986 0.279294 0.276804 0.131406 0.100876 0.0983378 0.0702716 0.0533277 0.0462837 0.0424488 0.0371236 0.0792972 0.026304 0.0237866 0.0194313 0.015357 0.0133716 0.0114196 0.00735318 0.00666754 0.00632319 0.00568162 0.00485365 0.0037257 0.00265575 0.00197871 0.00106967 0.000882759 0.000834037 0.000379927 0.000331862 0.000307903 0.000275261 0.000222799 0.000131709 7.26714e-06 7.33266e-07
threshold=95.000000000000014 105.00000000000001 75.000000000000014 0.27500000000000008 0.17500000000000002 85.000000000000014 125.00000000000001 0.17500000000000002 115.00000000000001 0.35000000000000003 0.075000000000000025 0.35000000000000003 0.35000000000000003 65.000000000000014 115.00000000000001 125.00000000000001 115.00000000000001 0.22500000000000003 0.12500000000000003 115.00000000000001 0.12500000000000003 0.22500000000000003 0.35000000000000003 0.025000000000000005 0.22500000000000003 125.00000000000001 135.00000000000003 0.015000000000000001 135.00000000000003 0.27500000000000008 0.075000000000000025 115.00000000000001 0.22500000000000003 0.22500000000000003 0.040000000000000008 115.00000000000001 0.025000000000000005 125.00000000000001 0.025000000000000005 0.015000000000000001 135.00000000000003 0.22500000000000003 0.27500000000000008 0.17500000000000002 0.015000000000000001 0.35000000000000003 0.025000000000000005 0.015000000000000001 0.27500000000000008 1.0000000180025095e-35 0.025000000000000005 0.025000000000000005 0.075000000000000025 135.00000000000003 0.12500000000000003 0.27500000000000008 0.27500000000000008
decision_type=2 2 2 2 2 2 2 2 2 2 2 2 2 2 2 2 2 2 2 2 2 2 2 2 2 2 2 2 2 2 2 2 2 2 2 2 2 2 2 2 2 2 2 2 2 2 2 2 2 2 2 2 2 2 2 2 2
left_child=2 4 13 7 10 34 9 18 -9 14 -2 17 26 41 -5 21 -11 -6 25 -20 -12 -10 24 -14 27 30 -8 -7 32 -19 31 -3 -17 -30 39 -32 -26 -21 -29 42 52 47 49 44 -15 55 56 -1 51 -4 -42 -41 -27 -39 -49 -43 -45
right_child=1 3 5 6 11 22 12 8 15 16 20 -13 23 43 -16 28 -18 29 19 37 -22 -23 -24 -25 36 40 -28 38 33 -31 35 -33 -34 -35 -36 -37 -38 53 -40 48 50 45 -44 46 -46 -47 -48 54 -50 -51 -52 -53 -54 -55 -56 -57 -58
leaf_value=0.051672713176624196 -0.032838267646729945 -0.050207994818687443 0.034194072484970098 -0.010669489434388068 -0.0049747122021821834 0.017651633716918327 -0.035528131648898127 -0.022251372006721795 -0.038197953447147659 0.0020819180068515596 -0.0195978167551485 0.01563828048695411 -0.026189029892837563 0.044521624811234013 -0.027201497957110406 -0.041977588373881124 -0.0096071285983690847 0.002470158402808011 -0.037563607605317462 -0.043473344206810004 -0.011032391695872598 -0.030937393181599104 0.026021275118641232 -0.020841780973132704 0.021240622876212003 -0.045578284561634069 -0.039357670396566395 0.01937104683546793 -0.044397932291030888 0.0053557242445934281 -0.04530369964512912 -0.046184333662192031 -0.039656302008939825 -0.042015422609719362 0.036280707313733944 -0.047151497654292898 0.022888685166835787 -0.044903506014658062 0.02056102695710519 0.03506248207003982 -0.044584543071687223 0.051404915094375614 0.035254792422056196 0.044262047537735535 0.045115336279074353 0.050854951820590279 0.044630222519238788 0.052074434665533215 0.035545938936146819 0.034472583482662841 -0.044833538584087208 0.035317755596978327 -0.045343464737137157 -0.044687873959541324 0.051906078202383854 0.051443038940429689 0.044273828744888305
leaf_weight=37 24 25 25 28 26 37 25 40 27 21 22 28 27 31 25 26 26 25 26 25 23 26 23 20 32 26 23 21 20 26 22 24 23 22 34 23 20 23 34 27 32 25 20 28 48 22 33 26 22 24 23 21 24 25 21 25 25
leaf_count=37 24 25 25 28 26 37 25 40 27 21 22 28 27 31 25 26 26 25 26 25 23 26 23 20 32 26 23 21 20 26 22 24 23 22 34 23 20 23 34 27 32 25 20 28 48 22 33 26 22 24 23 21 24 25 21 25 25
internal_value=7.23746e-13 -0.0293733 0.0378165 -0.0354996 -0.00553726 0.0281945 -0.021037 -0.0413506 -0.0355521 -0.0118485 -0.021348 0.00485269 -0.0307091 0.0480079 -0.0184676 -0.0392467 -0.00438436 0.000930653 -0.0449309 -0.0425603 -0.0152199 -0.0346362 0.0209278 -0.0239136 0.0201142 -0.0461103 -0.0373631 0.0191193 -0.041932 0.00394123 -0.047285 -0.0482372 -0.040888 -0.04315 0.0352093 -0.0462481 0.0218745 -0.0443399 0.0201067 0.0349472 -0.0450586 0.051576 0.0345984 0.0446345 0.0448824 0.0512501 0.0444067 0.0518554 0.035291 0.0343305 -0.0446887 0.0351742 -0.0454656 -0.0447912 0.0519992 0.051424 0.0442676
internal_weight=1512 851 661 677 174 340 195 482 184 100 69 105 95 321 53 144 47 77 298 99 45 53 167 47 144 199 48 92 91 51 94 49 49 42 173 45 52 73 55 139 105 156 69 165 79 72 86 84 70 49 55 48 50 48 47 50 53
internal_count=1512 851 661 677 174 340 195 482 184 100 69 105 95 321 53 144 47 77 298 99 45 53 167 47 144 199 48 92 91 51 94 49 49 42 173 45 52 73 55 139 105 156 69 165 79 72 86 84 70 49 55 48 50 48 47 50 53
is_linear=0
shrinkage=0.05


Tree=15
num_leaves=53
num_cat=0
split_feature=3 1 3 1 1 3 1 3 1 1 1 3 2 2 3 1 3 2 2 1 2 2 1 2 2 2 1 1 1 2 3 3 3 3 1 3 3 2 3 3 1 2 1 1 3 3 3 2 2 1 2 2
split_gain=18.0078 17.2322 4.14758 3.25455 2.50936 1.84405 2.04914 1.27333 0.88424 0.798791 0.743396 0.671415 0.638979 0.523481 0.53616 0.495159 0.354023 0.327638 0.217848 0.141735 0.404066 0.207908 0.219069 0.136982 0.530925 0.18718 0.108477 0.140796 0.107558 0.0879766 0.103777 0.0836134 0.0773001 0.075146 0.073674 0.140076 0.0704386 0.0637754 0.0585569 0.0364844 0.0279482 0.144747 0.0793933 0.0692682 0.024524 0.0162091 0.0128075 0.0111816 0.0109961 0.005566 0.0869231 0.00463588
threshold=0.22500000000000003 0.87500000000000011 0.35000000000000003 0.37500000000000006 1.5000000000000002 0.12500000000000003 0.87500000000000011 0.35000000000000003 0.17500000000000002 1.5000000000000002 0.17500000000000002 0.17500000000000002 0.040000000000000008 0.025000000000000005 0.27500000000000008 0.62500000000000011 0.27500000000000008 0.015000000000000001 0.015000000000000001 0.17500000000000002 0.015000000000000001 0.025000000000000005 1.5000000000000002 0.015000000000000001 1.0000000180025095e-35 0.040000000000000008 0.37500000000000006 1.5000000000000002 0.62500000000000011 0.040000000000000008 0.17500000000000002 0.35000000000000003 0.17500000000000002 0.35000000000000003 0.62500000000000011 0.075000000000000025 0.27500000000000008 0.025000000000000005 0.27500000000000008 0.27500000000000008 0.62500000000000011 1.0000000180025095e-35 0.87500000000000011 0.37500000000000006 0.075000000000000025 0.075000000000000025 0.27500000000000008 1.0000000180025095e-35 1.0000000180025095e-35 0.37500000000000006 0.025000000000000005 1.0000000180025095e-35
decision_type=2 2 2 2 2 2 2 2 2 2 2 2 2 2 2 2 2 2 2 2 2 2 2 2 2 2 2 2 2 2 2 2 2 2 2 2 2 2 2 2 2 2 2 2 2 2 2 2 2 2 2 2
left_child=5 3 4 8 16 19 10 28 12 -4 11 -7 33 14 -6 -9 -3 32 47 20 -1 22 40 24 -8 37 -23 34 38 49 -31 46 48 39 -28 -36 -30 -25 -5 -2 41 -21 45 -43 -44 -42 -20 -10 -12 -19 -51 -34
right_child=1 2 9 7 13 6 23 15 18 -11 17 -13 -14 -15 -16 -17 -18 29 31 21 -22 26 -24 25 -26 -27 27 -29 36 30 -32 -33 51 -35 35 -37 -38 -39 -40 -41 42 43 44 -45 -46 -47 -48 -49 -50 50 -52 -53
leaf_value=-0.0044724737775736845 -0.0048244465589523319 0.0030344047945471027 0.022195052014929911 -0.00046579408793686293 0.010855491645634175 -0.014504346567572971 0.00030136348848993131 0.0061542668483323525 0.0025316952572514615 0.032732078271943174 -0.0032755477184599098 -0.0044926792821463422 -0.015207723304629326 0.025323511287570002 0.021894270592284475 0.014447157871392039 0.0099511198900841397 -0.0046253673475364163 -0.00068305577337741854 -0.0044020770834042478 -0.012074545906348662 -0.0024200030441941887 -0.01116914600133896 0.0012696585778532356 0.009961289688944816 0.0049495958179856343 -0.0048213144498212004 -0.002912386159102122 0.0051011899536525882 -0.0091383380086525624 -0.0043349028141661129 -0.0052491423984368651 -3.3826061657496862e-05 -0.0029487304091453553 -0.010541619360446931 -0.005494162772915194 0.0019238287949878159 -0.0021406403115878884 0.0022921163392694371 -0.0073916877469708854 -0.0057962594384496869 -0.0072044336237013342 -0.0088975638799045405 -0.010520714617544606 -0.006656197573129948 -0.0039173243567347527 -0.0023179455923483423 0.0010054238916685184 -0.0017428513616323472 -0.0019221713735411564 -0.0058326736523735302 0.0010167834348976613
leaf_weight=29 25 37 35 39 22 33 33 36 24 37 22 34 20 26 22 36 37 29 25 26 44 29 36 29 25 24 28 30 37 23 22 21 21 25 27 28 33 26 38 31 22 32 23 31 26 24 23 24 25 30 27 21
leaf_count=29 25 37 35 39 22 33 33 36 24 37 22 34 20 26 22 36 37 29 25 26 44 29 36 29 25 24 28 30 37 23 22 21 21 25 27 28 33 26 38 31 22 32 23 31 26 24 23 24 25 30 27 21
internal_value=2.01648e-11 0.00625841 0.0178115 0.000547963 0.0129123 -0.00475756 -0.00241106 0.00485304 -0.00377686 0.0276099 -0.00481261 -0.0094238 -0.00720422 0.0196987 0.0163749 0.0103007 0.00649276 -0.00340829 -0.000818207 -0.00704473 -0.00905454 -0.00663943 -0.00760212 0.00261993 0.00446512 0.00126524 -0.00514795 -0.00584804 0.00218479 -0.00499872 -0.00678999 -0.0026177 -0.00106732 -0.00522805 -0.00690912 -0.00797201 0.00360329 -0.000342483 0.000895253 -0.0062456 -0.00690422 -0.00754088 -0.00630777 -0.00883625 -0.00770827 -0.00481595 -0.00146644 0.00176856 -0.00246028 -0.00406143 -0.00377451 0.000491479
internal_weight=1512 653 216 437 144 859 424 219 218 72 287 67 101 70 44 72 74 220 117 435 73 362 220 137 58 79 142 113 147 131 45 69 89 81 83 55 70 55 77 56 184 89 95 63 49 46 48 48 47 86 57 42
internal_count=1512 653 216 437 144 859 424 219 218 72 287 67 101 70 44 72 74 220 117 435 73 362 220 137 58 79 142 113 147 131 45 69 89 81 83 55 70 55 77 56 184 89 95 63 49 46 48 48 47 86 57 42
is_linear=0
shrinkage=0.05


Tree=16
num_leaves=54
num_cat=0
split_feature=0 0 0 1 0 1 0 1 0 1 0 0 1 0 1 0 1 1 2 0 0 1 0 1 0 1 2 0 2 1 2 1 2 0 1 2 2 1 2 1 2 1 0 0 1 2 2 2 1 1 2 1 1
split_gain=605.633 44.7841 23.3936 11.7285 6.24838 5.8917 4.19017 3.63248 3.70655 1.9112 1.37914 0.700257 0.637251 1.08961 0.618482 0.522365 0.347463 0.243881 0.20658 0.162751 0.101782 0.096149 0.0854233 0.06704 0.254573 0.0619699 0.0482183 0.0436659 0.0390813 0.0235056 0.020342 0.0199453 0.0151595 0.00997389 0.00953246 0.00753987 0.00648049 0.00519229 0.00373176 0.00318461 0.00297161 0.00242645 0.00234629 0.002041 0.00135415 0.00122057 0.00118221 0.000783332 0.000782765 0.00024762 0.000241715 0.000198831 0.000159113
threshold=95.000000000000014 105.00000000000001 75.000000000000014 1.5000000000000002 85.000000000000014 0.37500000000000006 125.00000000000001 0.62500000000000011 115.00000000000001 1.5000000000000002 65.000000000000014 125.00000000000001 0.37500000000000006 115.00000000000001 0.17500000000000002 115.00000000000001 0.62500000000000011 1.5000000000000002 0.025000000000000005 125.00000000000001 135.00000000000003 0.62500000000000011 135.00000000000003 0.17500000000000002 115.00000000000001 0.87500000000000011 0.025000000000000005 125.00000000000001 0.015000000000000001 0.87500000000000011 0.040000000000000008 0.37500000000000006 0.015000000000000001 135.00000000000003 1.5000000000000002 0.015000000000000001 0.015000000000000001 0.87500000000000011 0.015000000000000001 0.17500000000000002 0.015000000000000001 0.87500000000000011 135.00000000000003 125.00000000000001 0.62500000000000011 0.040000000000000008 0.015000000000000001 1.0000000180025095e-35 0.62500000000000011 0.87500000000000011 0.015000000000000001 0.37500000000000006 0.37500000000000006
decision_type=2 2 2 2 2 2 2 2 2 2 2 2 2 2 2 2 2 2 2 2 2 2 2 2 2 2 2 2 2 2 2 2 2 2 2 2 2 2 2 2 2 2 2 2 2 2 2 2 2 2 2 2 2
left_child=2 5 10 7 30 14 15 12 32 16 34 25 23 -14 -2 -5 -7 21 -18 -15 26 31 -8 27 -25 -10 -13 36 -23 -22 35 40 -9 -21 39 47 -3 52 41 -1 -6 51 -29 -26 50 48 -45 -4 -40 -46 -41 -12 -37
right_child=1 3 4 6 17 9 22 8 11 -11 38 20 13 19 -16 -17 18 -19 -20 33 29 28 -24 24 43 -27 -28 42 -30 -31 -32 -33 -34 -35 -36 37 -38 -39 45 44 -42 -43 -44 46 49 -47 -48 -49 -50 -51 -52 -53 -54
leaf_value=0.049684427465711327 -0.022739440731463896 -0.043934010104699571 0.032625236858924232 -0.0039926278333251288 0.016966152839038684 -0.0063386908887575078 -0.026558527946472166 -0.021298955868752231 -0.032427887231045005 0.013695606254041197 0.042419492483139039 -0.037277509385926853 -0.028062583299146762 -0.036606568004935981 -0.012668802980333566 -0.013675488010048868 -0.0018753860721756753 0.024316701980737543 0.004402612380799838 -0.040355501812079864 -0.040117587255580088 0.018980249491604893 -0.030546812751683694 -0.036529626671610207 -0.041604370451890506 -0.02913012093511121 -0.034384200315980711 -0.041595033981970383 0.021669595156397142 -0.038029797661762975 0.034521848489256469 0.019004712402820589 -0.019580481303891055 -0.041645526982122857 0.048016982493193257 0.033136610751566681 -0.04283887965338571 0.034159132296388804 0.042653843201696878 0.049059719716509187 0.017716250256184611 0.041687762737274175 -0.040935416405017563 -0.042437083238647103 0.048940341340170973 0.042861227162422674 -0.041965026987923516 0.032962492559895376 0.04230411890894175 0.048726202381981748 0.049266967790968286 0.042215788882711658 0.033318836212158205
leaf_weight=21 31 22 36 26 23 30 25 21 28 25 25 36 27 32 30 30 38 26 20 29 28 22 29 29 26 29 24 28 35 26 34 30 33 31 23 23 35 22 32 24 31 22 26 21 27 31 36 33 32 27 34 23 25
leaf_count=21 31 22 36 26 23 30 25 21 28 25 25 36 27 32 30 30 38 26 20 29 28 22 29 29 26 29 24 28 35 26 34 30 33 31 23 23 35 22 32 24 31 22 26 21 27 31 36 33 32 27 34 23 25
internal_value=-2.03303e-11 -0.0278891 0.0359056 -0.0337041 0.026766 -0.00526419 -0.0187627 -0.0366028 -0.0316687 0.00149573 0.0455863 -0.035275 -0.0398488 -0.0368943 -0.0177867 -0.00917987 -0.00197015 0.0198671 0.000289441 -0.0394862 -0.0375375 0.0190466 -0.0287004 -0.0414255 -0.0405624 -0.0307501 -0.0361202 -0.0422963 0.0206316 -0.0391124 0.0334256 0.017971 -0.0202488 -0.041022 0.0489569 0.0331574 -0.0432616 0.0335231 0.0423996 0.0491194 0.0173968 0.0421226 -0.0412774 -0.0419715 0.0490135 0.0426037 -0.0421389 0.0327865 0.042479 0.0488333 0.0491812 0.0423219 0.0332315
internal_weight=1512 851 661 677 340 174 110 567 225 113 321 171 342 119 61 56 88 167 58 92 114 141 54 223 112 57 60 111 57 54 173 84 54 60 156 139 57 70 165 133 54 70 54 83 112 95 57 69 64 54 58 48 48
internal_count=1512 851 661 677 340 174 110 567 225 113 321 171 342 119 61 56 88 167 58 92 114 141 54 223 112 57 60 111 57 54 173 84 54 60 156 139 57 70 165 133 54 70 54 83 112 95 57 69 64 54 58 48 48
is_linear=0
shrinkage=0.05


Tree=17
num_leaves=57
num_cat=0
split_feature=0 0 0 3 3 0 0 3 0 3 3 3 3 0 0 0 0 3 3 3 0 3 3 0 2 3 0 2 0 3 3 0 3 3 2 3 3 2 2 0 2 0 2 3 2 3 3 3 3 2 3 2 3 3 3 2
split_gain=546.583 40.4177 21.1127 19.5059 9.825 5.92828 5.63917 3.33345 3.0635 1.73278 1.70578 1.50377 1.4418 1.24467 1.21951 0.581549 0.548766 0.471082 0.29345 0.271161 0.270964 0.232785 0.19435 0.127672 0.116471 0.0629346 0.0625 0.0513353 0.0406263 0.0391581 0.0295384 0.091796 0.0222461 0.019492 0.0183587 0.0173056 0.0164566 0.0108565 0.0104301 0.00908598 0.00747492 0.00726091 0.00680473 0.00578816 0.00450264 0.00299834 0.00256962 0.00168837 0.00152213 0.000706958 0.000562021 0.000529466 0.000185188 7.41508e-05 5.04474e-06 5.0024e-06
threshold=95.000000000000014 105.00000000000001 75.000000000000014 0.27500000000000008 0.17500000000000002 125.00000000000001 85.000000000000014 0.17500000000000002 115.00000000000001 0.075000000000000025 0.35000000000000003 0.35000000000000003 0.35000000000000003 65.000000000000014 115.00000000000001 125.00000000000001 115.00000000000001 0.22500000000000003 0.12500000000000003 0.12500000000000003 115.00000000000001 0.22500000000000003 0.35000000000000003 125.00000000000001 0.025000000000000005 0.22500000000000003 135.00000000000003 0.015000000000000001 135.00000000000003 0.27500000000000008 0.075000000000000025 115.00000000000001 0.22500000000000003 0.22500000000000003 0.040000000000000008 0.22500000000000003 0.22500000000000003 0.015000000000000001 0.025000000000000005 115.00000000000001 0.025000000000000005 135.00000000000003 0.015000000000000001 0.35000000000000003 0.015000000000000001 0.12500000000000003 0.12500000000000003 0.35000000000000003 0.17500000000000002 1.0000000180025095e-35 0.12500000000000003 0.025000000000000005 0.075000000000000025 0.27500000000000008 0.075000000000000025 0.015000000000000001
decision_type=2 2 2 2 2 2 2 2 2 2 2 2 2 2 2 2 2 2 2 2 2 2 2 2 2 2 2 2 2 2 2 2 2 2 2 2 2 2 2 2 2 2 2 2 2 2 2 2 2 2 2 2 2 2 2 2
left_child=2 4 13 7 9 10 34 19 -9 -2 14 17 26 33 -5 21 -12 -6 -11 23 -21 -10 25 30 -14 27 -7 -8 32 -19 31 -3 -17 46 42 -30 44 -22 -27 -32 -29 52 49 55 45 -15 54 -38 -44 -4 -46 -43 -25 -50 -1 -35
right_child=1 3 6 5 11 12 22 8 15 18 16 -13 24 36 -16 28 -18 29 -20 20 37 -23 -24 41 -26 38 -28 40 35 -31 39 -33 -34 43 -36 -37 47 -39 -40 -41 -42 51 48 -45 50 -47 -48 -49 53 -51 -52 -53 -54 -55 -56 -57
leaf_value=0.047299569348494219 -0.030507228461404641 -0.046056592226028446 0.03099397495388985 -0.009161162843104519 -0.00445516963955015 -0.031984661530703305 0.015966175778492079 -0.01988433705409989 -0.034613943320733531 -0.01799944420768456 0.00276796179158347 0.014553211043987956 -0.023537321278342495 0.040718077719211578 -0.024354429751634599 -0.037974631155912694 -0.0080992050074900571 0.0024016634924337271 -0.0099221071187892695 -0.034162973347478191 -0.04090308061352483 -0.027985418605833104 0.023141695753387787 -0.041078528761863714 -0.018503121680114417 0.019022565707564356 -0.035596237445007201 0.017633225378536045 -0.040156282931566242 0.0051731289364397529 -0.0414354564791376 -0.041727425903081899 -0.035839896422365437 0.046222077757120138 0.032795755652820363 -0.038124107704921202 0.039833854320572647 -0.039640046105436658 0.020478111058473587 -0.042856759869534043 0.018833016209742606 -0.040022038202732806 0.032141140655235011 0.045229489830407227 0.041098006406138025 0.039872197264974769 0.046729404880450326 0.039290891181338918 0.031594944142159964 0.03131436813961376 0.04079178047591242 -0.040336545913115793 -0.040885923181970915 0.031726297465237703 0.047266012572106865 0.046189795136451724
leaf_weight=24 24 25 36 28 26 25 37 40 27 22 21 28 27 20 25 26 26 25 23 26 27 26 23 26 20 32 23 21 20 26 22 24 23 20 34 22 41 46 20 23 34 32 27 22 31 22 39 22 21 33 29 23 24 22 21 30
leaf_count=24 24 25 36 28 26 25 37 40 27 22 21 28 27 20 25 26 26 25 23 26 27 26 23 26 20 32 23 21 20 26 22 24 23 20 34 22 41 46 20 23 34 32 27 22 31 22 39 22 21 33 29 23 24 22 21 30
internal_value=-4.24123e-11 -0.0264947 0.0341104 -0.0320189 -0.00500098 -0.0186755 0.0254277 -0.0374171 -0.0321255 -0.0196575 -0.0101783 0.00463046 -0.02762 0.043307 -0.0163278 -0.0355258 -0.00324366 0.00102219 -0.013871 -0.0406845 -0.0385461 -0.0313622 0.0188737 -0.0417483 -0.0213951 0.018192 -0.0337152 0.0174062 -0.0379507 0.00381457 -0.0430868 -0.0439362 -0.0369726 0.046509 0.0317543 -0.0390918 0.0402796 -0.0401072 0.0195824 -0.0421619 0.0183749 -0.04055 0.0314996 0.0459053 0.0406721 0.040275 0.0470265 0.0396442 0.0318469 0.0311472 0.04095 -0.0401536 -0.0409861 0.0316621 0.0472839 0.0462027
internal_weight=1512 851 661 677 174 195 340 482 184 69 100 105 95 321 53 144 47 77 45 298 99 53 167 199 47 144 48 92 91 51 94 49 49 156 173 42 165 73 52 45 55 105 139 72 102 42 84 63 70 69 60 55 50 43 45 50
internal_count=1512 851 661 677 174 195 340 482 184 69 100 105 95 321 53 144 47 77 45 298 99 53 167 199 47 144 48 92 91 51 94 49 49 156 173 42 165 73 52 45 55 105 139 72 102 42 84 63 70 69 60 55 50 43 45 50
is_linear=0
shrinkage=0.05


Tree=18
num_leaves=53
num_cat=0
split_feature=0 0 0 3 1 3 0 1 1 1 0 3 1 0 3 0 1 3 1 3 1 0 1 1 1 0 3 0 1 1 1 3 1 3 1 1 0 1 3 1 3 1 3 3 1 1 3 1 1 1 3 1
split_gain=493.292 36.477 19.0542 17.6041 19.1368 8.86706 5.08935 4.54384 3.73956 3.43315 3.41798 3.00844 4.30039 1.88456 1.56383 1.12332 0.986961 0.867711 0.329893 0.244723 0.391411 0.244545 0.22718 0.22009 0.115299 0.12955 0.0893273 0.0589305 0.0374015 0.0237714 0.019898 0.0175915 0.0149473 0.0148521 0.0119932 0.0107932 0.00834288 0.00710575 0.00354728 0.00313638 0.00282447 0.00244507 0.00231908 0.00227312 0.000677965 0.000919911 0.00119152 0.000661909 0.000593904 0.000517437 0.000246716 6.43881e-05
threshold=95.000000000000014 105.00000000000001 75.000000000000014 0.27500000000000008 0.87500000000000011 0.17500000000000002 85.000000000000014 0.37500000000000006 0.37500000000000006 1.5000000000000002 125.00000000000001 0.17500000000000002 1.5000000000000002 115.00000000000001 0.075000000000000025 65.000000000000014 0.62500000000000011 0.27500000000000008 0.17500000000000002 0.12500000000000003 0.62500000000000011 115.00000000000001 0.87500000000000011 1.5000000000000002 1.5000000000000002 125.00000000000001 0.27500000000000008 115.00000000000001 0.37500000000000006 0.62500000000000011 0.62500000000000011 0.22500000000000003 0.87500000000000011 0.22500000000000003 0.37500000000000006 1.5000000000000002 125.00000000000001 0.62500000000000011 0.12500000000000003 0.17500000000000002 0.12500000000000003 0.37500000000000006 0.12500000000000003 0.22500000000000003 0.17500000000000002 0.87500000000000011 0.22500000000000003 0.87500000000000011 0.62500000000000011 0.37500000000000006 0.17500000000000002 0.62500000000000011
decision_type=2 2 2 2 2 2 2 2 2 2 2 2 2 2 2 2 2 2 2 2 2 2 2 2 2 2 2 2 2 2 2 2 2 2 2 2 2 2 2 2 2 2 2 2 2 2 2 2 2 2 2 2
left_child=2 5 15 11 7 14 35 18 -7 -6 -9 19 13 -13 -2 31 -16 -10 -5 20 27 -21 29 26 25 -22 30 -3 -23 36 49 42 41 40 39 38 -15 -35 -4 -29 48 -33 51 -38 -40 46 -46 -30 -17 -8 -42 -1
right_child=1 3 6 4 9 8 23 10 17 -11 -12 12 -14 22 16 33 -18 -19 -20 21 24 28 -24 -25 -26 -27 -28 34 47 -31 -32 32 -34 37 -36 -37 43 -39 44 -41 50 -43 -44 -45 45 -47 -48 -49 -50 -51 -52 -53
leaf_value=0.044861219628997473 -0.02898186631500721 -0.039675365712331691 0.030389516428112984 -0.041297995851885892 -0.0065843154381339756 -0.0086645397486993011 0.015670709885083713 -0.0079767878824735395 0.0055257763258208907 0.017142532477455754 -0.030565722060926032 -0.023770791905532992 -0.013537544929873078 -0.039333509157101321 -0.020104038311789432 0.038734252292376301 -0.0052614054043910339 0.016741015857883863 -0.034261411118010683 -0.032454824146743007 -0.043079585509915509 -0.036433152141778363 -0.032750696897506718 0.022157067175094899 -0.044358558673411611 -0.038670040253135897 0.019150371849536899 -0.035975904155660564 -0.038701524668269691 -0.036725015484768413 0.01720757386306437 0.044476340214411422 0.042591242368022607 0.03816833640589859 -0.037665086640761451 0.031046640461888809 -0.037832041797430625 0.037105105320612591 0.030097088813781737 -0.036761468400557835 0.038475013417857036 0.043762624387939771 0.0443929346708151 -0.038535004206325697 0.029941264748573306 0.030050941895354878 0.029494431534328975 -0.039066537696382277 0.039075568199157723 0.015978555239382245 0.038254004198571917 0.044980867207050329
leaf_weight=23 24 23 40 31 30 36 39 34 34 31 33 35 31 24 24 26 21 35 36 26 31 23 25 26 32 36 40 27 27 23 41 24 24 33 26 29 23 30 20 24 28 24 39 23 25 22 37 23 25 21 23 22
leaf_count=23 24 23 40 31 30 36 39 34 34 31 33 35 31 24 24 26 21 35 36 26 31 23 25 26 32 36 40 27 27 23 41 24 24 33 26 29 23 30 20 24 28 24 39 23 25 22 37 23 25 21 23 22
internal_value=-9.95536e-12 -0.0251699 0.0324048 -0.0304179 -0.0177417 -0.00475094 0.0241563 -0.0283099 0.00439894 0.00547359 -0.0191027 -0.0355463 -0.0305192 -0.0339599 -0.0186747 0.0411416 -0.0131775 0.0112147 -0.0375171 -0.0386502 -0.0396609 -0.0366188 -0.0369821 0.01793 -0.0418895 -0.0407103 0.0171506 -0.0374545 -0.0381018 -0.0381196 0.0163586 0.0441836 0.0436101 0.0382656 -0.0367911 0.0301666 -0.0385778 0.037662 0.0299894 -0.0363456 0.0386385 0.0441195 0.0446751 -0.0381835 0.0298355 0.0297732 0.0296746 -0.0388694 0.0389016 0.0157785 0.0383753 0.0449197
internal_weight=1512 851 661 677 195 174 340 134 105 61 67 482 184 153 69 321 45 69 67 298 199 99 118 167 99 67 141 100 73 93 101 156 72 165 77 173 70 63 144 51 102 48 84 46 104 84 62 50 51 60 51 45
internal_count=1512 851 661 677 195 174 340 134 105 61 67 482 184 153 69 321 45 69 67 298 199 99 118 167 99 67 141 100 73 93 101 156 72 165 77 173 70 63 144 51 102 48 84 46 104 84 62 50 51 60 51 45
is_linear=0
shrinkage=0.05


Tree=19
num_leaves=52
num_cat=0
split_feature=3 1 3 1 1 3 1 3 1 1 1 2 3 2 1 3 3 2 2 1 2 2 2 2 1 1 1 1 2 1 1 1 3 1 1 2 3 1 3 3 3 3 2 3 3 3 2 3 1 2 3
split_gain=13.3631 13.4007 3.23623 2.57273 1.78557 1.33346 1.48203 1.02724 0.663605 0.657714 0.512759 0.420504 0.413966 0.411294 0.399005 0.362038 0.23437 0.20105 0.133768 0.0999135 0.0862954 0.35252 0.150815 0.080209 0.196383 0.191745 0.0821174 0.0809579 0.0754868 0.154143 0.10238 0.0589773 0.058508 0.0532008 0.100731 0.0507966 0.068324 0.0494941 0.0904216 0.0493386 0.0437558 0.0411669 0.0401583 0.0394647 0.031689 0.0231809 0.00802818 0.00774321 0.00470007 0.0564205 0.00319813
threshold=0.22500000000000003 0.87500000000000011 0.35000000000000003 0.37500000000000006 1.5000000000000002 0.12500000000000003 0.87500000000000011 0.35000000000000003 0.17500000000000002 1.5000000000000002 0.17500000000000002 0.040000000000000008 0.17500000000000002 0.025000000000000005 0.62500000000000011 0.27500000000000008 0.27500000000000008 0.015000000000000001 0.015000000000000001 0.62500000000000011 1.0000000180025095e-35 0.015000000000000001 0.040000000000000008 0.025000000000000005 0.17500000000000002 1.5000000000000002 0.37500000000000006 1.5000000000000002 0.015000000000000001 0.37500000000000006 0.37500000000000006 0.62500000000000011 0.17500000000000002 0.62500000000000011 0.87500000000000011 0.040000000000000008 0.17500000000000002 0.62500000000000011 0.075000000000000025 0.35000000000000003 0.27500000000000008 0.35000000000000003 0.025000000000000005 0.075000000000000025 0.27500000000000008 0.27500000000000008 1.0000000180025095e-35 0.27500000000000008 0.37500000000000006 0.025000000000000005 0.075000000000000025
decision_type=2 2 2 2 2 2 2 2 2 2 2 2 2 2 2 2 2 2 2 2 2 2 2 2 2 2 2 2 2 2 2 2 2 2 2 2 2 2 2 2 2 2 2 2 2 2 2 2 2 2 2
left_child=5 3 4 8 16 23 10 19 11 -4 12 41 -7 15 -9 -6 -3 31 46 44 -8 -22 42 25 -25 28 -26 37 30 -30 50 32 -12 -32 -35 48 -37 -28 -39 47 -21 45 -23 -31 -5 -2 -10 -20 -19 -50 -1
right_child=1 2 9 7 13 6 20 14 18 -11 17 -13 -14 -15 -16 -17 -18 35 39 40 21 22 -24 24 26 -27 27 -29 29 43 33 -33 -34 34 -36 36 -38 38 -40 -41 -42 -43 -44 -45 -46 -47 -48 -49 49 -51 -52
leaf_value=-0.003418351032517173 -0.0044760786294937138 0.0030226396849832022 0.019320994144571682 -0.00045755774093170958 0.0094946173908696946 -0.011964283296556185 -5.2147505409789812e-05 0.0053539965819153525 0.0017470110052575667 0.028882359532085629 -0.0034344759628628244 -0.012951508127152921 -0.0041030019959982711 0.021962059871293606 0.012798282420650745 0.018565524930652996 0.0086503949922484332 -0.0040308843398916315 -0.00084325540065765387 0.0043342970110274654 0.0080572061687707915 0.0010810413622650606 0.0045520383554200333 -0.0089491075482861764 -0.0020604367400037832 -0.009980827145692376 -0.0041363944964749478 -0.0028169575954476995 -0.010122281958659491 -0.0069990607408376843 -0.0082008678337623341 0.00080521238657335441 -0.00035613007072744698 -0.0034115861036947796 -0.0075488884602823566 -0.0074914446910438331 -0.0035939300686798313 -0.0087833388812012143 -0.0047280062655253073 -0.0043581246974922364 0.0018300399297114574 -0.0031686922311782838 -0.0016251175057662365 -0.0042441793932364536 0.0015712721616421876 -0.0065224206255328271 0.0004537447122856975 -0.0021144654763781507 -0.0017566571570932867 -0.0049071867846780352 -0.0041680808067321778
leaf_weight=33 25 37 35 39 22 33 33 36 24 37 33 20 34 26 36 22 37 29 25 37 25 29 24 29 29 36 28 30 30 26 29 27 29 28 31 23 22 27 28 21 33 25 26 26 38 31 24 23 30 27 25
leaf_count=33 25 37 35 39 22 33 33 36 24 37 33 20 34 26 36 22 37 29 25 37 25 29 24 29 29 36 28 30 30 26 29 27 29 28 31 23 22 27 28 21 33 25 26 26 38 31 24 23 30 27 25
internal_value=-1.72621e-11 0.00539122 0.0155793 0.00035548 0.0112517 -0.00409833 -0.00210295 0.00418313 -0.00348973 0.0242345 -0.00414532 -0.00645886 -0.00797498 0.0169762 0.00907614 0.0140301 0.00583652 -0.00297902 -0.000926637 0.00178656 0.00217559 0.00288246 0.00124489 -0.00604325 -0.00519964 -0.00658968 -0.00443391 -0.00504303 -0.00605423 -0.0072682 -0.00537242 -0.00114522 -0.0019946 -0.00644733 -0.00558542 -0.00422488 -0.00558599 -0.00584763 -0.00671881 -0.00233673 0.00315372 -0.00485573 -0.000198234 -0.00562162 0.000543683 -0.00560888 0.00110038 -0.00145238 -0.00351267 -0.00324901 -0.00374151
internal_weight=1512 653 216 437 144 859 424 219 218 72 287 101 67 70 72 44 74 220 117 147 137 104 79 435 171 264 142 113 228 82 146 89 62 88 59 131 45 83 55 69 70 81 55 52 77 56 48 48 86 57 58
internal_count=1512 653 216 437 144 859 424 219 218 72 287 101 67 70 72 44 74 220 117 147 137 104 79 435 171 264 142 113 228 82 146 89 62 88 59 131 45 83 55 69 70 81 55 52 77 56 48 48 86 57 58
is_linear=0
shrinkage=0.05


Tree=20
num_leaves=51
num_cat=0
split_feature=3 1 3 1 1 3 1 3 1 1 1 2 3 2 1 3 3 2 3 1 2 2 2 2 1 1 1 1 2 1 1 1 3 1 1 2 3 1 3 2 3 3 2 3 3 2 3 1 2 3
