{"learner":{"attributes":{"scikit_learn":"{\"_estimator_type\": \"regressor\"}"},"feature_names":[],"feature_types":[],"gradient_booster":{"model":{"gbtree_model_param":{"num_parallel_tree":"1","num_trees":"500"},"iteration_indptr":[0,1,2,3,4,5,6,7,8,9,10,11,12,13,14,15,16,17,18,19,20,21,22,23,24,25,26,27,28,29,30,31,32,33,34,35,36,37,38,39,40,41,42,43,44,45,46,47,48,49,50,51,52,53,54,55,56,57,58,59,60,61,62,63,64,65,66,67,68,69,70,71,72,73,74,75,76,77,78,79,80,81,82,83,84,85,86,87,88,89,90,91,92,93,94,95,96,97,98,99,100,101,102,103,104,105,106,107,108,109,110,111,112,113,114,115,116,117,118,119,120,121,122,123,124,125,126,127,128,129,130,131,132,133,134,135,136,137,138,139,140,141,142,143,144,145,146,147,148,149,150,151,152,153,154,155,156,157,158,159,160,161,162,163,164,165,166,167,168,169,170,171,172,173,174,175,176,177,178,179,180,181,182,183,184,185,186,187,188,189,190,191,192,193,194,195,196,197,198,199,200,201,202,203,204,205,206,207,208,209,210,211,212,213,214,215,216,217,218,219,220,221,222,223,224,225,226,227,228,229,230,231,232,233,234,235,236,237,238,239,240,241,242,243,244,245,246,247,248,249,250,251,252,253,254,255,256,257,258,259,260,261,262,263,264,265,266,267,268,269,270,271,272,273,274,275,276,277,278,279,280,281,282,283,284,285,286,287,288,289,290,291,292,293,294,295,296,297,298,299,300,301,302,303,304,305,306,307,308,309,310,311,312,313,314,315,316,317,318,319,320,321,322,323,324,325,326,327,328,329,330,331,332,333,334,335,336,337,338,339,340,341,342,343,344,345,346,347,348,349,350,351,352,353,354,355,356,357,358,359,360,361,362,363,364,365,366,367,368,369,370,371,372,373,374,375,376,377,378,379,380,381,382,383,384,385,386,387,388,389,390,391,392,393,394,395,396,397,398,399,400,401,402,403,404,405,406,407,408,409,410,411,412,413,414,415,416,417,418,419,420,421,422,423,424,425,426,427,428,429,430,431,432,433,434,435,436,437,438,439,440,441,442,443,444,445,446,447,448,449,450,451,452,453,454,455,456,457,458,459,460,461,462,463,464,465,466,467,468,469,470,471,472,473,474,475,476,477,478,479,480,481,482,483,484,485,486,487,488,489,490,491,492,493,494,495,496,497,498,499,500],"tree_info":[0,0,0,0,0,0,0,0,0,0,0,0,0,0,0,0,0,0,0,0,0,0,0,0,0,0,0,0,0,0,0,0,0,0,0,0,0,0,0,0,0,0,0,0,0,0,0,0,0,0,0,0,0,0,0,0,0,0,0,0,0,0,0,0,0,0,0,0,0,0,0,0,0,0,0,0,0,0,0,0,0,0,0,0,0,0,0,0,0,0,0,0,0,0,0,0,0,0,0,0,0,0,0,0,0,0,0,0,0,0,0,0,0,0,0,0,0,0,0,0,0,0,0,0,0,0,0,0,0,0,0,0,0,0,0,0,0,0,0,0,0,0,0,0,0,0,0,0,0,0,0,0,0,0,0,0,0,0,0,0,0,0,0,0,0,0,0,0,0,0,0,0,0,0,0,0,0,0,0,0,0,0,0,0,0,0,0,0,0,0,0,0,0,0,0,0,0,0,0,0,0,0,0,0,0,0,0,0,0,0,0,0,0,0,0,0,0,0,0,0,0,0,0,0,0,0,0,0,0,0,0,0,0,0,0,0,0,0,0,0,0,0,0,0,0,0,0,0,0,0,0,0,0,0,0,0,0,0,0,0,0,0,0,0,0,0,0,0,0,0,0,0,0,0,0,0,0,0,0,0,0,0,0,0,0,0,0,0,0,0,0,0,0,0,0,0,0,0,0,0,0,0,0,0,0,0,0,0,0,0,0,0,0,0,0,0,0,0,0,0,0,0,0,0,0,0,0,0,0,0,0,0,0,0,0,0,0,0,0,0,0,0,0,0,0,0,0,0,0,0,0,0,0,0,0,0,0,0,0,0,0,0,0,0,0,0,0,0,0,0,0,0,0,0,0,0,0,0,0,0,0,0,0,0,0,0,0,0,0,0,0,0,0,0,0,0,0,0,0,0,0,0,0,0,0,0,0,0,0,0,0,0,0,0,0,0,0,0,0,0,0,0,0,0,0,0,0,0,0,0,0,0,0,0,0,0,0,0,0,0,0,0,0,0,0,0,0,0,0,0,0,0,0,0,0,0,0,0,0,0,0,0,0,0,0,0,0,0,0,0,0,0,0,0,0,0,0,0,0,0,0,0,0,0,0,0,0,0,0,0,0,0,0,0,0,0,0,0,0,0],"trees":[{"base_weights":[1.9167551E-3,-1.417936E-1,1.8813318E-1,-3.8787907E-1,-8.987209E-2,-5.4947756E-2,4.507243E-1,-4.5510897E-1,-1.929766E-1,-1.6249527E-1,-1.2397382E-2,-1.2908322E-1,8.9928225E-2,2.9422143E-1,7.602274E-1,-3.1962797E-1,-7.606749E-1,-1.6107962E-2,-1.19613625E-1,5.2800435E-3,-2.0356168E-1,8.5373044E-2,-1.7209522E-1,2.6512504E-2,-2.4453883E-1,7.060649E-3,2.5543562E-1,1.8415625E-1,5.0168836E-1,4.5882055E-1,4.474748E-2,-2.6686305E-1,-4.814746E-1,-1.9562017E-2,-1.0055108E0,-3.2831207E-3,-8.889442E-3,-1.0624459E-1,1.2856516E-1,-2.761928E-1,-1.779114E-1,2.3906312E-3,2.0680541E-1,-2.0882139E-1,-7.404223E-3,2.66853E-1,-7.88454E-2,-8.829655E-2,-3.1916654E-1,-5.9037045E-2,2.9289562E-1,6.0189106E-2,3.3257332E-1,1.4517282E-1,3.4617147E-1,2.8823256E-1,7.052051E-1,1.2075044E-1,4.1980647E-2,-1.5919097E-2,-9.73908E-3,-1.1677707E-2,-4.4051033E-2,-6.7475386E-2,-2.0979239E-2,2.4464016E-3,-1.7800596E-2,-1.288601E-4,1.6573703E-2,-8.2776435E-3,-1.924696E-2,-7.83053E-3,-1.2081755E-2,-2.1321522E-3,4.6856096E-3,1.3129773E-2,7.082554E-3,-1.3917983E-3,-1.3025075E-2,-8.169003E-3,6.7532547E-3,5.668096E-3,1.9400498E-2,6.900583E-4,-8.771723E-3,9.664707E-4,-1.4809521E-2,-1.9891677E-2,-1.3331098E-2,-1.584822E-3,-4.066992E-3,3.4642622E-3,2.9604653E-2,1.0505359E-2,-6.58752E-3,2.270748E-2,3.1523083E-3,1.2849808E-2,8.671445E-4,3.305337E-3,3.23816E-2,-1.7423956E-2,1.9979563E-2,6.304138E-2,2.5272075E-2,-6.8281717E-3,1.2506308E-2],"categories":[],"categories_nodes":[],"categories_segments":[],"categories_sizes":[],"default_left":[0,0,0,0,0,0,0,0,0,0,0,0,0,0,0,0,0,0,0,0,0,0,0,0,0,0,0,0,0,0,0,0,0,0,0,0,0,0,0,0,0,0,0,0,0,0,0,0,0,0,0,0,0,0,0,0,0,0,0,0,0,0,0,0,0,0,0,0,0,0,0,0,0,0,0,0,0,0,0,0,0,0,0,0,0,0,0,0,0,0,0,0,0,0,0,0,0,0,0,0,0,0,0,0,0,0,0],"id":0,"left_children":[1,3,5,7,9,11,13,15,17,19,21,23,25,27,29,31,33,-1,35,37,39,41,43,45,47,49,51,53,55,57,-1,59,61,-1,63,-1,-1,65,67,69,71,73,75,77,79,81,83,85,87,89,91,93,95,97,99,101,103,105,-1,-1,-1,-1,-1,-1,-1,-1,-1,-1,-1,-1,-1,-1,-1,-1,-1,-1,-1,-1,-1,-1,-1,-1,-1,-1,-1,-1,-1,-1,-1,-1,-1,-1,-1,-1,-1,-1,-1,-1,-1,-1,-1,-1,-1,-1,-1,-1,-1],"loss_changes":[3.219367E1,8.640811E0,3.3472153E1,1.4583607E0,3.160056E0,2.9437504E0,1.1982731E1,3.3585243E0,2.647364E-1,1.9991546E0,4.2772393E0,3.25804E0,1.2737095E0,3.7667065E0,3.0002975E0,4.0098143E-1,1.9583263E0,0E0,5.737567E-2,8.111204E-1,3.8494205E-1,1.7125531E0,6.274948E-1,1.9961381E0,1.1844587E0,1.2075527E0,4.468696E-1,6.5712667E-1,2.3163624E0,3.5031834E0,0E0,1.199491E-1,1.1810133E0,0E0,2.457118E0,0E0,0E0,1.2188876E0,7.459328E-1,6.46142E-1,1.9969654E-1,4.2347583E-1,2.1361566E-1,7.877834E-1,4.6650237E-1,4.0233064E-1,4.9459663E-1,7.8884244E-1,1.832757E-1,2.9129967E-2,7.6182044E-1,3.1543368E-1,6.9226575E-1,1.3106251E0,1.730185E0,2.2663505E0,2.5815258E0,5.668008E-1,0E0,0E0,0E0,0E0,0E0,0E0,0E0,0E0,0E0,0E0,0E0,0E0,0E0,0E0,0E0,0E0,0E0,0E0,0E0,0E0,0E0,0E0,0E0,0E0,0E0,0E0,0E0,0E0,0E0,0E0,0E0,0E0,0E0,0E0,0E0,0E0,0E0,0E0,0E0,0E0,0E0,0E0,0E0,0E0,0E0,0E0,0E0,0E0,0E0],"parents":[2147483647,0,0,1,1,2,2,3,3,4,4,5,5,6,6,7,7,8,8,9,9,10,10,11,11,12,12,13,13,14,14,15,15,16,16,18,18,19,19,20,20,21,21,22,22,23,23,24,24,25,25,26,26,27,27,28,28,29,29,31,31,32,32,34,34,37,37,38,38,39,39,40,40,41,41,42,42,43,43,44,44,45,45,46,46,47,47,48,48,49,49,50,50,51,51,52,52,53,53,54,54,55,55,56,56,57,57],"right_children":[2,4,6,8,10,12,14,16,18,20,22,24,26,28,30,32,34,-1,36,38,40,42,44,46,48,50,52,54,56,58,-1,60,62,-1,64,-1,-1,66,68,70,72,74,76,78,80,82,84,86,88,90,92,94,96,98,100,102,104,106,-1,-1,-1,-1,-1,-1,-1,-1,-1,-1,-1,-1,-1,-1,-1,-1,-1,-1,-1,-1,-1,-1,-1,-1,-1,-1,-1,-1,-1,-1,-1,-1,-1,-1,-1,-1,-1,-1,-1,-1,-1,-1,-1,-1,-1,-1,-1,-1,-1],"split_conditions":[2.5E-1,2.5E-1,7.5E-1,2E-1,1.5E-1,5E-1,2E0,1.5E-1,2E-2,5E-1,3E-2,2E-2,4E-1,4E-1,3E-1,5E-2,2E-2,-1.6107962E-2,5E-2,1E-1,7.5E-1,1E0,2E0,3E-1,3E-1,5E-2,2E-2,5E-2,1E0,3E-2,4.474748E-2,1E-1,1E-1,-1.9562017E-2,5E-2,-3.2831207E-3,-8.889442E-3,3E-2,3E-2,1E-1,5E-2,2E-2,2E0,5E-1,5E-2,2.5E-1,1E-2,5E-2,3E-2,2E-2,3E-1,1E-2,5E-2,3E-1,3E-1,1E-2,2E-2,1E-2,4.1980647E-2,-1.5919097E-2,-9.73908E-3,-1.1677707E-2,-4.4051033E-2,-6.7475386E-2,-2.0979239E-2,2.4464016E-3,-1.7800596E-2,-1.288601E-4,1.6573703E-2,-8.2776435E-3,-1.924696E-2,-7.83053E-3,-1.2081755E-2,-2.1321522E-3,4.6856096E-3,1.3129773E-2,7.082554E-3,-1.3917983E-3,-1.3025075E-2,-8.169003E-3,6.7532547E-3,5.668096E-3,1.9400498E-2,6.900583E-4,-8.771723E-3,9.664707E-4,-1.4809521E-2,-1.9891677E-2,-1.3331098E-2,-1.584822E-3,-4.066992E-3,3.4642622E-3,2.9604653E-2,1.0505359E-2,-6.58752E-3,2.270748E-2,3.1523083E-3,1.2849808E-2,8.671445E-4,3.305337E-3,3.23816E-2,-1.7423956E-2,1.9979563E-2,6.304138E-2,2.5272075E-2,-6.8281717E-3,1.2506308E-2],"split_indices":[3,1,1,3,3,1,1,3,2,1,2,2,3,3,3,2,2,0,2,3,1,1,1,3,3,2,2,2,1,2,0,3,3,0,2,0,0,2,2,3,2,2,1,1,2,1,2,2,2,2,3,2,2,3,3,2,2,2,0,0,0,0,0,0,0,0,0,0,0,0,0,0,0,0,0,0,0,0,0,0,0,0,0,0,0,0,0,0,0,0,0,0,0,0,0,0,0,0,0,0,0,0,0,0,0,0,0],"split_type":[0,0,0,0,0,0,0,0,0,0,0,0,0,0,0,0,0,0,0,0,0,0,0,0,0,0,0,0,0,0,0,0,0,0,0,0,0,0,0,0,0,0,0,0,0,0,0,0,0,0,0,0,0,0,0,0,0,0,0,0,0,0,0,0,0,0,0,0,0,0,0,0,0,0,0,0,0,0,0,0,0,0,0,0,0,0,0,0,0,0,0,0,0,0,0,0,0,0,0,0,0,0,0,0,0,0,0],"sum_hessian":[1.201E3,6.78E2,5.23E2,1.17E2,5.61E2,2.72E2,2.51E2,8.6E1,3.1E1,2.89E2,2.72E2,1.8E2,9.2E1,1.68E2,8.3E1,6.1E1,2.5E1,1E1,2.1E1,5.7E1,2.32E2,1.69E2,1.03E2,7.7E1,1.03E2,6.2E1,3E1,1.11E2,5.7E1,2.7E1,5.6E1,4.8E1,1.3E1,1.1E1,1.4E1,1.2E1,9E0,3E1,2.7E1,5.8E1,1.74E2,1.01E2,6.8E1,8.4E1,1.9E1,2.3E1,5.4E1,3.4E1,6.9E1,5.1E1,1.1E1,9E0,2.1E1,9.1E1,2E1,2.9E1,2.8E1,1.5E1,1.2E1,2.6E1,2.2E1,9E0,4E0,8E0,6E0,1.9E1,1.1E1,1.7E1,1E1,3E1,2.8E1,1.33E2,4.1E1,6.8E1,3.3E1,3.5E1,3.3E1,1.9E1,6.5E1,9E0,1E1,1.1E1,1.2E1,2.8E1,2.6E1,2.3E1,1.1E1,2.5E1,4.4E1,2.4E1,2.7E1,7E0,4E0,5E0,4E0,1.4E1,7E0,4.8E1,4.3E1,1.1E1,9E0,4E0,2.5E1,6E0,2.2E1,5E0,1E1],"tree_param":{"num_deleted":"0","num_feature":"4","num_nodes":"107","size_leaf_vector":"1"}},{"base_weights":[-4.8055877E-3,1.4633151E0,-1.1748796E0,1.6934006E0,4.0513348E-2,-2.2617929E-1,-1.4027828E0,1.8646147E0,6.811785E-2,-6.125616E-1,2.2966662E-2,-1.538983E0,-1.0248984E0,9.965513E-2,8.6286865E-2,-7.423486E-1,-2.165281E-1,-3.9995974E-1,2.847217E-1,-1.597496E0,-1.2080578E0,-1.4093734E0,-5.562653E-1,-4.8476335E-2,-6.002077E-1,-2.0752985E-2,-6.0115032E-2,-2.6010145E-2,-2.7033585E-1,1.336051E-1,4.304941E-1,-1.3967178E0,-8.275623E-2,-1.3462237E0,-5.7309455E-1,-9.833791E-1,-7.685553E-2,-1.8430819E-1,-9.3390876E-1,-3.928689E-2,-2.0588491E-2,-8.3004255E-3,1.0249893E-3,-1.8918527E-2,-5.075024E-3,-4.215926E-4,1.3814533E-2,1.1153097E-2,2.5749398E-2,-7.815579E-2,-5.4913677E-2,-7.721468E-2,-5.392296E-2,-1.1614621E-2,-4.6599086E-2,-5.8373768E-2,-2.2420224E-2,-1.8203778E-2,1.2050469E-2,-5.9126515E-2,-1.6458154E-2],"categories":[],"categories_nodes":[],"categories_segments":[],"categories_sizes":[],"default_left":[0,0,0,0,0,0,0,0,0,0,0,0,0,0,0,0,0,0,0,0,0,0,0,0,0,0,0,0,0,0,0,0,0,0,0,0,0,0,0,0,0,0,0,0,0,0,0,0,0,0,0,0,0,0,0,0,0,0,0,0,0],"id":1,"left_children":[1,3,5,7,-1,9,11,13,-1,15,17,19,21,-1,-1,23,25,27,29,31,33,35,37,-1,39,-1,41,-1,43,45,47,49,-1,51,53,55,-1,57,59,-1,-1,-1,-1,-1,-1,-1,-1,-1,-1,-1,-1,-1,-1,-1,-1,-1,-1,-1,-1,-1,-1],"loss_changes":[2.052784E3,7.826416E1,1.4346362E2,1.9621338E1,0E0,1.2528595E1,2.6009521E1,1.1106567E0,0E0,2.460661E0,8.970127E0,5.6605835E0,2.5341782E1,0E0,0E0,6.4515114E-1,4.0978974E-1,3.4254837E-1,1.0439157E0,1.5065918E0,4.755493E0,2.7872467E0,9.239174E0,0E0,5.854397E-1,0E0,8.023238E-2,0E0,2.7167666E-1,5.2926177E-1,3.2329464E-1,2.2561188E0,0E0,1.0393829E0,1.3735313E0,1.5447235E0,0E0,2.7637837E0,4.572397E0,0E0,0E0,0E0,0E0,0E0,0E0,0E0,0E0,0E0,0E0,0E0,0E0,0E0,0E0,0E0,0E0,0E0,0E0,0E0,0E0,0E0,0E0],"parents":[2147483647,0,0,1,1,2,2,3,3,5,5,6,6,7,7,9,9,10,10,11,11,12,12,15,15,16,16,17,17,18,18,19,19,20,20,21,21,22,22,24,24,26,26,28,28,29,29,30,30,31,31,33,33,34,34,35,35,37,37,38,38],"right_children":[2,4,6,8,-1,10,12,14,-1,16,18,20,22,-1,-1,24,26,28,30,32,34,36,38,-1,40,-1,42,-1,44,46,48,50,-1,52,54,56,-1,58,60,-1,-1,-1,-1,-1,-1,-1,-1,-1,-1,-1,-1,-1,-1,-1,-1,-1,-1,-1,-1,-1,-1],"split_conditions":[1E2,9E1,1.1E2,8E1,4.0513348E-2,2E-1,3E-1,7E1,6.811785E-2,1E0,5E-1,2E0,7.5E-1,9.965513E-2,8.6286865E-2,1E-1,1E-1,3E-1,1E0,1.2E2,2.5E-1,1.2E2,1.3E2,-4.8476335E-2,5E-1,-2.0752985E-2,2E0,-2.6010145E-2,2.5E-1,3E-1,2.5E-1,2E-1,-8.275623E-2,1.5E-1,1.3E2,5E-1,-7.685553E-2,2E0,2E0,-3.928689E-2,-2.0588491E-2,-8.3004255E-3,1.0249893E-3,-1.8918527E-2,-5.075024E-3,-4.215926E-4,1.3814533E-2,1.1153097E-2,2.5749398E-2,-7.815579E-2,-5.4913677E-2,-7.721468E-2,-5.392296E-2,-1.1614621E-2,-4.6599086E-2,-5.8373768E-2,-2.2420224E-2,-1.8203778E-2,1.2050469E-2,-5.9126515E-2,-1.6458154E-2],"split_indices":[0,0,0,0,0,3,3,0,0,1,1,1,1,0,0,3,3,3,1,0,3,0,0,0,1,0,1,0,1,3,3,3,0,3,0,1,0,1,1,0,0,0,0,0,0,0,0,0,0,0,0,0,0,0,0,0,0,0,0,0,0],"split_type":[0,0,0,0,0,0,0,0,0,0,0,0,0,0,0,0,0,0,0,0,0,0,0,0,0,0,0,0,0,0,0,0,0,0,0,0,0,0,0,0,0,0,0,0,0,0,0,0,0,0,0,0,0,0,0,0,0,0,0,0,0],"sum_hessian":[1.193E3,5.29E2,6.64E2,3.9E2,1.39E2,1.29E2,5.35E2,2.54E2,1.36E2,5E1,7.9E1,3.91E2,1.44E2,1.25E2,1.29E2,3.7E1,1.3E1,3E1,4.9E1,3.29E2,6.2E1,7.8E1,6.6E1,1.2E1,2.5E1,5E0,8E0,1.4E1,1.6E1,2.5E1,2.4E1,7.9E1,2.5E2,5E1,1.2E1,2E1,5.8E1,3.4E1,3.2E1,1.1E1,1.4E1,3E0,5E0,9E0,7E0,1.3E1,1.2E1,8E0,1.6E1,4.8E1,3.1E1,2.6E1,2.4E1,7E0,5E0,1.4E1,6E0,2.4E1,1E1,2.2E1,1E1],"tree_param":{"num_deleted":"0","num_feature":"4","num_nodes":"61","size_leaf_vector":"1"}},{"base_weights":[1.6966837E-2,1.4069407E0,-1.0629933E0,1.7752486E0,1.0416855E0,-2.1018119E-1,-1.2887197E0,9.47003E-2,8.193863E-2,6.452533E-2,3.8253505E-2,-4.9511394E-1,8.589509E-2,-1.3952916E0,-7.4736756E-1,-3.7713796E-2,-3.4981886E-1,-3.786502E-3,1.551442E-2,-1.1101208E0,-1.4847142E0,-4.5603576E-1,-5.464241E-2,-4.3710837E-1,-1.2957334E-2,-4.458591E-3,5.4177303E-2,-7.041403E-2,-4.472638E-2,-7.792251E-2,-1.3611867E0,-2.8078446E-1,-2.918526E-2,-2.442613E-2,-1.5142522E-2,-1.7002042E-3,6.948631E-3,-5.8458835E-2,-7.235318E-2,-2.1512654E-2,-3.930695E-3],"categories":[],"categories_nodes":[],"categories_segments":[],"categories_sizes":[],"default_left":[0,0,0,0,0,0,0,0,0,0,0,0,0,0,0,0,0,0,0,0,0,0,0,0,0,0,0,0,0,0,0,0,0,0,0,0,0,0,0,0,0],"id":2,"left_children":[1,3,5,7,9,11,13,-1,-1,-1,-1,15,17,19,21,-1,23,25,-1,27,29,31,-1,33,-1,-1,35,-1,-1,-1,37,39,-1,-1,-1,-1,-1,-1,-1,-1,-1],"loss_changes":[1.7818196E3,6.796997E1,1.2832056E2,1.0614624E0,1.711438E1,1.1937548E1,2.9419067E1,0E0,0E0,0E0,0E0,2.4472961E0,1.4098514E0,9.5720825E0,8.459423E0,0E0,2.6663256E-1,2.5724322E-1,0E0,5.7469177E0,9.0270996E-1,9.548168E-1,0E0,1.081419E-2,0E0,0E0,2.3652403E-1,0E0,0E0,0E0,4.8469543E-1,6.611936E-1,0E0,0E0,0E0,0E0,0E0,0E0,0E0,0E0,0E0],"parents":[2147483647,0,0,1,1,2,2,3,3,4,4,5,5,6,6,11,11,12,12,13,13,14,14,16,16,17,17,19,19,20,20,21,21,23,23,26,26,30,30,31,31],"right_children":[2,4,6,8,10,12,14,-1,-1,-1,-1,16,18,20,22,-1,24,26,-1,28,30,32,-1,34,-1,-1,36,-1,-1,-1,38,40,-1,-1,-1,-1,-1,-1,-1,-1,-1],"split_conditions":[1E2,8E1,1.1E2,7E1,9E1,7.5E-1,2E0,9.47003E-2,8.193863E-2,6.452533E-2,3.8253505E-2,2.5E-1,2E0,1.2E2,1.3E2,-3.7713796E-2,5E-1,2E-2,1.551442E-2,5E-1,7.5E-1,1.2E2,-5.464241E-2,3E-2,-1.2957334E-2,-4.458591E-3,1E0,-7.041403E-2,-4.472638E-2,-7.792251E-2,1.3E2,3E-2,-2.918526E-2,-2.442613E-2,-1.5142522E-2,-1.7002042E-3,6.948631E-3,-5.8458835E-2,-7.235318E-2,-2.1512654E-2,-3.930695E-3],"split_indices":[0,0,0,0,0,1,1,0,0,0,0,1,1,0,0,0,1,2,0,1,1,0,0,2,0,0,1,0,0,0,0,2,0,0,0,0,0,0,0,0,0],"split_type":[0,0,0,0,0,0,0,0,0,0,0,0,0,0,0,0,0,0,0,0,0,0,0,0,0,0,0,0,0,0,0,0,0,0,0,0,0,0,0,0,0],"sum_hessian":[1.185E3,5.18E2,6.67E2,2.56E2,2.62E2,1.4E2,5.27E2,1.3E2,1.26E2,1.36E2,1.26E2,7.1E1,6.9E1,4.39E2,8.8E1,2.4E1,4.7E1,5E1,1.9E1,1.08E2,3.31E2,4.9E1,3.9E1,2.2E1,2.5E1,2E1,3E1,4.3E1,6.5E1,2E2,1.31E2,2.2E1,2.7E1,1.4E1,8E0,1.5E1,1.5E1,4.5E1,8.6E1,1.2E1,1E1],"tree_param":{"num_deleted":"0","num_feature":"4","num_nodes":"41","size_leaf_vector":"1"}},{"base_weights":[1.7017772E-2,-1.1264434E-1,1.8641052E-1,-3.257141E-1,-6.916143E-2,8.711352E-2,6.853182E-1,-3.993177E-1,-1.20026E-1,-1.7575571E-1,3.693101E-2,-1.0161672E-1,2.1743788E-1,5.7740295E-1,4.3081798E-2,-2.1700823E-1,-4.9995816E-1,-2.4841515E-2,-1.3962303E-2,-4.0781856E-2,-2.0858434E-1,2.0978378E-1,-8.155265E-2,-6.1042536E-2,-2.6221782E-1,9.816148E-2,4.3417996E-1,4.0854236E-1,4.046301E-2,-1.4023361E-2,2.484883E-3,-1.5627718E-2,-6.289173E-1,1.3680568E-1,-1.5697345E-2,2.762243E-1,-9.817519E-2,-2.4380465E-1,-7.422797E-2,1.1752945E-1,3.0160233E-1,-1.6996634E-1,-3.816713E-2,-1.3501052E-2,-1.04027554E-1,-4.6831852E-1,-5.3163603E-2,1.2710625E-3,2.3517406E-1,2.0136234E-1,5.6098706E-1,1.0342163E-2,4.809483E-1,-4.1215383E-2,-2.4011862E-2,6.8344394E-5,1.0220559E-2,2.1770266E-3,3.6353916E-2,-7.511982E-3,3.7438427E-3,-7.839229E-3,-1.3745989E-2,-9.446743E-3,2.1724019E-3,-1.0296767E-2,1.0569002E-2,1.0422635E-2,2.0411532E-2,-4.4633304E-3,-1.3323167E-2,-4.2474954E-3,1.876673E-3,-2.3320955E-3,2.4009084E-3,-9.2893E-4,-9.922738E-3,-3.883544E-2,-1.2469884E-2,1.4986577E-2,-1.4199837E-2,3.433189E-3,-1.5000976E-3,7.186363E-3,1.5877401E-2,-7.0548863E-3,1.6514596E-2,1.7665377E-2,3.3746168E-2,1.7452348E-2,2.879268E-2],"categories":[],"categories_nodes":[],"categories_segments":[],"categories_sizes":[],"default_left":[0,0,0,0,0,0,0,0,0,0,0,0,0,0,0,0,0,0,0,0,0,0,0,0,0,0,0,0,0,0,0,0,0,0,0,0,0,0,0,0,0,0,0,0,0,0,0,0,0,0,0,0,0,0,0,0,0,0,0,0,0,0,0,0,0,0,0,0,0,0,0,0,0,0,0,0,0,0,0,0,0,0,0,0,0,0,0,0,0,0,0],"id":3,"left_children":[1,3,5,7,9,11,13,15,17,19,21,23,25,27,-1,29,31,-1,33,35,37,39,41,43,45,47,49,51,-1,-1,-1,-1,53,55,-1,57,59,61,63,65,67,69,71,73,75,77,79,81,83,85,87,-1,89,-1,-1,-1,-1,-1,-1,-1,-1,-1,-1,-1,-1,-1,-1,-1,-1,-1,-1,-1,-1,-1,-1,-1,-1,-1,-1,-1,-1,-1,-1,-1,-1,-1,-1,-1,-1,-1,-1],"loss_changes":[2.6597218E1,6.33319E0,2.594881E1,1.7082396E0,6.4638433E0,1.0819803E1,1.1578751E0,1.4510603E0,1.2719512E0,1.2543297E0,5.8949337E0,1.1569204E0,6.678956E0,1.90102E0,0E0,5.555347E-1,1.1084709E0,0E0,1.2188797E0,1.0641786E0,1.065548E0,9.556198E-1,6.494472E-1,2.949134E-1,1.5262065E0,2.2432113E0,2.6031475E0,4.116664E-1,0E0,0E0,0E0,0E0,5.047054E-1,1.6453588E-1,0E0,9.125003E-1,4.5273268E-1,4.4697952E-1,6.6962296E-1,1.864972E0,4.9098158E-1,4.1230166E-1,4.140005E-1,1.4495562E-1,6.095347E-1,1.0215254E0,1.6328607E0,2.128174E-1,4.8165822E-1,1.5478127E0,1.1576176E0,0E0,1.11953735E-1,0E0,0E0,0E0,0E0,0E0,0E0,0E0,0E0,0E0,0E0,0E0,0E0,0E0,0E0,0E0,0E0,0E0,0E0,0E0,0E0,0E0,0E0,0E0,0E0,0E0,0E0,0E0,0E0,0E0,0E0,0E0,0E0,0E0,0E0,0E0,0E0,0E0,0E0],"parents":[2147483647,0,0,1,1,2,2,3,3,4,4,5,5,6,6,7,7,8,8,9,9,10,10,11,11,12,12,13,13,15,15,16,16,18,18,19,19,20,20,21,21,22,22,23,23,24,24,25,25,26,26,27,27,32,32,33,33,35,35,36,36,37,37,38,38,39,39,40,40,41,41,42,42,43,43,44,44,45,45,46,46,47,47,48,48,49,49,50,50,52,52],"right_children":[2,4,6,8,10,12,14,16,18,20,22,24,26,28,-1,30,32,-1,34,36,38,40,42,44,46,48,50,52,-1,-1,-1,-1,54,56,-1,58,60,62,64,66,68,70,72,74,76,78,80,82,84,86,88,-1,90,-1,-1,-1,-1,-1,-1,-1,-1,-1,-1,-1,-1,-1,-1,-1,-1,-1,-1,-1,-1,-1,-1,-1,-1,-1,-1,-1,-1,-1,-1,-1,-1,-1,-1,-1,-1,-1,-1],"split_conditions":[2.5E-1,2.5E-1,2E0,2E-1,1.5E-1,5E-1,4E-1,1E-1,1E-2,5E-1,2E-2,5E-2,4E-1,3E-2,4.3081798E-2,5E-2,2E-2,-2.4841515E-2,5E-2,1E-2,5E-2,1E-2,3E-2,2.5E-1,2.5E-1,3E-2,2E-2,1E-2,4.046301E-2,-1.4023361E-2,2.484883E-3,-1.5627718E-2,3E-2,2E-2,-1.5697345E-2,1E-1,5E-2,1E-2,1E0,5E-1,2E-1,2E-1,1E0,4E-1,2E-2,3E-1,3E-1,1E-2,3E-1,7.5E-1,7.5E-1,1.0342163E-2,3E-1,-4.1215383E-2,-2.4011862E-2,6.8344394E-5,1.0220559E-2,2.1770266E-3,3.6353916E-2,-7.511982E-3,3.7438427E-3,-7.839229E-3,-1.3745989E-2,-9.446743E-3,2.1724019E-3,-1.0296767E-2,1.0569002E-2,1.0422635E-2,2.0411532E-2,-4.4633304E-3,-1.3323167E-2,-4.2474954E-3,1.876673E-3,-2.3320955E-3,2.4009084E-3,-9.2893E-4,-9.922738E-3,-3.883544E-2,-1.2469884E-2,1.4986577E-2,-1.4199837E-2,3.433189E-3,-1.5000976E-3,7.186363E-3,1.5877401E-2,-7.0548863E-3,1.6514596E-2,1.7665377E-2,3.3746168E-2,1.7452348E-2,2.879268E-2],"split_indices":[3,1,1,3,3,1,3,3,2,1,2,2,3,2,0,2,2,0,2,2,2,2,2,1,1,2,2,2,0,0,0,0,2,2,0,3,2,2,1,1,3,3,1,3,2,3,3,2,3,1,1,0,3,0,0,0,0,0,0,0,0,0,0,0,0,0,0,0,0,0,0,0,0,0,0,0,0,0,0,0,0,0,0,0,0,0,0,0,0,0,0],"split_type":[0,0,0,0,0,0,0,0,0,0,0,0,0,0,0,0,0,0,0,0,0,0,0,0,0,0,0,0,0,0,0,0,0,0,0,0,0,0,0,0,0,0,0,0,0,0,0,0,0,0,0,0,0,0,0,0,0,0,0,0,0,0,0,0,0,0,0,0,0,0,0,0,0,0,0,0,0,0,0,0,0,0,0,0,0,0,0,0,0,0,0],"sum_hessian":[1.209E3,6.85E2,5.24E2,1.15E2,5.7E2,4.38E2,8.6E1,8.4E1,3.1E1,2.84E2,2.86E2,1.79E2,2.59E2,5.6E1,3E1,3.1E1,5.3E1,6E0,2.5E1,5.6E1,2.28E2,1.16E2,1.7E2,1.44E2,3.5E1,1.68E2,9.1E1,3.4E1,2.2E1,2.5E1,6E0,2.3E1,3E1,1.7E1,8E0,8E0,4.8E1,1.8E2,4.8E1,5.9E1,5.7E1,5.5E1,1.15E2,6.9E1,7.5E1,1.7E1,1.8E1,9.9E1,6.9E1,3.3E1,5.8E1,1E1,2.4E1,1.1E1,1.9E1,6E0,1.1E1,6E0,2E0,3.7E1,1.1E1,4.9E1,1.31E2,2.4E1,2.4E1,1.3E1,4.6E1,3.2E1,2.5E1,3.1E1,2.4E1,7.1E1,4.4E1,4.5E1,2.4E1,4E1,3.5E1,6E0,1.1E1,7E0,1.1E1,3.1E1,6.8E1,3.4E1,3.5E1,9E0,2.4E1,2.2E1,3.6E1,1.2E1,1.2E1],"tree_param":{"num_deleted":"0","num_feature":"4","num_nodes":"91","size_leaf_vector":"1"}},{"base_weights":[2.3513392E-3,1.3333492E0,-1.0394748E0,1.6799974E0,9.907953E-1,-2.0813748E-1,-1.2461498E0,8.993807E-2,7.7835344E-2,6.1405487E-2,3.656277E-2,-5.9212595E-1,5.516504E-2,-1.4434311E0,-9.875803E-1,-7.051673E-1,-1.6029362E-2,-4.0334653E-2,3.1311125E-1,-1.2624768E0,-7.447272E-2,-7.3532265E-1,-1.25109E0,-3.959621E-2,-2.7570663E-2,-2.0264566E-1,3.9825216E-2,1.6660657E-2,3.7364226E-3,-6.818071E-2,-6.7686796E-1,-8.5537803E-1,-4.648233E-1,-6.763489E-2,-5.0613858E-2,-6.0682064E-3,-1.5469871E-2,3.390838E-3,-6.738078E-3,-3.7075534E-2,-1.1788479E-2,-3.250419E-2,-5.2741546E-2,-1.5152104E-2,-2.8002534E-2],"categories":[],"categories_nodes":[],"categories_segments":[],"categories_sizes":[],"default_left":[0,0,0,0,0,0,0,0,0,0,0,0,0,0,0,0,0,0,0,0,0,0,0,0,0,0,0,0,0,0,0,0,0,0,0,0,0,0,0,0,0,0,0,0,0],"id":4,"left_children":[1,3,5,7,9,11,13,-1,-1,-1,-1,15,17,19,21,23,-1,25,27,29,-1,31,33,-1,-1,35,37,-1,-1,-1,39,41,43,-1,-1,-1,-1,-1,-1,-1,-1,-1,-1,-1,-1],"loss_changes":[1.6612283E3,6.0795715E1,1.15201355E2,1.006897E0,1.554715E1,1.3681858E1,2.6018372E1,0E0,0E0,0E0,0E0,1.4621639E0,2.007966E0,6.430664E-1,1.4767517E1,7.021332E-2,0E0,7.887201E-1,8.052206E-2,3.1044388E0,0E0,3.596817E0,1.3969269E0,0E0,0E0,1.3598925E-1,2.0950413E-1,0E0,0E0,0E0,1.6734028E-1,2.7537804E0,4.4652176E-1,0E0,0E0,0E0,0E0,0E0,0E0,0E0,0E0,0E0,0E0,0E0,0E0],"parents":[2147483647,0,0,1,1,2,2,3,3,4,4,5,5,6,6,11,11,12,12,13,13,14,14,15,15,17,17,18,18,19,19,21,21,22,22,25,25,26,26,30,30,31,31,32,32],"right_children":[2,4,6,8,10,12,14,-1,-1,-1,-1,16,18,20,22,24,-1,26,28,30,-1,32,34,-1,-1,36,38,-1,-1,-1,40,42,44,-1,-1,-1,-1,-1,-1,-1,-1,-1,-1,-1,-1],"split_conditions":[1E2,8E1,1.1E2,7E1,9E1,2E-1,2.5E-1,8.993807E-2,7.7835344E-2,6.1405487E-2,3.656277E-2,1.5E-1,4E-1,1.2E2,1.3E2,1E-1,-1.6029362E-2,2.5E-1,5E-2,2E-1,-7.447272E-2,4E-1,4E-1,-3.959621E-2,-2.7570663E-2,3E-2,5E-2,1.6660657E-2,3.7364226E-3,-6.818071E-2,5E-2,1.2E2,1.2E2,-6.763489E-2,-5.0613858E-2,-6.0682064E-3,-1.5469871E-2,3.390838E-3,-6.738078E-3,-3.7075534E-2,-1.1788479E-2,-3.250419E-2,-5.2741546E-2,-1.5152104E-2,-2.8002534E-2],"split_indices":[0,0,0,0,0,3,3,0,0,0,0,3,3,0,0,3,0,3,2,3,0,3,3,0,0,2,2,0,0,0,2,0,0,0,0,0,0,0,0,0,0,0,0,0,0],"split_type":[0,0,0,0,0,0,0,0,0,0,0,0,0,0,0,0,0,0,0,0,0,0,0,0,0,0,0,0,0,0,0,0,0,0,0,0,0,0,0,0,0,0,0,0,0],"sum_hessian":[1.196E3,5.25E2,6.71E2,2.59E2,2.66E2,1.34E2,5.37E2,1.25E2,1.34E2,1.37E2,1.29E2,5.4E1,8E1,3.02E2,2.35E2,3.7E1,1.7E1,5.9E1,2.1E1,6.7E1,2.35E2,1.22E2,1.13E2,2.1E1,1.6E1,1.9E1,4E1,1.9E1,2E0,5.6E1,1.1E1,8.3E1,3.9E1,7.6E1,3.7E1,1.2E1,7E0,3.5E1,5E0,9E0,2E0,4.3E1,4E1,1.6E1,2.3E1],"tree_param":{"num_deleted":"0","num_feature":"4","num_nodes":"45","size_leaf_vector":"1"}},{"base_weights":[-5.3495597E-3,1.255574E0,-9.8565525E-1,1.4504918E0,6.910898E-1,-1.9058244E-1,-1.1869589E0,1.5994473E0,5.848199E-2,3.119016E-2,3.7133623E-2,-5.489501E-1,5.1976826E-2,-1.3744854E0,-9.3744737E-1,8.550134E-2,7.387074E-2,-6.537634E-1,9.048748E-3,-2.4921106E-1,3.5195595E-1,-7.040795E-2,-1.1783895E0,-1.25632E0,-5.9148455E-1,-4.240231E-2,-4.712454E-1,-9.433397E-2,6.564913E-3,-4.6503463E-1,-1.0409209E-1,1.9532187E-1,4.92592E-1,-8.83702E-1,-6.8251856E-2,-9.1096044E-1,-6.7842506E-2,-2.1657456E-2,-7.790224E-1,-3.223E-2,-1.6567726E-2,-7.857627E-3,-1.1818275E-3,-2.6108459E-2,-1.1173896E-2,-8.30203E-3,7.020056E-3,5.0909678E-3,1.9056942E-2,1.5330802E-2,2.7158475E-2,-6.077478E-2,-2.6748825E-2,-5.422941E-2,-2.4833735E-2,-9.162106E-3,1.3705084E-2,-4.800254E-2,-1.6723743E-2],"categories":[],"categories_nodes":[],"categories_segments":[],"categories_sizes":[],"default_left":[0,0,0,0,0,0,0,0,0,0,0,0,0,0,0,0,0,0,0,0,0,0,0,0,0,0,0,0,0,0,0,0,0,0,0,0,0,0,0,0,0,0,0,0,0,0,0,0,0,0,0,0,0,0,0,0,0,0,0],"id":5,"left_children":[1,3,5,7,9,11,13,15,-1,-1,-1,17,19,21,23,-1,-1,25,27,29,31,-1,33,35,37,-1,39,41,-1,43,45,47,49,51,-1,53,-1,55,57,-1,-1,-1,-1,-1,-1,-1,-1,-1,-1,-1,-1,-1,-1,-1,-1,-1,-1,-1,-1],"loss_changes":[1.5203928E3,5.8192566E1,1.1052905E2,1.4821228E1,2.2636414E-2,1.2285013E1,2.4539612E1,9.550781E-1,0E0,0E0,0E0,3.3396015E0,7.7674675E0,4.074707E-1,2.5733261E1,0E0,0E0,1.3024464E0,1.3877074E-1,1.2983575E0,8.51007E-1,0E0,1.6538544E0,3.069107E0,1.2486233E1,0E0,4.4117832E-1,2.2932123E-2,0E0,1.1792779E-1,4.3225396E-1,3.434283E-1,4.0391922E-2,2.010952E0,0E0,1.6911907E0,0E0,1.4839311E0,6.7607536E0,0E0,0E0,0E0,0E0,0E0,0E0,0E0,0E0,0E0,0E0,0E0,0E0,0E0,0E0,0E0,0E0,0E0,0E0,0E0,0E0],"parents":[2147483647,0,0,1,1,2,2,3,3,4,4,5,5,6,6,7,7,11,11,12,12,13,13,14,14,17,17,18,18,19,19,20,20,22,22,23,23,24,24,26,26,27,27,29,29,30,30,31,31,32,32,33,33,35,35,37,37,38,38],"right_children":[2,4,6,8,10,12,14,16,-1,-1,-1,18,20,22,24,-1,-1,26,28,30,32,-1,34,36,38,-1,40,42,-1,44,46,48,50,52,-1,54,-1,56,58,-1,-1,-1,-1,-1,-1,-1,-1,-1,-1,-1,-1,-1,-1,-1,-1,-1,-1,-1,-1],"split_conditions":[1E2,9E1,1.1E2,8E1,7.5E-1,2E-1,2.5E-1,7E1,5.848199E-2,3.119016E-2,3.7133623E-2,2E0,7.5E-1,2E0,7.5E-1,8.550134E-2,7.387074E-2,5E-1,1.5E-1,2.5E-1,3E-1,-7.040795E-2,1.3E2,1.2E2,1.2E2,-4.240231E-2,1E-1,1E-1,6.564913E-3,4E-1,4E-1,2E0,1E0,1.5E-1,-6.8251856E-2,5E-1,-6.7842506E-2,2E0,2E0,-3.223E-2,-1.6567726E-2,-7.857627E-3,-1.1818275E-3,-2.6108459E-2,-1.1173896E-2,-8.30203E-3,7.020056E-3,5.0909678E-3,1.9056942E-2,1.5330802E-2,2.7158475E-2,-6.077478E-2,-2.6748825E-2,-5.422941E-2,-2.4833735E-2,-9.162106E-3,1.3705084E-2,-4.800254E-2,-1.6723743E-2],"split_indices":[0,0,0,0,1,3,3,0,0,0,0,1,1,1,1,0,0,1,3,1,3,0,0,0,0,0,3,3,0,3,3,1,1,3,0,1,0,1,1,0,0,0,0,0,0,0,0,0,0,0,0,0,0,0,0,0,0,0,0],"split_type":[0,0,0,0,0,0,0,0,0,0,0,0,0,0,0,0,0,0,0,0,0,0,0,0,0,0,0,0,0,0,0,0,0,0,0,0,0,0,0,0,0,0,0,0,0,0,0,0,0,0,0,0,0,0,0,0,0,0,0],"sum_hessian":[1.228E3,5.37E2,6.91E2,3.98E2,1.39E2,1.4E2,5.51E2,2.57E2,1.41E2,6.6E1,7.3E1,5.6E1,8.4E1,3.12E2,2.39E2,1.28E2,1.29E2,4.7E1,9E0,4.2E1,4.2E1,2.61E2,5.1E1,1.23E2,1.16E2,2.1E1,2.6E1,5E0,4E0,1.6E1,2.6E1,2.1E1,2.1E1,2.2E1,2.9E1,3E1,9.3E1,2.9E1,8.7E1,1E1,1.6E1,2E0,3E0,1.2E1,4E0,2.1E1,5E0,1.5E1,6E0,6E0,1.5E1,1E1,1.2E1,2E1,1E1,1.9E1,1E1,6.1E1,2.6E1],"tree_param":{"num_deleted":"0","num_feature":"4","num_nodes":"59","size_leaf_vector":"1"}},{"base_weights":[-1.9457987E-2,1.1893969E0,-9.4113696E-1,1.377744E0,3.316121E-2,-1.9602387E-1,-1.1297942E0,1.5136708E0,5.5441972E-2,-5.8532846E-1,8.1728436E-2,-1.263896E0,-7.7882916E-1,8.111906E-2,7.025113E-2,-3.8495786E-2,-4.511386E-1,-3.2571497E-4,1.5276365E-2,-6.690692E-2,-1.1310557E0,-5.284325E-1,-1.0255675E0,-5.1693135E-1,-1.8253222E-2,-1.3131133E-1,6.2056143E-2,-3.7384994E-2,-1.2229615E0,-6.736698E-1,-3.492865E-1,-5.910824E-2,-8.7789595E-1,-2.9095594E-2,-7.2010877E-3,-7.471411E-3,-3.2066938E-3,9.2794005E-5,4.7715995E-3,-5.2796382E-2,-6.581542E-2,-2.4193972E-2,-4.2020917E-2,-1.0601538E-2,-2.1180738E-2,-2.7364193E-2,-4.5835864E-2],"categories":[],"categories_nodes":[],"categories_segments":[],"categories_sizes":[],"default_left":[0,0,0,0,0,0,0,0,0,0,0,0,0,0,0,0,0,0,0,0,0,0,0,0,0,0,0,0,0,0,0,0,0,0,0,0,0,0,0,0,0,0,0,0,0,0,0],"id":6,"left_children":[1,3,5,7,-1,9,11,13,-1,15,17,19,21,-1,-1,-1,23,25,-1,-1,27,29,31,33,-1,35,37,-1,39,41,43,-1,45,-1,-1,-1,-1,-1,-1,-1,-1,-1,-1,-1,-1,-1,-1],"loss_changes":[1.3392448E3,5.0619812E1,9.564801E1,1.228418E1,0E0,1.5077941E1,2.4619019E1,6.851196E-1,0E0,1.0893078E0,1.5059168E0,2.352539E0,8.910767E0,0E0,0E0,0E0,1.5156746E-2,5.065873E-1,0E0,0E0,4.264801E0,1.7941551E0,7.196884E-1,3.523655E-1,0E0,1.4757514E-2,8.421075E-2,0E0,4.3434143E-1,9.225216E-1,2.8765345E-1,0E0,5.0189972E-2,0E0,0E0,0E0,0E0,0E0,0E0,0E0,0E0,0E0,0E0,0E0,0E0,0E0,0E0],"parents":[2147483647,0,0,1,1,2,2,3,3,5,5,6,6,7,7,9,9,10,10,11,11,12,12,16,16,17,17,20,20,21,21,22,22,23,23,25,25,26,26,28,28,29,29,30,30,32,32],"right_children":[2,4,6,8,-1,10,12,14,-1,16,18,20,22,-1,-1,-1,24,26,-1,-1,28,30,32,34,-1,36,38,-1,40,42,44,-1,46,-1,-1,-1,-1,-1,-1,-1,-1,-1,-1,-1,-1,-1,-1],"split_conditions":[1E2,9E1,1.1E2,8E1,3.316121E-2,2E-1,3E-1,7E1,5.5441972E-2,1E-1,4E-1,2E-1,1.3E2,8.111906E-2,7.025113E-2,-3.8495786E-2,1.5E-1,2.5E-1,1.5276365E-2,-6.690692E-2,1.2E2,4E-1,4E-1,5E-2,-1.8253222E-2,5E-2,2E-2,-3.7384994E-2,1.3E2,1.2E2,1.2E2,-5.910824E-2,1E-2,-2.9095594E-2,-7.2010877E-3,-7.471411E-3,-3.2066938E-3,9.2794005E-5,4.7715995E-3,-5.2796382E-2,-6.581542E-2,-2.4193972E-2,-4.2020917E-2,-1.0601538E-2,-2.1180738E-2,-2.7364193E-2,-4.5835864E-2],"split_indices":[0,0,0,0,0,3,3,0,0,3,3,3,0,0,0,0,3,3,0,0,0,3,3,2,0,2,2,0,0,0,0,0,2,0,0,0,0,0,0,0,0,0,0,0,0,0,0],"split_type":[0,0,0,0,0,0,0,0,0,0,0,0,0,0,0,0,0,0,0,0,0,0,0,0,0,0,0,0,0,0,0,0,0,0,0,0,0,0,0,0,0,0,0,0,0,0,0],"sum_hessian":[1.2E3,5.19E2,6.81E2,3.81E2,1.38E2,1.38E2,5.43E2,2.5E2,1.31E2,5.7E1,8.1E1,3.91E2,1.52E2,1.18E2,1.32E2,2.2E1,3.5E1,6E1,2.1E1,2.45E2,1.46E2,7.7E1,7.5E1,1.7E1,1.8E1,1.9E1,4.1E1,3E1,1.16E2,4.1E1,3.6E1,3.3E1,4.2E1,1.4E1,3E0,1.4E1,5E0,1.5E1,2.6E1,4.6E1,7E1,2.1E1,2E1,1.4E1,2.2E1,6E0,3.6E1],"tree_param":{"num_deleted":"0","num_feature":"4","num_nodes":"47","size_leaf_vector":"1"}},{"base_weights":[9.2129677E-4,1.1354584E0,-8.8001466E-1,1.4455407E0,8.492626E-1,-1.7245431E-1,-1.066448E0,7.724455E-2,6.6696465E-2,5.265501E-2,3.1193776E-2,-5.2006435E-1,6.398565E-2,-1.1978636E0,-7.456659E-1,-3.795173E-2,-3.639182E-1,-1.4020807E-1,1.4528981E-1,-6.381791E-2,-1.0647643E0,-4.8291892E-1,-9.9271953E-1,-4.4728944E-1,-1.3534407E-2,-1.6950615E-1,-2.0327496E-3,6.7062706E-2,2.844726E-1,-7.15003E-1,-5.705263E-2,-6.2497294E-1,-2.9588288E-1,-5.6831826E-2,-8.3201957E-1,-2.4607204E-2,-1.3777805E-2,-6.297996E-3,-1.5065727E-2,-3.3893235E-4,5.729616E-3,1.5187837E-2,6.0877413E-3,-4.081229E-2,-2.3756443E-2,-2.3732772E-2,-3.9081063E-2,-3.3117612E-3,-2.2838144E-2,-4.6232887E-2,-3.285661E-2],"categories":[],"categories_nodes":[],"categories_segments":[],"categories_sizes":[],"default_left":[0,0,0,0,0,0,0,0,0,0,0,0,0,0,0,0,0,0,0,0,0,0,0,0,0,0,0,0,0,0,0,0,0,0,0,0,0,0,0,0,0,0,0,0,0,0,0,0,0,0,0],"id":7,"left_children":[1,3,5,7,9,11,13,-1,-1,-1,-1,15,17,19,21,-1,23,25,27,-1,29,31,33,35,-1,37,-1,39,41,43,-1,45,47,-1,49,-1,-1,-1,-1,-1,-1,-1,-1,-1,-1,-1,-1,-1,-1,-1,-1],"loss_changes":[1.2073408E3,4.562921E1,8.9516785E1,7.336426E-1,1.2069031E1,1.1786291E1,2.1786621E1,0E0,0E0,0E0,0E0,1.8880024E0,1.4481255E0,2.611023E0,9.841705E0,0E0,1.6651392E-1,6.602657E-2,6.559702E-1,0E0,3.1065063E0,1.9140491E0,9.2761993E-1,3.0415058E-3,0E0,7.1101904E-2,0E0,1.446725E-1,3.20493E-2,3.1645775E-1,0E0,6.6506577E-1,1.2997916E0,0E0,7.282829E-2,0E0,0E0,0E0,0E0,0E0,0E0,0E0,0E0,0E0,0E0,0E0,0E0,0E0,0E0,0E0,0E0],"parents":[2147483647,0,0,1,1,2,2,3,3,4,4,5,5,6,6,11,11,12,12,13,13,14,14,16,16,17,17,18,18,20,20,21,21,22,22,23,23,25,25,27,27,28,28,29,29,31,31,32,32,34,34],"right_children":[2,4,6,8,10,12,14,-1,-1,-1,-1,16,18,20,22,-1,24,26,28,-1,30,32,34,36,-1,38,-1,40,42,44,-1,46,48,-1,50,-1,-1,-1,-1,-1,-1,-1,-1,-1,-1,-1,-1,-1,-1,-1,-1],"split_conditions":[1E2,8E1,1.1E2,7E1,9E1,2E-1,3E-1,7.724455E-2,6.6696465E-2,5.265501E-2,3.1193776E-2,1E-1,2.5E-1,2E-1,1.3E2,-3.795173E-2,1.5E-1,5E-2,4E-1,-6.381791E-2,1.2E2,4E-1,4E-1,5E-2,-1.3534407E-2,3E-2,-2.0327496E-3,2E-2,5E-2,3E-2,-5.705263E-2,1.2E2,1.2E2,-5.6831826E-2,3E-2,-2.4607204E-2,-1.3777805E-2,-6.297996E-3,-1.5065727E-2,-3.3893235E-4,5.729616E-3,1.5187837E-2,6.0877413E-3,-4.081229E-2,-2.3756443E-2,-2.3732772E-2,-3.9081063E-2,-3.3117612E-3,-2.2838144E-2,-4.6232887E-2,-3.285661E-2],"split_indices":[0,0,0,0,0,3,3,0,0,0,0,3,3,3,0,0,3,2,3,0,0,3,3,2,0,2,0,2,2,2,0,0,0,0,2,0,0,0,0,0,0,0,0,0,0,0,0,0,0,0,0],"split_type":[0,0,0,0,0,0,0,0,0,0,0,0,0,0,0,0,0,0,0,0,0,0,0,0,0,0,0,0,0,0,0,0,0,0,0,0,0,0,0,0,0,0,0,0,0,0,0,0,0,0,0],"sum_hessian":[1.206E3,5.27E2,6.79E2,2.51E2,2.76E2,1.42E2,5.37E2,1.26E2,1.25E2,1.43E2,1.33E2,5.7E1,8.5E1,3.79E2,1.58E2,2.1E1,3.6E1,2.4E1,6.1E1,2.33E2,1.46E2,7.8E1,8E1,1.7E1,1.9E1,1.8E1,6E0,4E1,2.1E1,2.8E1,1.18E2,4.3E1,3.5E1,3.9E1,4.1E1,1.2E1,5E0,1.5E1,3E0,1.6E1,2.4E1,1.8E1,3E0,1.8E1,1E1,2.4E1,1.9E1,1.5E1,2E1,2.4E1,1.7E1],"tree_param":{"num_deleted":"0","num_feature":"4","num_nodes":"51","size_leaf_vector":"1"}},{"base_weights":[-2.394457E-3,1.0874144E0,-8.4948426E-1,1.3738655E0,8.138155E-1,-1.4114197E-1,-1.0318933E0,7.346983E-2,6.342125E-2,5.0185848E-2,2.977619E-2,-4.8995507E-1,9.723289E-2,-1.1499954E0,-7.208094E-1,-5.862568E-1,-1.4847467E-2,-1.19035736E-1,1.8072821E-1,-6.069537E-2,-1.0315602E0,-4.7281426E-1,-9.6580696E-1,-3.177422E-2,-1.94897E-2,-1.4358163E-1,-1.9456315E-3,1.0058016E-1,1.460591E-2,-7.700159E-1,-5.4853834E-2,-3.1100565E-1,-6.306966E-1,-5.5006664E-2,-3.948638E-2,-3.3154048E-3,-1.1594251E-2,9.70226E-3,3.9956174E-3,-4.435988E-2,-2.9869214E-2,-1.9467508E-2,-8.457724E-3,-3.486512E-2,-1.6930005E-2],"categories":[],"categories_nodes":[],"categories_segments":[],"categories_sizes":[],"default_left":[0,0,0,0,0,0,0,0,0,0,0,0,0,0,0,0,0,0,0,0,0,0,0,0,0,0,0,0,0,0,0,0,0,0,0,0,0,0,0,0,0,0,0,0,0],"id":8,"left_children":[1,3,5,7,9,11,13,-1,-1,-1,-1,15,17,19,21,23,-1,25,27,-1,29,31,33,-1,-1,35,-1,37,-1,39,-1,41,43,-1,-1,-1,-1,-1,-1,-1,-1,-1,-1,-1,-1],"loss_changes":[1.1124154E3,4.0184387E1,8.74574E1,7.1484375E-1,1.0677719E1,1.1688398E1,1.8973694E1,0E0,0E0,0E0,0E0,8.8535786E-1,1.538336E0,1.6923218E0,8.71785E0,1.10134125E-1,0E0,4.161352E-2,5.1520777E-1,0E0,1.6056061E0,1.7709484E0,9.0509796E-1,0E0,0E0,1.07447416E-1,0E0,5.5966973E-2,0E0,1.1733818E-1,0E0,3.7866974E-1,5.0319386E-1,0E0,0E0,0E0,0E0,0E0,0E0,0E0,0E0,0E0,0E0,0E0,0E0],"parents":[2147483647,0,0,1,1,2,2,3,3,4,4,5,5,6,6,11,11,12,12,13,13,14,14,15,15,17,17,18,18,20,20,21,21,22,22,25,25,27,27,29,29,31,31,32,32],"right_children":[2,4,6,8,10,12,14,-1,-1,-1,-1,16,18,20,22,24,-1,26,28,-1,30,32,34,-1,-1,36,-1,38,-1,40,-1,42,44,-1,-1,-1,-1,-1,-1,-1,-1,-1,-1,-1,-1],"split_conditions":[1E2,8E1,1.1E2,7E1,9E1,2E-1,3E-1,7.346983E-2,6.342125E-2,5.0185848E-2,2.977619E-2,1.5E-1,2.5E-1,2E-1,1.3E2,5E-2,-1.4847467E-2,5E-2,4E-1,-6.069537E-2,1.2E2,1.2E2,4E-1,-3.177422E-2,-1.94897E-2,2E-2,-1.9456315E-3,1E-2,1.460591E-2,3E-2,-5.4853834E-2,4E-1,5E-2,-5.5006664E-2,-3.948638E-2,-3.3154048E-3,-1.1594251E-2,9.70226E-3,3.9956174E-3,-4.435988E-2,-2.9869214E-2,-1.9467508E-2,-8.457724E-3,-3.486512E-2,-1.6930005E-2],"split_indices":[0,0,0,0,0,3,3,0,0,0,0,3,3,3,0,2,0,2,3,0,0,0,3,0,0,2,0,2,0,2,0,3,2,0,0,0,0,0,0,0,0,0,0,0,0],"split_type":[0,0,0,0,0,0,0,0,0,0,0,0,0,0,0,0,0,0,0,0,0,0,0,0,0,0,0,0,0,0,0,0,0,0,0,0,0,0,0,0,0,0,0,0,0],"sum_hessian":[1.203E3,5.26E2,6.77E2,2.55E2,2.71E2,1.39E2,5.38E2,1.27E2,1.28E2,1.43E2,1.28E2,5.6E1,8.3E1,3.88E2,1.5E2,3.6E1,2E1,2.3E1,6E1,2.46E2,1.42E2,7.6E1,7.4E1,2.7E1,9E0,1.7E1,6E0,3.6E1,2.4E1,3.1E1,1.11E2,3.9E1,3.7E1,3.9E1,3.5E1,1E1,7E0,5E0,3.1E1,1.6E1,1.5E1,2.4E1,1.5E1,2.9E1,8E0],"tree_param":{"num_deleted":"0","num_feature":"4","num_nodes":"45","size_leaf_vector":"1"}},{"base_weights":[2.1394696E-2,1.03619E0,-7.837893E-1,1.3020136E0,7.7538943E-1,-1.4951481E-1,-9.578084E-1,6.967458E-2,6.038442E-2,4.7684774E-2,2.8506523E-2,-4.581158E-1,6.1484873E-2,-1.1200259E0,-7.439474E-1,-3.2886915E-2,-3.5443422E-1,-8.110187E-2,1.9033614E-1,-9.815903E-1,-5.781212E-2,-3.6378533E-1,-8.8290703E-1,-1.949548E-2,-2.669496E-1,-1.4826459E-1,-1.9173337E-2,1.0898826E-1,2.5430882E-1,-5.59052E-2,-7.930717E-1,-2.7681727E-2,-2.5567898E-1,-9.761806E-1,-6.8577945E-1,-7.2586983E-3,-1.5666E-2,-3.915798E-3,-1.3349059E-2,3.0871928E-3,-1.7199054E-3,2.7808116E-3,6.775699E-3,1.3711425E-2,5.989225E-3,-4.4763774E-2,-3.0877782E-2,-1.6565362E-2,-6.2486134E-3,-4.0393133E-2,-5.3346343E-2,-2.4044165E-2,-4.0041592E-2],"categories":[],"categories_nodes":[],"categories_segments":[],"categories_sizes":[],"default_left":[0,0,0,0,0,0,0,0,0,0,0,0,0,0,0,0,0,0,0,0,0,0,0,0,0,0,0,0,0,0,0,0,0,0,0,0,0,0,0,0,0,0,0,0,0,0,0,0,0,0,0,0,0],"id":9,"left_children":[1,3,5,7,9,11,13,-1,-1,-1,-1,15,17,19,21,-1,23,25,27,29,-1,31,33,-1,35,37,39,41,43,-1,45,-1,47,49,51,-1,-1,-1,-1,-1,-1,-1,-1,-1,-1,-1,-1,-1,-1,-1,-1,-1,-1],"loss_changes":[9.7887714E2,3.5733704E1,7.358789E1,5.6918335E-1,9.337967E0,9.469799E0,1.7345367E1,0E0,0E0,0E0,0E0,9.880085E-1,1.6138427E0,3.4909058E-1,1.177623E1,0E0,2.3159504E-2,1.718474E-1,2.116692E-1,8.63266E-1,0E0,1.151454E0,2.4011536E0,0E0,3.9215922E-2,1.4517239E-1,3.0458625E-2,2.360931E-2,3.4143567E-2,0E0,2.1146774E-2,0E0,3.7377095E-1,8.3351135E-1,9.585991E-1,0E0,0E0,0E0,0E0,0E0,0E0,0E0,0E0,0E0,0E0,0E0,0E0,0E0,0E0,0E0,0E0,0E0,0E0],"parents":[2147483647,0,0,1,1,2,2,3,3,4,4,5,5,6,6,11,11,12,12,13,13,14,14,16,16,17,17,18,18,19,19,21,21,22,22,24,24,25,25,26,26,27,27,28,28,30,30,32,32,33,33,34,34],"right_children":[2,4,6,8,10,12,14,-1,-1,-1,-1,16,18,20,22,-1,24,26,28,30,-1,32,34,-1,36,38,40,42,44,-1,46,-1,48,50,52,-1,-1,-1,-1,-1,-1,-1,-1,-1,-1,-1,-1,-1,-1,-1,-1,-1,-1],"split_conditions":[1E2,8E1,1.1E2,7E1,9E1,2E-1,2.5E-1,6.967458E-2,6.038442E-2,4.7684774E-2,2.8506523E-2,1E-1,3E-1,1.2E2,1.2E2,-3.2886915E-2,3E-2,2.5E-1,4E-1,1.5E-1,-5.781212E-2,3E-1,4E-1,-1.949548E-2,5E-2,3E-2,1E-2,2E-2,5E-2,-5.59052E-2,3E-2,-2.7681727E-2,4E-1,1.3E2,1.3E2,-7.2586983E-3,-1.5666E-2,-3.915798E-3,-1.3349059E-2,3.0871928E-3,-1.7199054E-3,2.7808116E-3,6.775699E-3,1.3711425E-2,5.989225E-3,-4.4763774E-2,-3.0877782E-2,-1.6565362E-2,-6.2486134E-3,-4.0393133E-2,-5.3346343E-2,-2.4044165E-2,-4.0041592E-2],"split_indices":[0,0,0,0,0,3,3,0,0,0,0,3,3,0,0,0,2,3,3,3,0,3,3,0,2,2,2,2,2,0,2,0,3,0,0,0,0,0,0,0,0,0,0,0,0,0,0,0,0,0,0,0,0],"split_type":[0,0,0,0,0,0,0,0,0,0,0,0,0,0,0,0,0,0,0,0,0,0,0,0,0,0,0,0,0,0,0,0,0,0,0,0,0,0,0,0,0,0,0,0,0,0,0,0,0,0,0,0,0],"sum_hessian":[1.196E3,5.29E2,6.67E2,2.6E2,2.69E2,1.44E2,5.23E2,1.25E2,1.35E2,1.42E2,1.27E2,5.8E1,8.6E1,2.95E2,2.28E2,1.8E1,4E1,4.1E1,4.5E1,6.7E1,2.28E2,6.2E1,1.66E2,2.6E1,1.4E1,1.9E1,2.2E1,2.1E1,2.4E1,3.6E1,3.1E1,2.1E1,4.1E1,1.1E2,5.6E1,5E0,9E0,1.3E1,6E0,3E0,1.9E1,8E0,1.3E1,2E1,4E0,1.7E1,1.4E1,2.5E1,1.6E1,4.2E1,6.8E1,2.2E1,3.4E1],"tree_param":{"num_deleted":"0","num_feature":"4","num_nodes":"53","size_leaf_vector":"1"}},{"base_weights":[2.0473322E-2,9.839488E-1,-7.599291E-1,1.2345291E0,7.3343635E-1,-1.5978336E-1,-9.102303E-1,6.636121E-2,5.736921E-2,4.5241404E-2,5.40582E-1,-5.15592E-1,2.5913041E-2,-9.9638224E-1,-4.6009564E-1,2.5406966E-2,3.4238897E-2,-6.8433636E-1,-2.3977965E-1,-2.786854E-1,2.1927726E-1,-1.0752455E0,-7.97626E-1,-8.700696E-1,4.3375574E-2,-3.9594565E-2,-2.6916465E-2,-1.8006131E-2,-1.3956936E-1,-3.5788575E-1,8.924251E-2,8.489328E-2,3.458299E-1,-9.4467425E-1,-5.5570908E-2,-9.859746E-1,-4.865375E-1,-9.558524E-1,-5.33067E-1,-2.9823574E-1,2.1890087E-1,-9.643192E-3,7.6178013E-4,-2.5476033E-2,-1.10438755E-2,-2.892087E-3,7.982228E-3,-1.0683615E-3,1.1417728E-2,7.401766E-3,2.0235607E-2,-5.2720625E-2,-3.5526585E-2,-3.471918E-2,-5.3579926E-2,-7.682781E-3,-3.883708E-2,-3.3771776E-2,-5.2425604E-2,-1.1523721E-2,-3.5813984E-2,-6.901235E-4,-2.9034862E-2,1.8097635E-2,4.961687E-4],"categories":[],"categories_nodes":[],"categories_segments":[],"categories_sizes":[],"default_left":[0,0,0,0,0,0,0,0,0,0,0,0,0,0,0,0,0,0,0,0,0,0,0,0,0,0,0,0,0,0,0,0,0,0,0,0,0,0,0,0,0,0,0,0,0,0,0,0,0,0,0,0,0,0,0,0,0,0,0,0,0,0,0,0,0],"id":10,"left_children":[1,3,5,7,9,11,13,-1,-1,-1,15,17,19,21,23,-1,-1,25,27,29,31,33,35,37,39,-1,-1,-1,41,43,45,47,49,51,-1,53,55,57,59,61,63,-1,-1,-1,-1,-1,-1,-1,-1,-1,-1,-1,-1,-1,-1,-1,-1,-1,-1,-1,-1,-1,-1,-1,-1],"loss_changes":[9.022742E2,3.2803955E1,5.9658844E1,6.3397217E-1,8.468399E0,8.86706E0,2.009497E1,0E0,0E0,0E0,2.6019287E-1,1.9768314E0,5.3030705E0,6.1018677E0,1.7995419E1,0E0,0E0,1.3407707E-2,1.7887044E-1,1.0518394E0,9.0600705E-1,4.378357E-1,7.13739E0,8.7809753E-1,2.4637413E0,0E0,0E0,0E0,1.0194142E-1,4.8993993E-1,8.171934E-2,4.317188E-1,2.661929E-1,1.177887E0,0E0,1.253273E0,4.807437E0,2.5318146E-1,5.001817E-1,1.1167649E0,8.035625E-1,0E0,0E0,0E0,0E0,0E0,0E0,0E0,0E0,0E0,0E0,0E0,0E0,0E0,0E0,0E0,0E0,0E0,0E0,0E0,0E0,0E0,0E0,0E0,0E0],"parents":[2147483647,0,0,1,1,2,2,3,3,4,4,5,5,6,6,10,10,11,11,12,12,13,13,14,14,17,17,18,18,19,19,20,20,21,21,22,22,23,23,24,24,28,28,29,29,30,30,31,31,32,32,33,33,35,35,36,36,37,37,38,38,39,39,40,40],"right_children":[2,4,6,8,10,12,14,-1,-1,-1,16,18,20,22,24,-1,-1,26,28,30,32,34,36,38,40,-1,-1,-1,42,44,46,48,50,52,-1,54,56,58,60,62,64,-1,-1,-1,-1,-1,-1,-1,-1,-1,-1,-1,-1,-1,-1,-1,-1,-1,-1,-1,-1,-1,-1,-1,-1],"split_conditions":[1E2,8E1,1.1E2,7E1,9E1,5E-1,2E0,6.636121E-2,5.736921E-2,4.5241404E-2,2E0,2.5E-1,2E-1,3E-1,2.5E-1,2.5406966E-2,3.4238897E-2,1.5E-1,2.5E-1,2E0,3E-1,1.2E2,7.5E-1,2E-1,3E-1,-3.9594565E-2,-2.6916465E-2,-1.8006131E-2,4E-1,1E-1,1E-1,1E0,7.5E-1,2E-1,-5.5570908E-2,1.2E2,1.3E2,1.2E2,1.3E2,1.3E2,1.3E2,-9.643192E-3,7.6178013E-4,-2.5476033E-2,-1.10438755E-2,-2.892087E-3,7.982228E-3,-1.0683615E-3,1.1417728E-2,7.401766E-3,2.0235607E-2,-5.2720625E-2,-3.5526585E-2,-3.471918E-2,-5.3579926E-2,-7.682781E-3,-3.883708E-2,-3.3771776E-2,-5.2425604E-2,-1.1523721E-2,-3.5813984E-2,-6.901235E-4,-2.9034862E-2,1.8097635E-2,4.961687E-4],"split_indices":[0,0,0,0,0,1,1,0,0,0,1,3,3,3,3,0,0,3,1,1,3,0,1,3,3,0,0,0,3,3,3,1,1,3,0,0,0,0,0,0,0,0,0,0,0,0,0,0,0,0,0,0,0,0,0,0,0,0,0,0,0,0,0,0,0],"split_type":[0,0,0,0,0,0,0,0,0,0,0,0,0,0,0,0,0,0,0,0,0,0,0,0,0,0,0,0,0,0,0,0,0,0,0,0,0,0,0,0,0,0,0,0,0,0,0,0,0,0,0,0,0,0,0,0,0,0,0,0,0,0,0,0,0],"sum_hessian":[1.198E3,5.36E2,6.62E2,2.66E2,2.7E2,1.33E2,5.29E2,1.22E2,1.44E2,1.41E2,1.29E2,4.5E1,8.8E1,4.43E2,8.6E1,1.09E2,2E1,2.7E1,1.8E1,3.4E1,5.4E1,3.14E2,1.29E2,4.7E1,3.9E1,1.3E1,1.4E1,7E0,1.1E1,2.8E1,6E0,2.7E1,2.7E1,7.4E1,2.4E2,7.9E1,5E1,3.6E1,1.1E1,1.3E1,2.6E1,8E0,3E0,1.2E1,1.6E1,2E0,4E0,1.6E1,1.1E1,7E0,2E1,4.8E1,2.6E1,2E1,5.9E1,2.4E1,2.6E1,1.1E1,2.5E1,5E0,6E0,7E0,6E0,1.5E1,1.1E1],"tree_param":{"num_deleted":"0","num_feature":"4","num_nodes":"65","size_leaf_vector":"1"}},{"base_weights":[3.3353746E-4,9.2150086E-1,-7.102429E-1,1.172949E0,6.9568163E-1,-1.4939372E-1,-8.6657554E-1,6.301776E-2,5.452437E-2,4.2968508E-2,5.159274E-1,-4.94456E-1,4.6259988E-2,-5.25572E-2,-6.794432E-1,2.240328E-2,2.8454168E-2,-2.9888421E-2,-1.8450199E-2,-5.118006E-2,1.8816963E-2,-4.9009007E-1,-8.891128E-1,-1.5106031E-1,4.900482E-3,-6.335914E-1,-1.7683528E-1,-4.866209E-2,-3.643936E-2,-1.0426378E-2,-4.9259304E-3,-2.0786764E-3,2.2153975E-3,-2.3301987E-2,-3.877892E-2,-1.7888607E-2,-3.4204952E-3],"categories":[],"categories_nodes":[],"categories_segments":[],"categories_sizes":[],"default_left":[0,0,0,0,0,0,0,0,0,0,0,0,0,0,0,0,0,0,0,0,0,0,0,0,0,0,0,0,0,0,0,0,0,0,0,0,0],"id":11,"left_children":[1,3,5,7,9,11,13,-1,-1,-1,15,17,19,-1,21,-1,-1,-1,-1,23,-1,25,27,29,31,33,35,-1,-1,-1,-1,-1,-1,-1,-1,-1,-1],"loss_changes":[7.861262E2,2.888092E1,5.9316925E1,3.9868164E-1,7.7364197E0,1.0082268E1,1.7591309E1,0E0,0E0,0E0,2.3199081E-1,4.793024E-1,3.1069033E0,0E0,1.0124878E1,0E0,0E0,0E0,0E0,4.2084065E-1,0E0,6.2712097E0,9.767151E-1,6.0980678E-2,9.158176E-2,1.9461975E0,8.779597E-1,0E0,0E0,0E0,0E0,0E0,0E0,0E0,0E0,0E0,0E0],"parents":[2147483647,0,0,1,1,2,2,3,3,4,4,5,5,6,6,10,10,11,11,12,12,14,14,19,19,21,21,22,22,23,23,24,24,25,25,26,26],"right_children":[2,4,6,8,10,12,14,-1,-1,-1,16,18,20,-1,22,-1,-1,-1,-1,24,-1,26,28,30,32,34,36,-1,-1,-1,-1,-1,-1,-1,-1,-1,-1],"split_conditions":[1E2,8E1,1.1E2,7E1,9E1,5E-1,7.5E-1,6.301776E-2,5.452437E-2,4.2968508E-2,7.5E-1,2.5E-1,2E0,-5.25572E-2,1.3E2,2.240328E-2,2.8454168E-2,-2.9888421E-2,-1.8450199E-2,7.5E-1,1.8816963E-2,2E0,2E0,2E-2,2E-2,1.2E2,2E-2,-4.866209E-2,-3.643936E-2,-1.0426378E-2,-4.9259304E-3,-2.0786764E-3,2.2153975E-3,-2.3301987E-2,-3.877892E-2,-1.7888607E-2,-3.4204952E-3],"split_indices":[0,0,0,0,0,1,1,0,0,0,1,1,1,0,0,0,0,0,0,1,0,1,1,2,2,0,2,0,0,0,0,0,0,0,0,0,0],"split_type":[0,0,0,0,0,0,0,0,0,0,0,0,0,0,0,0,0,0,0,0,0,0,0,0,0,0,0,0,0,0,0,0,0,0,0,0,0],"sum_hessian":[1.199E3,5.22E2,6.77E2,2.45E2,2.77E2,1.48E2,5.29E2,1.12E2,1.33E2,1.43E2,1.34E2,5.3E1,9.5E1,2.64E2,2.65E2,6.3E1,7.1E1,2.7E1,2.6E1,7.4E1,2.1E1,1.41E2,1.24E2,2.6E1,4.8E1,9.6E1,4.5E1,7.8E1,4.6E1,1.1E1,1.5E1,2.2E1,2.6E1,4.6E1,5E1,1.6E1,2.9E1],"tree_param":{"num_deleted":"0","num_feature":"4","num_nodes":"37","size_leaf_vector":"1"}},{"base_weights":[8.070478E-3,8.79345E-1,-6.9158167E-1,1.1183032E0,6.6505677E-1,-1.6143993E-1,-8.288316E-1,5.9923243E-2,5.1723618E-2,4.0860757E-2,4.9106553E-1,-4.997846E-1,3.648072E-2,-4.900643E-2,-6.285418E-1,2.1423554E-2,2.7321924E-2,-3.767499E-2,-3.6227193E-1,-3.9585075E-1,1.8658896E-1,-8.438609E-1,-1.722977E-1,-4.1232353E-1,-1.0316217E-1,-4.7774664E-1,-1.2080573E-2,-1.295812E-2,2.936248E-1,-5.1269718E-2,-6.718448E-1,9.090392E-2,-4.599579E-1,-2.480356E-2,-1.5054381E-2,-1.0451785E-2,1.4250949E-3,-2.5026558E-2,-4.538709E-3,-5.843185E-3,7.2098034E-3,1.0971652E-2,2.4475344E-2,-1.1805455E-2,-4.032129E-2,-7.3099355E-3,1.3625507E-2,-3.168317E-2,-5.194474E-3],"categories":[],"categories_nodes":[],"categories_segments":[],"categories_sizes":[],"default_left":[0,0,0,0,0,0,0,0,0,0,0,0,0,0,0,0,0,0,0,0,0,0,0,0,0,0,0,0,0,0,0,0,0,0,0,0,0,0,0,0,0,0,0,0,0,0,0,0,0],"id":12,"left_children":[1,3,5,7,9,11,13,-1,-1,-1,15,17,19,-1,21,-1,-1,-1,23,25,27,29,31,33,35,37,-1,39,41,-1,43,45,47,-1,-1,-1,-1,-1,-1,-1,-1,-1,-1,-1,-1,-1,-1,-1,-1],"loss_changes":[7.308959E2,2.660025E1,4.825287E1,4.4696045E-1,7.117363E0,9.259457E0,1.5384094E1,0E0,0E0,0E0,2.3378372E-1,1.5063696E0,5.7847548E0,0E0,2.2449356E1,0E0,0E0,0E0,4.113741E-1,1.7509675E-1,1.4134786E0,4.1824493E0,5.7202597E0,1.2079573E-1,1.0353609E-1,7.800245E-2,0E0,4.08752E-1,5.1749754E-1,0E0,4.676861E0,1.762213E0,2.1608062E0,0E0,0E0,0E0,0E0,0E0,0E0,0E0,0E0,0E0,0E0,0E0,0E0,0E0,0E0,0E0,0E0],"parents":[2147483647,0,0,1,1,2,2,3,3,4,4,5,5,6,6,10,10,11,11,12,12,14,14,18,18,19,19,20,20,21,21,22,22,23,23,24,24,25,25,27,27,28,28,30,30,31,31,32,32],"right_children":[2,4,6,8,10,12,14,-1,-1,-1,16,18,20,-1,22,-1,-1,-1,24,26,28,30,32,34,36,38,-1,40,42,-1,44,46,48,-1,-1,-1,-1,-1,-1,-1,-1,-1,-1,-1,-1,-1,-1,-1,-1],"split_conditions":[1E2,8E1,1.1E2,7E1,9E1,5E-1,2.5E-1,5.9923243E-2,5.1723618E-2,4.0860757E-2,7.5E-1,1.5E-1,1.5E-1,-4.900643E-2,1E0,2.1423554E-2,2.7321924E-2,-3.767499E-2,4E-1,1E-1,2.5E-1,5E-1,1.3E2,2.5E-1,2.5E-1,2E0,-1.2080573E-2,1E0,2E0,-5.1269718E-2,1.2E2,2E0,4E-1,-2.480356E-2,-1.5054381E-2,-1.0451785E-2,1.4250949E-3,-2.5026558E-2,-4.538709E-3,-5.843185E-3,7.2098034E-3,1.0971652E-2,2.4475344E-2,-1.1805455E-2,-4.032129E-2,-7.3099355E-3,1.3625507E-2,-3.168317E-2,-5.194474E-3],"split_indices":[0,0,0,0,0,1,3,0,0,0,1,3,3,0,1,0,0,0,3,3,3,1,0,1,1,1,0,1,1,0,0,1,3,0,0,0,0,0,0,0,0,0,0,0,0,0,0,0,0],"split_type":[0,0,0,0,0,0,0,0,0,0,0,0,0,0,0,0,0,0,0,0,0,0,0,0,0,0,0,0,0,0,0,0,0,0,0,0,0,0,0,0,0,0,0,0,0,0,0,0,0],"sum_hessian":[1.197E3,5.33E2,6.64E2,2.5E2,2.83E2,1.37E2,5.27E2,1.21E2,1.29E2,1.49E2,1.34E2,5E1,8.7E1,2.98E2,2.29E2,6.7E1,6.7E1,1.6E1,3.4E1,2.2E1,6.5E1,1.55E2,7.4E1,2.8E1,6E0,1.3E1,9E0,2.3E1,4.2E1,7.3E1,8.2E1,3.9E1,3.5E1,1.4E1,1.4E1,3E0,3E0,1.2E1,1E0,1.4E1,9E0,3.2E1,1E1,2E1,6.2E1,1.7E1,2.2E1,2.3E1,1.2E1],"tree_param":{"num_deleted":"0","num_feature":"4","num_nodes":"49","size_leaf_vector":"1"}},{"base_weights":[4.8186434E-3,-7.8190275E-2,1.7456916E-1,-2.2259434E-1,-3.1873316E-2,3.2800012E-3,3.8721874E-1,-1.9432373E-1,-3.294051E-1,-9.408837E-2,5.0500415E-2,-9.3329474E-2,9.72956E-2,2.522281E-1,5.193753E-1,-2.530616E-1,-1.4021005E-1,-2.3882936E-1,-4.3789992E-1,-1.6064012E-1,-6.931422E-2,3.7152923E-4,1.4744891E-1,-1.5534829E-1,1.3537742E-1,-7.25729E-2,1.5680464E-1,1.4940862E-1,2.2154858E-2,3.7436527E-1,2.9710833E-2,-1.642599E-1,-3.3082062E-1,-1.836311E-1,-9.3528286E-2,-1.4239932E-2,-4.325207E-3,-3.5355773E-2,-1.5033543E-2,-1.1826624E-1,-2.529991E-1,-4.7593128E-2,-1.4901438E-1,5.3019874E-2,-2.7080784E-2,7.602984E-2,2.9751623E-1,-9.196803E-2,-2.3465523E-1,3.5016655E-3,1.7704941E-1,-8.957199E-2,-4.6747368E-2,1.39274215E-2,1.1693264E-1,8.780437E-2,4.158454E-1,1.412415E-2,2.3944264E-2,-5.7065664E-3,-1.2959175E-2,-2.1553388E-2,-1.0701622E-2,-1.7608399E-2,-3.3736936E-4,6.4108716E-3,-1.21723665E-2,-8.101656E-3,-2.1508595E-3,-6.868253E-3,-1.632714E-2,-3.3003974E-3,-3.4574684E-4,8.5877377E-4,-1.2223537E-2,7.85084E-3,-2.6343686E-3,6.550408E-4,-4.0593073E-3,6.274109E-3,8.724769E-4,-2.723133E-3,1.7800568E-2,2.3054166E-3,-7.086376E-3,-1.4959342E-2,-2.4530326E-3,4.85918E-3,1.2151592E-2,-1.0678268E-2,9.28995E-4,2.7300941E-3,-9.549001E-3,7.1621262E-3,4.0731514E-3,2.2684026E-3,6.4212987E-3,1.1607076E-2,2.9493088E-2],"categories":[],"categories_nodes":[],"categories_segments":[],"categories_sizes":[],"default_left":[0,0,0,0,0,0,0,0,0,0,0,0,0,0,0,0,0,0,0,0,0,0,0,0,0,0,0,0,0,0,0,0,0,0,0,0,0,0,0,0,0,0,0,0,0,0,0,0,0,0,0,0,0,0,0,0,0,0,0,0,0,0,0,0,0,0,0,0,0,0,0,0,0,0,0,0,0,0,0,0,0,0,0,0,0,0,0,0,0,0,0,0,0,0,0,0,0,0,0],"id":13,"left_children":[1,3,5,7,9,11,13,15,17,19,21,23,25,27,29,31,33,35,37,39,41,43,45,47,49,51,53,55,-1,57,-1,59,61,63,65,-1,-1,-1,-1,67,69,71,73,75,77,79,81,83,85,-1,87,89,91,-1,93,95,97,-1,-1,-1,-1,-1,-1,-1,-1,-1,-1,-1,-1,-1,-1,-1,-1,-1,-1,-1,-1,-1,-1,-1,-1,-1,-1,-1,-1,-1,-1,-1,-1,-1,-1,-1,-1,-1,-1,-1,-1,-1,-1],"loss_changes":[1.7119888E1,5.4506044E0,1.4532131E1,5.3386974E-1,3.177056E0,2.0254614E0,3.0445004E0,4.6990347E-1,2.8849697E-1,5.7087874E-1,1.2975439E0,1.5812848E0,1.1536641E0,1.7000527E0,7.434406E-1,4.635439E-1,1.5511799E-1,1.4341855E-1,4.1544223E-1,3.418715E-1,4.4128215E-1,2.5725725E-1,9.5268774E-1,4.1572428E-1,5.2953094E-2,8.983076E-3,3.751788E-1,9.4830525E-1,0E0,1.8163967E-1,0E0,1.4647925E-1,3.6433697E-1,1.2795149E0,1.460702E0,0E0,0E0,0E0,0E0,2.1368861E-1,2.0176494E-1,1.5310529E-1,8.767122E-1,6.788597E-1,2.5542626E-1,1.8031707E-1,6.1647177E-1,3.5006526E-1,4.4043684E-1,0E0,5.0157666E-2,2.3194002E-1,2.1507806E-1,0E0,4.8989058E-2,8.036512E-2,2.1471095E-1,0E0,0E0,0E0,0E0,0E0,0E0,0E0,0E0,0E0,0E0,0E0,0E0,0E0,0E0,0E0,0E0,0E0,0E0,0E0,0E0,0E0,0E0,0E0,0E0,0E0,0E0,0E0,0E0,0E0,0E0,0E0,0E0,0E0,0E0,0E0,0E0,0E0,0E0,0E0,0E0,0E0,0E0],"parents":[2147483647,0,0,1,1,2,2,3,3,4,4,5,5,6,6,7,7,8,8,9,9,10,10,11,11,12,12,13,13,14,14,15,15,16,16,17,17,18,18,19,19,20,20,21,21,22,22,23,23,24,24,25,25,26,26,27,27,29,29,31,31,32,32,33,33,34,34,39,39,40,40,41,41,42,42,43,43,44,44,45,45,46,46,47,47,48,48,50,50,51,51,52,52,54,54,55,55,56,56],"right_children":[2,4,6,8,10,12,14,16,18,20,22,24,26,28,30,32,34,36,38,40,42,44,46,48,50,52,54,56,-1,58,-1,60,62,64,66,-1,-1,-1,-1,68,70,72,74,76,78,80,82,84,86,-1,88,90,92,-1,94,96,98,-1,-1,-1,-1,-1,-1,-1,-1,-1,-1,-1,-1,-1,-1,-1,-1,-1,-1,-1,-1,-1,-1,-1,-1,-1,-1,-1,-1,-1,-1,-1,-1,-1,-1,-1,-1,-1,-1,-1,-1,-1,-1],"split_conditions":[1E0,2.5E-1,2.5E-1,5E-2,2.5E-1,1.5E-1,2E0,2E-1,2.5E-1,1E-1,7.5E-1,5E-2,1E-2,4E-1,3E-1,2E-2,2E-2,2E-1,3E-1,7.5E-1,5E-2,3E-1,4E-1,2E0,2E0,2E-1,2E-2,5E-2,2.2154858E-2,3E-2,2.9710833E-2,1.5E-1,3E-2,3E-1,3E-1,-1.4239932E-2,-4.325207E-3,-3.5355773E-2,-1.5033543E-2,3E-2,2E-2,7.5E-1,1.5E-1,5E-1,3E-2,3E-1,1E-2,1E-2,3E-2,3.5016655E-3,1E-1,2E0,2E0,1.39274215E-2,2E0,2E-2,3E-1,1.412415E-2,2.3944264E-2,-5.7065664E-3,-1.2959175E-2,-2.1553388E-2,-1.0701622E-2,-1.7608399E-2,-3.3736936E-4,6.4108716E-3,-1.21723665E-2,-8.101656E-3,-2.1508595E-3,-6.868253E-3,-1.632714E-2,-3.3003974E-3,-3.4574684E-4,8.5877377E-4,-1.2223537E-2,7.85084E-3,-2.6343686E-3,6.550408E-4,-4.0593073E-3,6.274109E-3,8.724769E-4,-2.723133E-3,1.7800568E-2,2.3054166E-3,-7.086376E-3,-1.4959342E-2,-2.4530326E-3,4.85918E-3,1.2151592E-2,-1.0678268E-2,9.28995E-4,2.7300941E-3,-9.549001E-3,7.1621262E-3,4.0731514E-3,2.2684026E-3,6.4212987E-3,1.1607076E-2,2.9493088E-2],"split_indices":[1,1,3,2,3,3,1,3,3,3,1,2,2,3,3,2,2,3,3,1,2,3,3,1,1,3,2,2,0,2,0,3,2,3,3,0,0,0,0,2,2,1,3,1,2,3,2,2,2,0,3,1,1,0,1,2,3,0,0,0,0,0,0,0,0,0,0,0,0,0,0,0,0,0,0,0,0,0,0,0,0,0,0,0,0,0,0,0,0,0,0,0,0,0,0,0,0,0,0],"split_type":[0,0,0,0,0,0,0,0,0,0,0,0,0,0,0,0,0,0,0,0,0,0,0,0,0,0,0,0,0,0,0,0,0,0,0,0,0,0,0,0,0,0,0,0,0,0,0,0,0,0,0,0,0,0,0,0,0,0,0,0,0,0,0,0,0,0,0,0,0,0,0,0,0,0,0,0,0,0,0,0,0,0,0,0,0,0,0,0,0,0,0,0,0,0,0,0,0,0,0],"sum_hessian":[1.213E3,8.15E2,3.98E2,1.97E2,6.18E2,2.21E2,1.77E2,1.58E2,3.9E1,3.52E2,2.66E2,1.09E2,1.12E2,8.9E1,8.8E1,7.4E1,8.4E1,2.3E1,1.6E1,9.4E1,2.58E2,1.76E2,9E1,8.6E1,2.3E1,2.9E1,8.3E1,5.9E1,3E1,3.2E1,5.6E1,3.6E1,3.8E1,4.2E1,4.2E1,1.7E1,6E0,4E0,1.2E1,6.6E1,2.8E1,2.04E2,5.4E1,6E1,1.16E2,6.2E1,2.8E1,4.9E1,3.7E1,1E1,1.3E1,1.6E1,1.3E1,1.9E1,6.4E1,4.9E1,1E1,1.9E1,1.3E1,2.5E1,1.1E1,1.9E1,1.9E1,2.1E1,2.1E1,1.7E1,2.5E1,4.1E1,2.5E1,1.2E1,1.6E1,1.4E2,6.4E1,2E1,3.4E1,3E1,3E1,6.7E1,4.9E1,3.3E1,2.9E1,4E0,2.4E1,1.3E1,3.6E1,2.7E1,1E1,7E0,6E0,7E0,9E0,8E0,5E0,3.5E1,2.9E1,2.5E1,2.4E1,6E0,4E0],"tree_param":{"num_deleted":"0","num_feature":"4","num_nodes":"99","size_leaf_vector":"1"}},{"base_weights":[1.6011437E-2,8.4390706E-1,-6.5289205E-1,9.662996E-1,2.2797793E-2,-1.3308132E-1,-7.8984964E-1,1.0630436E0,3.888285E-2,-3.9685395E-1,4.6489157E-2,-9.150339E-1,-6.1141336E-1,5.6791145E-2,4.905191E-2,-5.4494256E-1,-3.183296E-1,-3.1475123E-2,1.271227E-1,-4.841026E-2,-8.558426E-1,-3.12973E-1,-7.059522E-1,-2.9582506E-2,-5.709394E-3,-3.646621E-1,-1.2518291E-2,-7.973256E-2,2.287708E-2,7.4238956E-2,8.6976485E-3,-3.2883048E-2,-4.5475334E-2,-2.3496771E-2,-2.0682052E-1,-8.1189823E-1,-4.687464E-1,-2.0237755E-2,-9.848524E-3,-5.244896E-3,-3.6131698E-4,-2.308026E-4,1.8476682E-3,-9.1834564E-4,5.216311E-3,-1.5216005E-2,1.2353844E-3,-3.3000126E-2,-4.484963E-2,-1.0850842E-2,-2.7677316E-2],"categories":[],"categories_nodes":[],"categories_segments":[],"categories_sizes":[],"default_left":[0,0,0,0,0,0,0,0,0,0,0,0,0,0,0,0,0,0,0,0,0,0,0,0,0,0,0,0,0,0,0,0,0,0,0,0,0,0,0,0,0,0,0,0,0,0,0,0,0,0,0],"id":14,"left_children":[1,3,5,7,-1,9,11,13,-1,15,17,19,21,-1,-1,23,25,27,29,-1,31,33,35,-1,-1,37,-1,39,41,43,-1,-1,-1,-1,45,47,49,-1,-1,-1,-1,-1,-1,-1,-1,-1,-1,-1,-1,-1,-1],"loss_changes":[6.56783E2,2.4725067E1,4.6596832E1,6.509796E0,0E0,6.554927E0,1.1033661E1,4.553833E-1,0E0,4.777279E-1,5.2578366E-1,1.25E-1,5.9015427E0,0E0,0E0,2.9459143E-1,3.1509638E-2,1.14608675E-1,8.8624895E-2,0E0,1.0184097E0,8.025527E-1,3.7409058E0,0E0,0E0,6.1463594E-2,0E0,4.120879E-2,8.297602E-3,6.042756E-2,0E0,0E0,0E0,0E0,7.7503157E-1,8.556366E-1,1.0112429E0,0E0,0E0,0E0,0E0,0E0,0E0,0E0,0E0,0E0,0E0,0E0,0E0,0E0,0E0],"parents":[2147483647,0,0,1,1,2,2,3,3,5,5,6,6,7,7,9,9,10,10,11,11,12,12,15,15,16,16,17,17,18,18,20,20,21,21,22,22,25,25,27,27,28,28,29,29,34,34,35,35,36,36],"right_children":[2,4,6,8,-1,10,12,14,-1,16,18,20,22,-1,-1,24,26,28,30,-1,32,34,36,-1,-1,38,-1,40,42,44,-1,-1,-1,-1,46,48,50,-1,-1,-1,-1,-1,-1,-1,-1,-1,-1,-1,-1,-1,-1],"split_conditions":[1E2,9E1,1.1E2,8E1,2.2797793E-2,2E-1,2.5E-1,7E1,3.888285E-2,1E-1,3E-1,1.5E-1,1.2E2,5.6791145E-2,4.905191E-2,5E-2,1.5E-1,2.5E-1,4E-1,-4.841026E-2,1.2E2,3E-1,4E-1,-2.9582506E-2,-5.709394E-3,5E-2,-1.2518291E-2,5E-2,2E-2,1E-2,8.6976485E-3,-3.2883048E-2,-4.5475334E-2,-2.3496771E-2,3E-2,1.3E2,1.3E2,-2.0237755E-2,-9.848524E-3,-5.244896E-3,-3.6131698E-4,-2.308026E-4,1.8476682E-3,-9.1834564E-4,5.216311E-3,-1.5216005E-2,1.2353844E-3,-3.3000126E-2,-4.484963E-2,-1.0850842E-2,-2.7677316E-2],"split_indices":[0,0,0,0,0,3,3,0,0,3,3,3,0,0,0,2,3,3,3,0,0,3,3,0,0,2,0,2,2,2,0,0,0,0,2,0,0,0,0,0,0,0,0,0,0,0,0,0,0,0,0],"split_type":[0,0,0,0,0,0,0,0,0,0,0,0,0,0,0,0,0,0,0,0,0,0,0,0,0,0,0,0,0,0,0,0,0,0,0,0,0,0,0,0,0,0,0,0,0,0,0,0,0,0,0],"sum_hessian":[1.184E3,5.29E2,6.55E2,4.01E2,1.28E2,1.37E2,5.18E2,2.62E2,1.39E2,5.5E1,8.2E1,3.02E2,2.16E2,1.32E2,1.3E2,1.7E1,3.8E1,4.2E1,4E1,1.51E2,1.51E2,5.3E1,1.63E2,1.5E1,2E0,2E1,1.8E1,2.2E1,2E1,2E1,2E1,3.5E1,1.16E2,2E1,3.3E1,1.11E2,5.2E1,1.5E1,5E0,1.6E1,6E0,7E0,1.3E1,5E0,1.5E1,2.3E1,1E1,4.3E1,6.8E1,1.4E1,3.8E1],"tree_param":{"num_deleted":"0","num_feature":"4","num_nodes":"51","size_leaf_vector":"1"}},{"base_weights":[-1.0628559E-2,7.906568E-1,-6.2329173E-1,9.1468805E-1,4.4142887E-1,-1.10368624E-1,-7.5272954E-1,1.0084548E0,3.6879435E-2,1.9904613E-2,2.4299687E-2,-3.8272256E-1,5.6816738E-2,-8.416459E-1,-5.2706003E-1,5.3871173E-2,4.685171E-2,-5.179779E-1,-2.9836327E-1,-5.4028362E-2,1.614728E-1,-7.069023E-1,-8.808724E-1,-1.7632955E-1,-6.4148515E-1,-2.9977946E-2,-1.8035738E-2,-1.1545017E-2,-1.7151078E-2,-1.1803604E-1,2.5482267E-2,1.1376156E-1,1.0108174E-2,-4.414454E-2,-2.7871126E-2,-4.590033E-2,-8.119535E-1,-2.302069E-1,-1.16621144E-1,-3.6933288E-2,-5.352328E-1,-6.8217306E-3,-2.005059E-3,-1.994902E-3,2.8176128E-3,2.93172E-3,7.250614E-3,-3.3797964E-2,-4.3860562E-2,-3.5535225E-3,-1.3277456E-2,-1.3876184E-2,-3.12184E-3,-1.9861167E-2,-2.9968018E-2],"categories":[],"categories_nodes":[],"categories_segments":[],"categories_sizes":[],"default_left":[0,0,0,0,0,0,0,0,0,0,0,0,0,0,0,0,0,0,0,0,0,0,0,0,0,0,0,0,0,0,0,0,0,0,0,0,0,0,0,0,0,0,0,0,0,0,0,0,0,0,0,0,0,0,0],"id":15,"left_children":[1,3,5,7,9,11,13,15,-1,-1,-1,17,19,21,23,-1,-1,25,27,29,31,33,35,37,39,-1,-1,-1,-1,41,43,45,-1,-1,-1,-1,47,49,51,-1,53,-1,-1,-1,-1,-1,-1,-1,-1,-1,-1,-1,-1,-1,-1],"loss_changes":[5.9254004E2,2.225003E1,4.5328796E1,5.6495056E0,7.498169E-2,6.350914E0,1.0512268E1,2.1694946E-1,0E0,0E0,0E0,4.5018625E-1,1.0179772E0,1.4386597E0,6.187668E0,0E0,0E0,2.7494907E-2,2.6243448E-2,2.2184734E-1,6.436455E-2,1.95438E0,1.727295E-2,1.01830125E-1,8.230705E-1,0E0,0E0,0E0,0E0,2.8942168E-2,4.2614132E-2,3.1120837E-2,0E0,0E0,0E0,0E0,4.098816E-1,9.3612075E-2,1.6575867E-1,0E0,2.929306E-1,0E0,0E0,0E0,0E0,0E0,0E0,0E0,0E0,0E0,0E0,0E0,0E0,0E0,0E0],"parents":[2147483647,0,0,1,1,2,2,3,3,4,4,5,5,6,6,7,7,11,11,12,12,13,13,14,14,17,17,18,18,19,19,20,20,21,21,22,22,23,23,24,24,29,29,30,30,31,31,36,36,37,37,38,38,40,40],"right_children":[2,4,6,8,10,12,14,16,-1,-1,-1,18,20,22,24,-1,-1,26,28,30,32,34,36,38,40,-1,-1,-1,-1,42,44,46,-1,-1,-1,-1,48,50,52,-1,54,-1,-1,-1,-1,-1,-1,-1,-1,-1,-1,-1,-1,-1,-1],"split_conditions":[1E2,9E1,1.1E2,8E1,2.5E-1,2E-1,3E-1,7E1,3.6879435E-2,1.9904613E-2,2.4299687E-2,1E-1,3E-1,1.2E2,1.2E2,5.3871173E-2,4.685171E-2,3E-2,2E-2,2.5E-1,4E-1,1.5E-1,2E-1,4E-1,4E-1,-2.9977946E-2,-1.8035738E-2,-1.1545017E-2,-1.7151078E-2,5E-2,2E-2,2E-2,1.0108174E-2,-4.414454E-2,-2.7871126E-2,-4.590033E-2,1.3E2,1E-2,1E-2,-3.6933288E-2,1.3E2,-6.8217306E-3,-2.005059E-3,-1.994902E-3,2.8176128E-3,2.93172E-3,7.250614E-3,-3.3797964E-2,-4.3860562E-2,-3.5535225E-3,-1.3277456E-2,-1.3876184E-2,-3.12184E-3,-1.9861167E-2,-2.9968018E-2],"split_indices":[0,0,0,0,3,3,3,0,0,0,0,3,3,0,0,0,0,2,2,3,3,3,3,3,3,0,0,0,0,2,2,2,0,0,0,0,0,2,2,0,0,0,0,0,0,0,0,0,0,0,0,0,0,0,0],"split_type":[0,0,0,0,0,0,0,0,0,0,0,0,0,0,0,0,0,0,0,0,0,0,0,0,0,0,0,0,0,0,0,0,0,0,0,0,0,0,0,0,0,0,0,0,0,0,0,0,0,0,0,0,0,0,0],"sum_hessian":[1.205E3,5.22E2,6.83E2,3.84E2,1.38E2,1.38E2,5.45E2,2.48E2,1.36E2,7.5E1,6.3E1,5.2E1,8.6E1,3.89E2,1.56E2,1.19E2,1.29E2,1.8E1,3.4E1,4.2E1,4.4E1,9.2E1,2.97E2,3.9E1,1.17E2,1E1,8E0,1.6E1,1.8E1,2.3E1,1.9E1,2.2E1,2.2E1,4E1,5.2E1,1.85E2,1.12E2,1.9E1,2E1,5.8E1,5.9E1,1.8E1,5E0,6E0,1.3E1,9E0,1.3E1,4E1,7.2E1,4E0,1.5E1,4E0,1.6E1,2.1E1,3.8E1],"tree_param":{"num_deleted":"0","num_feature":"4","num_nodes":"55","size_leaf_vector":"1"}},{"base_weights":[-2.3433384E-3,7.573376E-1,-5.816246E-1,8.727566E-1,4.1058585E-1,-1.1937082E-1,-7.060538E-1,9.590071E-1,3.494356E-2,1.7251937E-2,4.408717E-1,-3.3306584E-1,1.343796E-1,-7.808062E-1,-3.1832227E-1,5.126114E-2,4.4503074E-2,1.9051328E-2,2.5008399E-2,-5.2377355E-1,-1.7733617E-1,-1.3450551E-1,2.8758302E-1,-4.5384638E-2,-6.9346976E-1,-6.4169407E-1,1.4474949E-1,-3.0839358E-2,-3.5863623E-1,-2.6973522E-1,4.652855E-2,-2.188868E-1,7.216558E-2,2.0078804E-1,2.1810725E-2,-7.966703E-1,-4.397001E-1,-3.349253E-1,-8.229582E-1,-1.2542199E-1,2.7944866E-1,-2.1538539E-2,-8.931964E-3,-1.8947858E-2,-8.752967E-3,-1.1010235E-3,8.716045E-3,-1.7953908E-2,-5.9433966E-3,-1.195107E-3,5.408592E-3,4.6634553E-3,1.4115892E-2,-2.8328687E-2,-4.3106694E-2,-9.475468E-3,-3.4257658E-2,-3.1209761E-2,-8.880215E-3,-4.415883E-2,-2.6595283E-2,3.648448E-3,-1.845198E-2,1.7573949E-2,6.8127676E-3],"categories":[],"categories_nodes":[],"categories_segments":[],"categories_sizes":[],"default_left":[0,0,0,0,0,0,0,0,0,0,0,0,0,0,0,0,0,0,0,0,0,0,0,0,0,0,0,0,0,0,0,0,0,0,0,0,0,0,0,0,0,0,0,0,0,0,0,0,0,0,0,0,0,0,0,0,0,0,0,0,0,0,0,0,0],"id":16,"left_children":[1,3,5,7,9,11,13,15,-1,-1,17,19,21,23,25,-1,-1,-1,-1,27,29,31,33,-1,35,37,39,-1,41,43,45,47,49,51,-1,53,55,57,59,61,63,-1,-1,-1,-1,-1,-1,-1,-1,-1,-1,-1,-1,-1,-1,-1,-1,-1,-1,-1,-1,-1,-1,-1,-1],"loss_changes":[5.258829E2,2.0332886E1,3.891281E1,5.133911E0,1.0793686E-1,7.9074116E0,1.5228851E1,2.5619507E-1,0E0,0E0,1.14601135E-1,2.2533236E0,2.7986877E0,4.3240967E0,1.327039E1,0E0,0E0,0E0,0E0,3.1639862E-1,9.4337046E-1,4.517754E-1,4.6713328E-1,0E0,6.69458E0,2.6158886E0,1.3815486E0,0E0,1.1780727E-1,2.645619E-1,1.2647918E-1,2.0970917E-1,3.0257855E-2,2.278825E-1,0E0,2.373497E0,4.7829647E0,8.448131E-1,9.108925E-2,6.552383E-1,2.0996559E-1,0E0,0E0,0E0,0E0,0E0,0E0,0E0,0E0,0E0,0E0,0E0,0E0,0E0,0E0,0E0,0E0,0E0,0E0,0E0,0E0,0E0,0E0,0E0,0E0],"parents":[2147483647,0,0,1,1,2,2,3,3,4,4,5,5,6,6,7,7,10,10,11,11,12,12,13,13,14,14,19,19,20,20,21,21,22,22,24,24,25,25,26,26,28,28,29,29,30,30,31,31,32,32,33,33,35,35,36,36,37,37,38,38,39,39,40,40],"right_children":[2,4,6,8,10,12,14,16,-1,-1,18,20,22,24,26,-1,-1,-1,-1,28,30,32,34,-1,36,38,40,-1,42,44,46,48,50,52,-1,54,56,58,60,62,64,-1,-1,-1,-1,-1,-1,-1,-1,-1,-1,-1,-1,-1,-1,-1,-1,-1,-1,-1,-1,-1,-1,-1,-1],"split_conditions":[1E2,9E1,1.1E2,8E1,5E-1,7.5E-1,2E0,7E1,3.494356E-2,1.7251937E-2,2.5E-1,2E-1,2E-1,5E-1,2.5E-1,5.126114E-2,4.4503074E-2,1.9051328E-2,2.5008399E-2,1.5E-1,5E-1,2E0,2E0,-4.5384638E-2,3E-1,1.3E2,3E-1,-3.0839358E-2,5E-1,2.5E-1,4E-1,1E-1,1E-1,3E-1,2.1810725E-2,1.2E2,1.3E2,1.5E-1,2E-1,1.3E2,1.3E2,-2.1538539E-2,-8.931964E-3,-1.8947858E-2,-8.752967E-3,-1.1010235E-3,8.716045E-3,-1.7953908E-2,-5.9433966E-3,-1.195107E-3,5.408592E-3,4.6634553E-3,1.4115892E-2,-2.8328687E-2,-4.3106694E-2,-9.475468E-3,-3.4257658E-2,-3.1209761E-2,-8.880215E-3,-4.415883E-2,-2.6595283E-2,3.648448E-3,-1.845198E-2,1.7573949E-2,6.8127676E-3],"split_indices":[0,0,0,0,1,1,1,0,0,0,3,3,3,1,3,0,0,0,0,3,1,1,1,0,3,0,3,0,1,1,3,3,3,3,0,0,0,3,3,0,0,0,0,0,0,0,0,0,0,0,0,0,0,0,0,0,0,0,0,0,0,0,0,0,0],"split_type":[0,0,0,0,0,0,0,0,0,0,0,0,0,0,0,0,0,0,0,0,0,0,0,0,0,0,0,0,0,0,0,0,0,0,0,0,0,0,0,0,0,0,0,0,0,0,0,0,0,0,0,0,0,0,0,0,0,0,0,0,0,0,0,0,0],"sum_hessian":[1.193E3,5.16E2,6.77E2,3.86E2,1.3E2,1.44E2,5.33E2,2.55E2,1.31E2,4.5E1,8.5E1,7.8E1,6.6E1,4.46E2,8.7E1,1.23E2,1.32E2,4.6E1,3.9E1,3.4E1,4.4E1,2.4E1,4.2E1,1.78E2,2.68E2,5.1E1,3.6E1,2E1,1.4E1,3.1E1,1.3E1,1.7E1,7E0,2.8E1,1.4E1,1.89E2,7.9E1,2E1,3.1E1,1.2E1,2.4E1,9E0,5E0,1.3E1,1.8E1,9E0,4E0,6E0,1.1E1,2E0,5E0,1.3E1,1.5E1,4.4E1,1.45E2,4E1,3.9E1,6E0,1.4E1,2.4E1,7E0,7E0,5E0,1.5E1,9E0],"tree_param":{"num_deleted":"0","num_feature":"4","num_nodes":"65","size_leaf_vector":"1"}},{"base_weights":[-1.9728497E-3,-7.89882E-2,1.5148802E-1,-1.8672276E-1,-4.6329737E-2,2.2962516E-2,3.249759E-1,-1.5161803E-1,-2.9656938E-1,-8.946363E-2,9.276893E-3,-7.0123E-2,1.1505617E-1,1.9622327E-1,4.4139716E-1,-8.175262E-3,-1.76242E-1,-8.330173E-3,-3.1665474E-1,-7.1913086E-2,-1.4530486E-1,8.907383E-2,-3.5260923E-2,-1.7441969E-1,-1.5628489E-3,1.9290248E-1,6.372303E-2,1.2482109E-1,3.248749E-1,1.837937E-2,2.7775556E-2,-6.723768E-2,1.3720754E-2,-2.8447565E-1,-1.4097585E-1,-2.1420972E-2,-2.8580338E-1,-1.0727961E-1,-6.0585877E-3,1.5516464E-2,-2.6539555E-1,3.2853387E-2,2.1353771E-1,-6.5201946E-2,3.0706054E-2,-6.348613E-2,-3.599248E-1,-4.05248E-2,3.967015E-2,1.3647836E-1,2.5357506E-1,1.235235E-1,6.9667194E-3,1.8317543E-2,1.480815E-1,6.186116E-3,1.7166315E-2,2.7129485E-3,-1.41634485E-2,-7.209014E-3,-1.8751325E-2,-1.1600765E-2,-4.9418826E-3,-9.005553E-3,-1.7431984E-2,-1.0567492E-2,-3.9195E-3,7.727281E-4,-4.0789167E-3,3.857603E-3,-6.5789125E-3,-2.6217222E-2,-7.5481893E-3,4.311995E-3,-8.498421E-4,6.257081E-3,1.1749997E-2,-5.059132E-3,-1.1137162E-3,-4.1204388E-4,9.362147E-3,-4.370783E-3,-1.8542156E-3,-2.4942605E-2,-7.063754E-3,4.394421E-3,-6.12553E-3,-1.9357748E-3,3.8605027E-3,5.073577E-3,8.749514E-3,2.0858718E-2,7.0988624E-3,3.2607652E-3,9.07127E-3,-1.1699923E-3,3.7355465E-3,2.3867548E-3,-7.076467E-4,5.0234664E-3,9.277795E-3],"categories":[],"categories_nodes":[],"categories_segments":[],"categories_sizes":[],"default_left":[0,0,0,0,0,0,0,0,0,0,0,0,0,0,0,0,0,0,0,0,0,0,0,0,0,0,0,0,0,0,0,0,0,0,0,0,0,0,0,0,0,0,0,0,0,0,0,0,0,0,0,0,0,0,0,0,0,0,0,0,0,0,0,0,0,0,0,0,0,0,0,0,0,0,0,0,0,0,0,0,0,0,0,0,0,0,0,0,0,0,0,0,0,0,0,0,0,0,0,0,0],"id":17,"left_children":[1,3,5,7,9,11,13,15,17,19,21,23,25,27,29,31,33,-1,35,37,39,41,43,45,47,49,51,53,55,-1,-1,57,-1,59,61,-1,63,65,67,69,71,73,75,77,79,81,83,85,87,89,91,93,95,97,99,-1,-1,-1,-1,-1,-1,-1,-1,-1,-1,-1,-1,-1,-1,-1,-1,-1,-1,-1,-1,-1,-1,-1,-1,-1,-1,-1,-1,-1,-1,-1,-1,-1,-1,-1,-1,-1,-1,-1,-1,-1,-1,-1,-1,-1,-1],"loss_changes":[1.4218215E1,2.8096232E0,8.956181E0,6.7227554E-1,1.4783247E0,1.9969077E0,2.4765987E0,5.036535E-1,6.2102556E-2,3.2962608E-1,9.6271574E-1,8.2919675E-1,4.552511E-1,7.2188735E-1,5.454235E-1,3.8564137E-1,4.255681E-1,0E0,5.135536E-3,6.188761E-1,1.5877957E0,6.717338E-1,3.456728E-1,9.23772E-1,1.156704E-1,1.2286866E-1,2.4351132E-1,1.3353986E-1,6.515741E-2,0E0,0E0,5.140643E-1,0E0,3.143406E-1,3.3767462E-1,0E0,1.4972806E-1,5.0356495E-1,1.539795E-1,3.3653727E-1,1.313546E0,1.8243626E-1,2.7506948E-2,1.8309408E-1,3.368578E-1,1.5711747E-2,4.4592357E-1,4.003055E-1,1.05979845E-1,1.7296076E-2,3.241744E-1,1.0633373E-1,7.992027E-2,1.1182813E-2,6.164813E-2,0E0,0E0,0E0,0E0,0E0,0E0,0E0,0E0,0E0,0E0,0E0,0E0,0E0,0E0,0E0,0E0,0E0,0E0,0E0,0E0,0E0,0E0,0E0,0E0,0E0,0E0,0E0,0E0,0E0,0E0,0E0,0E0,0E0,0E0,0E0,0E0,0E0,0E0,0E0,0E0,0E0,0E0,0E0,0E0,0E0,0E0],"parents":[2147483647,0,0,1,1,2,2,3,3,4,4,5,5,6,6,7,7,8,8,9,9,10,10,11,11,12,12,13,13,14,14,15,15,16,16,18,18,19,19,20,20,21,21,22,22,23,23,24,24,25,25,26,26,27,27,28,28,31,31,33,33,34,34,36,36,37,37,38,38,39,39,40,40,41,41,42,42,43,43,44,44,45,45,46,46,47,47,48,48,49,49,50,50,51,51,52,52,53,53,54,54],"right_children":[2,4,6,8,10,12,14,16,18,20,22,24,26,28,30,32,34,-1,36,38,40,42,44,46,48,50,52,54,56,-1,-1,58,-1,60,62,-1,64,66,68,70,72,74,76,78,80,82,84,86,88,90,92,94,96,98,100,-1,-1,-1,-1,-1,-1,-1,-1,-1,-1,-1,-1,-1,-1,-1,-1,-1,-1,-1,-1,-1,-1,-1,-1,-1,-1,-1,-1,-1,-1,-1,-1,-1,-1,-1,-1,-1,-1,-1,-1,-1,-1,-1,-1,-1,-1],"split_conditions":[1E0,2.5E-1,2.5E-1,5E-2,2.5E-1,1.5E-1,2E0,1E-1,1E-1,2E-1,3E-1,2E-2,2E-2,4E-1,4E-1,3E-2,1E-2,-8.330173E-3,1.5E-1,1.5E-1,2E-2,7.5E-1,7.5E-1,1E-2,2E0,1E-2,2E-1,1E-2,1E-2,1.837937E-2,2.7775556E-2,2E-2,1.3720754E-2,2E-1,2E-1,-2.1420972E-2,2.5E-1,1E-2,5E-2,7.5E-1,3E-2,5E-1,1E-2,4E-1,5E-2,1E-1,1E-1,3E-2,3E-2,2E-1,2E0,2E0,5E-2,3E-1,3E-1,6.186116E-3,1.7166315E-2,2.7129485E-3,-1.41634485E-2,-7.209014E-3,-1.8751325E-2,-1.1600765E-2,-4.9418826E-3,-9.005553E-3,-1.7431984E-2,-1.0567492E-2,-3.9195E-3,7.727281E-4,-4.0789167E-3,3.857603E-3,-6.5789125E-3,-2.6217222E-2,-7.5481893E-3,4.311995E-3,-8.498421E-4,6.257081E-3,1.1749997E-2,-5.059132E-3,-1.1137162E-3,-4.1204388E-4,9.362147E-3,-4.370783E-3,-1.8542156E-3,-2.4942605E-2,-7.063754E-3,4.394421E-3,-6.12553E-3,-1.9357748E-3,3.8605027E-3,5.073577E-3,8.749514E-3,2.0858718E-2,7.0988624E-3,3.2607652E-3,9.07127E-3,-1.1699923E-3,3.7355465E-3,2.3867548E-3,-7.076467E-4,5.0234664E-3,9.277795E-3],"split_indices":[1,1,3,2,3,3,1,3,3,3,3,2,2,3,3,2,2,0,3,3,2,1,1,2,1,2,3,2,2,0,0,2,0,3,3,0,3,2,2,1,2,1,2,3,2,3,3,2,2,3,1,1,2,3,3,0,0,0,0,0,0,0,0,0,0,0,0,0,0,0,0,0,0,0,0,0,0,0,0,0,0,0,0,0,0,0,0,0,0,0,0,0,0,0,0,0,0,0,0,0,0],"split_type":[0,0,0,0,0,0,0,0,0,0,0,0,0,0,0,0,0,0,0,0,0,0,0,0,0,0,0,0,0,0,0,0,0,0,0,0,0,0,0,0,0,0,0,0,0,0,0,0,0,0,0,0,0,0,0,0,0,0,0,0,0,0,0,0,0,0,0,0,0,0,0,0,0,0,0,0,0,0,0,0,0,0,0,0,0,0,0,0,0,0,0,0,0,0,0,0,0,0,0,0,0],"sum_hessian":[1.201E3,8E2,4.01E2,1.85E2,6.15E2,2.31E2,1.7E2,1.42E2,4.3E1,3.46E2,2.69E2,1.15E2,1.16E2,8.2E1,8.8E1,2.1E1,1.21E2,7E0,3.6E1,2.65E2,8.1E1,9.6E1,1.73E2,4.5E1,7E1,4.5E1,7.1E1,5.4E1,2.8E1,5.6E1,3.2E1,1.8E1,3E0,2.8E1,9.3E1,5E0,3.1E1,1.72E2,9.3E1,3.5E1,4.6E1,6.7E1,2.9E1,1.19E2,5.4E1,2.9E1,1.6E1,3.6E1,3.4E1,2.5E1,2E1,3.4E1,3.7E1,1E1,4.4E1,3E0,2.5E1,1.2E1,6E0,1.2E1,1.6E1,2.8E1,6.5E1,1.3E1,1.8E1,3.6E1,1.36E2,7.3E1,2E1,2.5E1,1E1,1.3E1,3.3E1,3.2E1,3.5E1,7E0,2.2E1,6.4E1,5.5E1,4.4E1,1E1,1.4E1,1.5E1,9E0,7E0,1.4E1,2.2E1,1.1E1,2.3E1,1.5E1,1E1,7E0,1.3E1,1.8E1,1.6E1,2.6E1,1.1E1,5E0,5E0,2.1E1,2.3E1],"tree_param":{"num_deleted":"0","num_feature":"4","num_nodes":"101","size_leaf_vector":"1"}},{"base_weights":[-2.1103816E-3,7.2368616E-1,-5.636725E-1,9.113777E-1,5.436564E-1,-9.665866E-2,-6.823873E-1,4.8688136E-2,4.227119E-2,3.3395227E-2,4.038767E-1,-4.0380615E-1,6.290841E-2,-7.436081E-1,-3.462802E-1,1.8870054E-2,2.5051868E-2,-2.4407713E-2,-1.5333988E-2,-3.3844016E-3,2.9035923E-1,-4.250068E-2,-6.724231E-1,-1.3858105E-1,-2.8028509E-2,-9.646119E-2,5.0157253E-2,1.0013389E-2,1.7061941E-2,-4.228271E-1,-7.411543E-1,3.089523E-2,-2.753979E-1,-6.260918E-3,-3.040697E-3,-1.3285413E-3,4.9348907E-3,-2.6342822E-2,-1.7913412E-2,-3.244998E-2,-3.927966E-2,6.8332725E-3,-1.0261944E-3,-1.5746213E-2,-9.823104E-3],"categories":[],"categories_nodes":[],"categories_segments":[],"categories_sizes":[],"default_left":[0,0,0,0,0,0,0,0,0,0,0,0,0,0,0,0,0,0,0,0,0,0,0,0,0,0,0,0,0,0,0,0,0,0,0,0,0,0,0,0,0,0,0,0,0],"id":18,"left_children":[1,3,5,7,9,11,13,-1,-1,-1,15,17,19,21,23,-1,-1,-1,-1,25,27,-1,29,31,-1,33,35,-1,-1,37,39,41,43,-1,-1,-1,-1,-1,-1,-1,-1,-1,-1,-1,-1],"loss_changes":[4.9520987E2,1.7413239E1,3.7911423E1,2.3831177E-1,4.4715424E0,6.88689E0,1.0977432E1,0E0,0E0,0E0,1.47892E-1,2.435298E-1,1.4032695E0,2.9202728E0,3.7499914E0,0E0,0E0,0E0,0E0,3.6863264E-1,2.7920961E-2,0E0,4.5071793E0,1.0519328E0,0E0,2.0063072E-2,1.776704E-1,0E0,0E0,2.3435211E-1,3.8700867E-1,1.1701575E-1,1.6130567E-2,0E0,0E0,0E0,0E0,0E0,0E0,0E0,0E0,0E0,0E0,0E0,0E0],"parents":[2147483647,0,0,1,1,2,2,3,3,4,4,5,5,6,6,10,10,11,11,12,12,13,13,14,14,19,19,20,20,22,22,23,23,25,25,26,26,29,29,30,30,31,31,32,32],"right_children":[2,4,6,8,10,12,14,-1,-1,-1,16,18,20,22,24,-1,-1,-1,-1,26,28,-1,30,32,-1,34,36,-1,-1,38,40,42,44,-1,-1,-1,-1,-1,-1,-1,-1,-1,-1,-1,-1],"split_conditions":[1E2,8E1,1.1E2,7E1,9E1,5E-1,2E0,4.8688136E-2,4.227119E-2,3.3395227E-2,2E0,2.5E-1,2E0,5E-1,1.3E2,1.8870054E-2,2.5051868E-2,-2.4407713E-2,-1.5333988E-2,7.5E-1,2E-2,-4.250068E-2,1.2E2,1.2E2,-2.8028509E-2,3E-2,2E-2,1.0013389E-2,1.7061941E-2,7.5E-1,1.3E2,2E-2,3E-2,-6.260918E-3,-3.040697E-3,-1.3285413E-3,4.9348907E-3,-2.6342822E-2,-1.7913412E-2,-3.244998E-2,-3.927966E-2,6.8332725E-3,-1.0261944E-3,-1.5746213E-2,-9.823104E-3],"split_indices":[0,0,0,0,0,1,1,0,0,0,1,1,1,1,0,0,0,0,0,1,2,0,0,0,0,2,2,0,0,1,0,2,2,0,0,0,0,0,0,0,0,0,0,0,0],"split_type":[0,0,0,0,0,0,0,0,0,0,0,0,0,0,0,0,0,0,0,0,0,0,0,0,0,0,0,0,0,0,0,0,0,0,0,0,0,0,0,0,0,0,0,0,0],"sum_hessian":[1.213E3,5.29E2,6.84E2,2.57E2,2.72E2,1.39E2,5.45E2,1.25E2,1.32E2,1.42E2,1.3E2,4.7E1,9.2E1,4.6E2,8.5E1,1.06E2,2.4E1,2.3E1,2.4E1,7.2E1,2E1,1.8E2,2.8E2,4.4E1,4.1E1,2.6E1,4.6E1,9E0,1.1E1,6.2E1,2.18E2,2E1,2.4E1,1.3E1,1.3E1,1.8E1,2.8E1,2.1E1,4.1E1,7.6E1,1.42E2,6E0,1.4E1,1.4E1,1E1],"tree_param":{"num_deleted":"0","num_feature":"4","num_nodes":"45","size_leaf_vector":"1"}},{"base_weights":[-3.3505072E-3,6.8229836E-1,-5.4099095E-1,7.904561E-1,3.8103878E-1,-1.19439445E-1,-6.4790565E-1,8.643046E-1,3.1659834E-2,1.764389E-2,2.1819053E-2,-3.1853864E-1,4.0350154E-2,-3.802407E-2,-5.036801E-1,4.6344366E-2,4.011268E-2,-2.4163349E-2,-2.3451294E-1,-1.4679168E-2,2.0066915E-1,-3.3932722E-1,-6.749658E-1,-2.8124708E-1,-9.082321E-3,-4.4755086E-2,5.0994087E-2,4.2838715E-3,1.1203112E-2,-2.1479887E-1,-4.4739348E-1,-3.6512487E-2,-5.2457935E-1,-1.6199064E-2,-6.0207373E-3,-4.5098634E-3,-6.0321036E-4,8.352167E-3,4.4557016E-4,-1.3720117E-2,-3.0239813E-3,-2.625559E-2,-1.3963151E-2,-2.8590119E-2,-1.623118E-2],"categories":[],"categories_nodes":[],"categories_segments":[],"categories_sizes":[],"default_left":[0,0,0,0,0,0,0,0,0,0,0,0,0,0,0,0,0,0,0,0,0,0,0,0,0,0,0,0,0,0,0,0,0,0,0,0,0,0,0,0,0,0,0,0,0],"id":19,"left_children":[1,3,5,7,9,11,13,15,-1,-1,-1,17,19,-1,21,-1,-1,-1,23,25,27,29,31,33,-1,35,37,-1,-1,39,41,-1,43,-1,-1,-1,-1,-1,-1,-1,-1,-1,-1,-1,-1],"loss_changes":[4.4788907E2,1.709842E1,3.0615326E1,4.0051727E0,6.8878174E-2,4.4349957E0,8.433273E0,2.815857E-1,0E0,0E0,0E0,7.4483585E-1,6.9108075E-1,0E0,6.5554276E0,0E0,0E0,0E0,5.5151224E-2,1.1881808E-1,3.4603238E-2,1.5860643E0,5.8965683E-1,1.05321765E-1,0E0,5.981917E-2,9.1301024E-2,0E0,0E0,5.352819E-1,7.1576595E-1,0E0,1.448679E-1,0E0,0E0,0E0,0E0,0E0,0E0,0E0,0E0,0E0,0E0,0E0,0E0],"parents":[2147483647,0,0,1,1,2,2,3,3,4,4,5,5,6,6,7,7,11,11,12,12,14,14,18,18,19,19,20,20,21,21,22,22,23,23,25,25,26,26,29,29,30,30,32,32],"right_children":[2,4,6,8,10,12,14,16,-1,-1,-1,18,20,-1,22,-1,-1,-1,24,26,28,30,32,34,-1,36,38,-1,-1,40,42,-1,44,-1,-1,-1,-1,-1,-1,-1,-1,-1,-1,-1,-1],"split_conditions":[1E2,9E1,1.1E2,8E1,3E-1,2E-1,2.5E-1,7E1,3.1659834E-2,1.764389E-2,2.1819053E-2,1E-1,4E-1,-3.802407E-2,1.3E2,4.6344366E-2,4.011268E-2,-2.4163349E-2,1.5E-1,3E-1,1E-2,1.2E2,4E-1,5E-2,-9.082321E-3,2E-2,1E-2,4.2838715E-3,1.1203112E-2,4E-1,4E-1,-3.6512487E-2,5E-2,-1.6199064E-2,-6.0207373E-3,-4.5098634E-3,-6.0321036E-4,8.352167E-3,4.4557016E-4,-1.3720117E-2,-3.0239813E-3,-2.625559E-2,-1.3963151E-2,-2.8590119E-2,-1.623118E-2],"split_indices":[0,0,0,0,3,3,3,0,0,0,0,3,3,0,0,0,0,0,3,3,2,0,3,2,0,2,2,0,0,3,3,0,2,0,0,0,0,0,0,0,0,0,0,0,0],"split_type":[0,0,0,0,0,0,0,0,0,0,0,0,0,0,0,0,0,0,0,0,0,0,0,0,0,0,0,0,0,0,0,0,0,0,0,0,0,0,0,0,0,0,0,0,0],"sum_hessian":[1.213E3,5.33E2,6.8E2,3.91E2,1.42E2,1.38E2,5.42E2,2.63E2,1.28E2,9.9E1,4.3E1,6.1E1,7.7E1,3.02E2,2.4E2,1.24E2,1.39E2,1.9E1,4.2E1,5.8E1,1.9E1,1.24E2,1.16E2,2E1,2.2E1,4E1,1.8E1,4E0,1.5E1,5.9E1,6.5E1,8.2E1,3.4E1,1.5E1,5E0,1.6E1,2.4E1,4E0,1.4E1,4.2E1,1.7E1,4.3E1,2.2E1,2.6E1,8E0],"tree_param":{"num_deleted":"0","num_feature":"4","num_nodes":"45","size_leaf_vector":"1"}},{"base_weights":[-1.02059785E-2,6.488214E-1,-5.1293516E-1,8.261647E-1,4.8005062E-1,-1.1234652E-1,-6.146757E-1,4.411503E-2,3.8043577E-2,3.0016515E-2,3.6063156E-1,-3.827402E-1,4.1705854E-2,-6.7262286E-1,-3.1770757E-1,1.489753E-2,1.9299624E-2,-2.2590939E-2,-1.48142E-2,-2.6663275E-2,1.3706415E-2,-7.451136E-1,-5.624373E-1,-1.13624066E-1,-2.493237E-2,-1.11219965E-1,2.3547461E-2,-3.9079256E-2,-6.7014986E-1,-1.6685631E-2,-6.2954193E-1,-9.023332E-3,-6.659583E-2,-7.6924968E-3,-2.6738085E-3,-7.6011656E-4,5.2321926E-3,-2.3207849E-2,-3.6183607E-2,-2.601693E-2,-3.4250345E-2,3.796663E-4,-7.639141E-3],"categories":[],"categories_nodes":[],"categories_segments":[],"categories_sizes":[],"default_left":[0,0,0,0,0,0,0,0,0,0,0,0,0,0,0,0,0,0,0,0,0,0,0,0,0,0,0,0,0,0,0,0,0,0,0,0,0,0,0,0,0,0,0],"id":20,"left_children":[1,3,5,7,9,11,13,-1,-1,-1,15,17,19,21,23,-1,-1,-1,-1,25,-1,27,29,31,-1,33,35,-1,37,-1,39,-1,41,-1,-1,-1,-1,-1,-1,-1,-1,-1,-1],"loss_changes":[4.0884085E2,1.5586212E1,2.846022E1,2.7799988E-1,3.7478714E0,5.972597E0,9.388626E0,0E0,0E0,0E0,1.09134674E-1,1.7669201E-1,1.4692372E0,3.3030548E0,3.3775368E0,0E0,0E0,0E0,0E0,3.0830604E-1,0E0,2.3628235E-1,2.6907768E0,1.2943864E-1,0E0,5.823633E-2,1.4614439E-1,0E0,7.445717E-1,0E0,5.2182007E-1,0E0,1.8019602E-1,0E0,0E0,0E0,0E0,0E0,0E0,0E0,0E0,0E0,0E0],"parents":[2147483647,0,0,1,1,2,2,3,3,4,4,5,5,6,6,10,10,11,11,12,12,13,13,14,14,19,19,21,21,22,22,23,23,25,25,26,26,28,28,30,30,32,32],"right_children":[2,4,6,8,10,12,14,-1,-1,-1,16,18,20,22,24,-1,-1,-1,-1,26,-1,28,30,32,-1,34,36,-1,38,-1,40,-1,42,-1,-1,-1,-1,-1,-1,-1,-1,-1,-1],"split_conditions":[1E2,8E1,1.1E2,7E1,9E1,5E-1,2E0,4.411503E-2,3.8043577E-2,3.0016515E-2,5E-1,2.5E-1,2E0,7.5E-1,1.3E2,1.489753E-2,1.9299624E-2,-2.2590939E-2,-1.48142E-2,7.5E-1,1.3706415E-2,5E-1,1.2E2,2E-2,-2.493237E-2,3E-2,3E-2,-3.9079256E-2,1.2E2,-1.6685631E-2,1.3E2,-9.023332E-3,1.2E2,-7.6924968E-3,-2.6738085E-3,-7.6011656E-4,5.2321926E-3,-2.3207849E-2,-3.6183607E-2,-2.601693E-2,-3.4250345E-2,3.796663E-4,-7.639141E-3],"split_indices":[0,0,0,0,0,1,1,0,0,0,1,1,1,1,0,0,0,0,0,1,0,1,0,2,0,2,2,0,0,0,0,0,0,0,0,0,0,0,0,0,0,0,0],"split_type":[0,0,0,0,0,0,0,0,0,0,0,0,0,0,0,0,0,0,0,0,0,0,0,0,0,0,0,0,0,0,0,0,0,0,0,0,0,0,0,0,0,0,0],"sum_hessian":[1.232E3,5.33E2,6.99E2,2.58E2,2.75E2,1.42E2,5.57E2,1.32E2,1.26E2,1.35E2,1.4E2,5.1E1,9.1E1,4.65E2,9.2E1,4.4E1,9.6E1,2.6E1,2.5E1,7.1E1,2E1,2.77E2,1.88E2,4.4E1,4.8E1,2.6E1,4.5E1,1.8E2,9.7E1,4.4E1,1.44E2,1.7E1,2.7E1,1.4E1,1.2E1,3.1E1,1.4E1,2.2E1,7.5E1,5.2E1,9.2E1,1.5E1,1.2E1],"tree_param":{"num_deleted":"0","num_feature":"4","num_nodes":"43","size_leaf_vector":"1"}},{"base_weights":[-1.4094957E-4,6.1910486E-1,-4.8107326E-1,7.833067E-1,4.6045443E-1,-1.0250335E-1,-5.8521825E-1,4.1958373E-2,3.6392078E-2,2.863795E-2,3.414116E-1,-3.0978543E-1,4.877566E-2,-6.6152436E-1,-3.9289272E-1,3.1613997E-1,1.988006E-2,-4.6074915E-1,-2.1754272E-1,-7.071713E-2,8.7867565E-2,-3.5331056E-2,-5.8263016E-1,-2.7036214E-1,-5.268262E-1,1.3101858E-2,1.7039388E-2,-2.4439465E-2,-1.3102342E-2,-2.5396654E-1,-8.899755E-3,-5.1253084E-3,-3.5684094E-2,5.6377158E-2,7.0313364E-3,-4.7077325E-1,-3.417953E-2,-3.7742826E-1,-1.4583036E-1,-2.9984305E-2,-4.3528453E-1,-1.4764549E-2,-5.760755E-3,-2.3923262E-3,-7.773623E-4,1.5680246E-3,3.5020176E-3,-1.7708857E-2,-2.626284E-2,-1.4836229E-2,-2.2971822E-2,-1.0294778E-3,-1.1423318E-2,-2.324575E-2,-1.2305669E-2],"categories":[],"categories_nodes":[],"categories_segments":[],"categories_sizes":[],"default_left":[0,0,0,0,0,0,0,0,0,0,0,0,0,0,0,0,0,0,0,0,0,0,0,0,0,0,0,0,0,0,0,0,0,0,0,0,0,0,0,0,0,0,0,0,0,0,0,0,0,0,0,0,0,0,0],"id":21,"left_children":[1,3,5,7,9,11,13,-1,-1,-1,15,17,19,21,23,25,-1,27,29,31,33,-1,35,37,39,-1,-1,-1,-1,41,-1,-1,43,45,-1,47,-1,49,51,-1,53,-1,-1,-1,-1,-1,-1,-1,-1,-1,-1,-1,-1,-1,-1],"loss_changes":[3.6244128E2,1.3498291E1,2.694693E1,1.9477844E-1,3.4542007E0,4.687367E0,7.62088E0,0E0,0E0,0E0,6.6002846E-2,7.77061E-1,4.1260824E-1,9.509735E-1,2.4012642E0,4.1384697E-2,0E0,6.246567E-5,1.3854623E-2,2.0842828E-2,1.017248E-1,0E0,1.3156853E0,1.051609E0,2.2585487E-1,0E0,0E0,0E0,0E0,7.4920654E-2,0E0,0E0,2.1950752E-3,1.2501225E-2,0E0,2.713518E-1,0E0,1.5488243E-1,4.0927184E-1,0E0,8.7366104E-2,0E0,0E0,0E0,0E0,0E0,0E0,0E0,0E0,0E0,0E0,0E0,0E0,0E0,0E0],"parents":[2147483647,0,0,1,1,2,2,3,3,4,4,5,5,6,6,10,10,11,11,12,12,13,13,14,14,15,15,17,17,18,18,19,19,20,20,22,22,23,23,24,24,29,29,32,32,33,33,35,35,37,37,38,38,40,40],"right_children":[2,4,6,8,10,12,14,-1,-1,-1,16,18,20,22,24,26,-1,28,30,32,34,-1,36,38,40,-1,-1,-1,-1,42,-1,-1,44,46,-1,48,-1,50,52,-1,54,-1,-1,-1,-1,-1,-1,-1,-1,-1,-1,-1,-1,-1,-1],"split_conditions":[1E2,8E1,1.1E2,7E1,9E1,2E-1,3E-1,4.1958373E-2,3.6392078E-2,2.863795E-2,3E-1,1E-1,2.5E-1,2E-1,1.3E2,2E-2,1.988006E-2,5E-2,1.5E-1,2E-2,4E-1,-3.5331056E-2,1.3E2,4E-1,4E-1,1.3101858E-2,1.7039388E-2,-2.4439465E-2,-1.3102342E-2,5E-2,-8.899755E-3,-5.1253084E-3,5E-2,2E-2,7.0313364E-3,1.2E2,-3.417953E-2,1.2E2,1.2E2,-2.9984305E-2,5E-2,-1.4764549E-2,-5.760755E-3,-2.3923262E-3,-7.773623E-4,1.5680246E-3,3.5020176E-3,-1.7708857E-2,-2.626284E-2,-1.4836229E-2,-2.2971822E-2,-1.0294778E-3,-1.1423318E-2,-2.324575E-2,-1.2305669E-2],"split_indices":[0,0,0,0,0,3,3,0,0,0,3,3,3,3,0,2,0,2,3,2,3,0,0,3,3,0,0,0,0,2,0,0,2,2,0,0,0,0,0,0,2,0,0,0,0,0,0,0,0,0,0,0,0,0,0],"split_type":[0,0,0,0,0,0,0,0,0,0,0,0,0,0,0,0,0,0,0,0,0,0,0,0,0,0,0,0,0,0,0,0,0,0,0,0,0,0,0,0,0,0,0,0,0,0,0,0,0,0,0,0,0,0,0],"sum_hessian":[1.215E3,5.31E2,6.84E2,2.59E2,2.72E2,1.48E2,5.36E2,1.22E2,1.37E2,1.38E2,1.34E2,6.2E1,8.6E1,3.82E2,1.54E2,9.7E1,3.7E1,2.2E1,4E1,2.1E1,6.5E1,2.38E2,1.44E2,8.2E1,7.2E1,3.4E1,6.3E1,1.8E1,4E0,1.8E1,2.2E1,1E1,1.1E1,4.2E1,2.3E1,7.1E1,7.3E1,4.3E1,3.9E1,3.7E1,3.5E1,1.3E1,5E0,6E0,5E0,1.6E1,2.6E1,2.5E1,4.6E1,2.4E1,1.9E1,1.6E1,2.3E1,2.9E1,6E0],"tree_param":{"num_deleted":"0","num_feature":"4","num_nodes":"55","size_leaf_vector":"1"}},{"base_weights":[-9.181813E-3,5.892351E-1,-4.595233E-1,7.410219E-1,4.3868962E-1,-8.796259E-2,-5.5500287E-1,3.972982E-2,3.4335475E-2,2.7184725E-2,3.269761E-1,-3.5303274E-1,6.322119E-2,-6.1252844E-1,-2.5257018E-1,1.5246271E-2,2.0719225E-2,-2.1257885E-2,-1.3050824E-2,-5.9406377E-2,1.9277287E-1,-6.792695E-1,-5.103461E-1,-9.499711E-2,-4.1526303E-1,-1.6046013E-1,3.206086E-3,1.0906052E-1,1.3223206E-2,-3.5571452E-2,-6.1006707E-1,-1.3695118E-2,-5.766862E-1,-1.1488103E-2,-5.1180117E-2,-2.2374988E-2,-1.47346575E-2,-1.21140415E-2,-5.517682E-3,-2.1786157E-3,2.6444653E-3,2.0168729E-3,7.6767574E-3,-2.3214241E-2,-3.2306924E-2,-2.651318E-2,-3.324845E-2,1.3898235E-5,-5.132682E-3],"categories":[],"categories_nodes":[],"categories_segments":[],"categories_sizes":[],"default_left":[0,0,0,0,0,0,0,0,0,0,0,0,0,0,0,0,0,0,0,0,0,0,0,0,0,0,0,0,0,0,0,0,0,0,0,0,0,0,0,0,0,0,0,0,0,0,0,0,0],"id":22,"left_children":[1,3,5,7,9,11,13,-1,-1,-1,15,17,19,21,23,-1,-1,-1,-1,25,27,29,31,33,35,37,39,41,-1,-1,43,-1,45,-1,47,-1,-1,-1,-1,-1,-1,-1,-1,-1,-1,-1,-1,-1,-1],"loss_changes":[3.2069672E2,1.1351669E1,2.4039703E1,1.9052124E-1,2.8604164E0,5.632722E0,9.23999E0,0E0,0E0,0E0,1.203537E-1,2.274971E-1,1.4412465E0,2.7426758E0,2.2165203E0,0E0,0E0,0E0,0E0,2.9789397E-1,2.3522103E-1,1.6910553E-1,2.7125282E0,2.598705E-1,3.5256386E-2,4.705894E-2,7.202756E-2,6.10483E-2,0E0,0E0,1.8905258E-1,0E0,2.2935104E-1,0E0,9.538277E-2,0E0,0E0,0E0,0E0,0E0,0E0,0E0,0E0,0E0,0E0,0E0,0E0,0E0,0E0],"parents":[2147483647,0,0,1,1,2,2,3,3,4,4,5,5,6,6,10,10,11,11,12,12,13,13,14,14,19,19,20,20,21,21,22,22,23,23,24,24,25,25,26,26,27,27,30,30,32,32,34,34],"right_children":[2,4,6,8,10,12,14,-1,-1,-1,16,18,20,22,24,-1,-1,-1,-1,26,28,30,32,34,36,38,40,42,-1,-1,44,-1,46,-1,48,-1,-1,-1,-1,-1,-1,-1,-1,-1,-1,-1,-1,-1,-1],"split_conditions":[1E2,8E1,1.1E2,7E1,9E1,5E-1,2E0,3.972982E-2,3.4335475E-2,2.7184725E-2,2E0,2.5E-1,1E0,7.5E-1,1.3E2,1.5246271E-2,2.0719225E-2,-2.1257885E-2,-1.3050824E-2,2E-2,2E0,5E-1,1.2E2,1E-2,5E-2,1E-2,7.5E-1,2E-2,1.3223206E-2,-3.5571452E-2,1.2E2,-1.3695118E-2,1.4E2,-1.1488103E-2,1.2E2,-2.2374988E-2,-1.47346575E-2,-1.21140415E-2,-5.517682E-3,-2.1786157E-3,2.6444653E-3,2.0168729E-3,7.6767574E-3,-2.3214241E-2,-3.2306924E-2,-2.651318E-2,-3.324845E-2,1.3898235E-5,-5.132682E-3],"split_indices":[0,0,0,0,0,1,1,0,0,0,1,1,1,1,0,0,0,0,0,2,1,1,0,2,2,2,1,2,0,0,0,0,0,0,0,0,0,0,0,0,0,0,0,0,0,0,0,0,0],"split_type":[0,0,0,0,0,0,0,0,0,0,0,0,0,0,0,0,0,0,0,0,0,0,0,0,0,0,0,0,0,0,0,0,0,0,0,0,0,0,0,0,0,0,0,0,0,0,0,0,0],"sum_hessian":[1.188E3,5.1E2,6.78E2,2.52E2,2.58E2,1.39E2,5.39E2,1.2E2,1.32E2,1.31E2,1.27E2,5E1,8.9E1,4.52E2,8.7E1,1.05E2,2.2E1,2.6E1,2.4E1,4.6E1,4.3E1,2.7E2,1.82E2,4.5E1,4.2E1,1.7E1,2.9E1,2.1E1,2.2E1,1.78E2,9.2E1,4.1E1,1.41E2,1E1,3.5E1,3.1E1,1.1E1,5E0,1.2E1,1.5E1,1.4E1,9E0,1.2E1,2.1E1,7.1E1,9.7E1,4.4E1,1.8E1,1.7E1],"tree_param":{"num_deleted":"0","num_feature":"4","num_nodes":"49","size_leaf_vector":"1"}},{"base_weights":[-3.901224E-4,5.6147975E-1,-4.426778E-1,7.104536E-1,4.174704E-1,-8.831729E-2,-5.3256404E-1,3.792998E-2,3.2585092E-2,2.57246E-2,3.1009296E-1,-3.284515E-1,5.2978184E-2,-6.02325E-1,-3.554361E-1,1.3926133E-2,1.8521365E-2,-4.414819E-1,-1.6674007E-1,-1.3975486E-1,1.9280276E-1,-3.2475065E-2,-5.2047807E-1,-5.3440315E-1,3.824156E-2,-2.673983E-2,-1.6320338E-2,-1.3444531E-2,-8.186541E-2,-2.0739444E-1,1.0123869E-1,1.3718258E-1,1.6698651E-2,-5.869267E-1,-1.8610631E-1,-7.0299554E-1,-3.652996E-1,-1.2631431E-1,2.3690777E-1,-6.567658E-3,1.6741585E-3,-1.5550509E-2,-7.0018023E-3,-1.0336419E-3,6.9511905E-3,2.5678338E-3,1.0415105E-2,-3.3219334E-2,-2.4119372E-2,2.9933543E-3,-2.1834245E-2,-2.5383431E-2,-3.738911E-2,-9.276664E-3,-2.6921991E-2,3.7900805E-3,-1.5326745E-2,1.6640428E-2,-1.4919034E-3],"categories":[],"categories_nodes":[],"categories_segments":[],"categories_sizes":[],"default_left":[0,0,0,0,0,0,0,0,0,0,0,0,0,0,0,0,0,0,0,0,0,0,0,0,0,0,0,0,0,0,0,0,0,0,0,0,0,0,0,0,0,0,0,0,0,0,0,0,0,0,0,0,0,0,0,0,0,0,0],"id":23,"left_children":[1,3,5,7,9,11,13,-1,-1,-1,15,17,19,21,23,-1,-1,25,27,29,31,-1,33,35,37,-1,-1,-1,39,41,43,45,-1,47,49,51,53,55,57,-1,-1,-1,-1,-1,-1,-1,-1,-1,-1,-1,-1,-1,-1,-1,-1,-1,-1,-1,-1],"loss_changes":[3.04671E2,1.1288376E1,2.1803528E1,2.5239563E-1,2.7262268E0,4.767584E0,6.544983E0,0E0,0E0,0E0,1.5206718E-1,8.7686014E-1,2.4253898E0,1.1716919E0,1.1081924E1,0E0,0E0,1.4758444E-1,1.7739707E-1,6.404229E-1,3.624841E-1,0E0,3.1791153E0,2.8222313E0,1.6645094E0,0E0,0E0,0E0,8.431489E-2,1.6582906E-1,4.4331998E-2,2.2735429E-1,0E0,6.755142E-1,1.62867E0,8.401871E-2,1.6430883E0,1.0431484E0,5.982964E-1,0E0,0E0,0E0,0E0,0E0,0E0,0E0,0E0,0E0,0E0,0E0,0E0,0E0,0E0,0E0,0E0,0E0,0E0,0E0,0E0],"parents":[2147483647,0,0,1,1,2,2,3,3,4,4,5,5,6,6,10,10,11,11,12,12,13,13,14,14,17,17,18,18,19,19,20,20,22,22,23,23,24,24,28,28,29,29,30,30,31,31,33,33,34,34,35,35,36,36,37,37,38,38],"right_children":[2,4,6,8,10,12,14,-1,-1,-1,16,18,20,22,24,-1,-1,26,28,30,32,-1,34,36,38,-1,-1,-1,40,42,44,46,-1,48,50,52,54,56,58,-1,-1,-1,-1,-1,-1,-1,-1,-1,-1,-1,-1,-1,-1,-1,-1,-1,-1,-1,-1],"split_conditions":[1E2,8E1,1.1E2,7E1,9E1,5E-1,3E-1,3.792998E-2,3.2585092E-2,2.57246E-2,1E0,2.5E-1,2E-1,2E-1,1E0,1.3926133E-2,1.8521365E-2,1.5E-1,2.5E-1,2E0,2E0,-3.2475065E-2,2E0,5E-1,2E0,-2.673983E-2,-1.6320338E-2,-1.3444531E-2,4E-1,1E-1,1E-1,3E-1,1.6698651E-2,7.5E-1,1.3E2,1.2E2,1.3E2,1.3E2,1.4E2,-6.567658E-3,1.6741585E-3,-1.5550509E-2,-7.0018023E-3,-1.0336419E-3,6.9511905E-3,2.5678338E-3,1.0415105E-2,-3.3219334E-2,-2.4119372E-2,2.9933543E-3,-2.1834245E-2,-2.5383431E-2,-3.738911E-2,-9.276664E-3,-2.6921991E-2,3.7900805E-3,-1.5326745E-2,1.6640428E-2,-1.4919034E-3],"split_indices":[0,0,0,0,0,1,3,0,0,0,1,3,3,3,1,0,0,3,1,1,1,0,1,1,1,0,0,0,3,3,3,3,0,1,0,0,0,0,0,0,0,0,0,0,0,0,0,0,0,0,0,0,0,0,0,0,0,0,0],"split_type":[0,0,0,0,0,0,0,0,0,0,0,0,0,0,0,0,0,0,0,0,0,0,0,0,0,0,0,0,0,0,0,0,0,0,0,0,0,0,0,0,0,0,0,0,0,0,0,0,0,0,0,0,0,0,0,0,0,0,0],"sum_hessian":[1.224E3,5.39E2,6.85E2,2.63E2,2.76E2,1.39E2,5.46E2,1.38E2,1.25E2,1.43E2,1.33E2,5.1E1,8.8E1,3.9E2,1.56E2,9.1E1,4.2E1,2.9E1,2.2E1,3.7E1,5.1E1,2.43E2,1.47E2,1.07E2,4.9E1,1.4E1,1.5E1,9E0,1.3E1,2.9E1,8E0,3.8E1,1.3E1,1.22E2,2.5E1,5.2E1,5.5E1,2.7E1,2.2E1,9E0,4E0,1E1,1.9E1,2E0,6E0,1.8E1,2E1,6.7E1,5.5E1,1.3E1,1.2E1,1.2E1,4E1,2.8E1,2.7E1,1.3E1,1.4E1,1.6E1,6E0],"tree_param":{"num_deleted":"0","num_feature":"4","num_nodes":"59","size_leaf_vector":"1"}},{"base_weights":[-3.3309092E-3,5.311498E-1,-4.1764614E-1,6.7300254E-1,3.936025E-1,-7.5502954E-2,-5.038257E-1,3.606444E-2,3.1147514E-2,2.4569519E-2,2.922014E-1,-3.2137617E-1,5.359942E-2,-5.847564E-1,-3.341764E-1,1.1839936E-2,3.197302E-1,-1.9670365E-2,-2.4529572E-1,-1.8426694E-2,1.2922061E-2,-3.213428E-2,-5.2430624E-1,-1.9532944E-1,-4.662995E-1,1.4888166E-2,1.8976465E-2,-1.3669026E-2,-6.5005603E-3,-5.4976907E-2,4.8100755E-2,-3.4572044E-1,-2.8942494E-2,-3.0580392E-1,-9.01011E-2,-2.0455377E-2,-2.5667727E-2,-3.4025E-3,-1.2080461E-4,8.789948E-4,5.0203367E-3,-2.1088123E-2,-1.2567045E-2,-1.147812E-2,-1.8105997E-2,-9.447747E-3,-1.8929265E-3],"categories":[],"categories_nodes":[],"categories_segments":[],"categories_sizes":[],"default_left":[0,0,0,0,0,0,0,0,0,0,0,0,0,0,0,0,0,0,0,0,0,0,0,0,0,0,0,0,0,0,0,0,0,0,0,0,0,0,0,0,0,0,0,0,0,0,0],"id":24,"left_children":[1,3,5,7,9,11,13,-1,-1,-1,15,17,19,21,23,-1,25,-1,27,29,-1,-1,31,33,35,-1,-1,-1,-1,37,39,41,-1,43,45,-1,-1,-1,-1,-1,-1,-1,-1,-1,-1,-1,-1],"loss_changes":[2.6927563E2,1.0095703E1,2.0159729E1,1.79039E-1,2.5535126E0,4.4294777E0,7.314804E0,0E0,0E0,0E0,1.31711E-1,1.6654634E-1,1.3621264E0,9.5521545E-1,3.1926537E0,0E0,2.5863647E-3,0E0,4.86387E-2,1.7042431E-1,0E0,0E0,1.6116447E0,1.0070755E0,3.4877777E-2,0E0,0E0,0E0,0E0,3.0756533E-2,3.8145445E-2,2.241273E-1,0E0,1.014967E-1,2.3557228E-1,0E0,0E0,0E0,0E0,0E0,0E0,0E0,0E0,0E0,0E0,0E0,0E0],"parents":[2147483647,0,0,1,1,2,2,3,3,4,4,5,5,6,6,10,10,11,11,12,12,13,13,14,14,16,16,18,18,19,19,22,22,23,23,24,24,29,29,30,30,31,31,33,33,34,34],"right_children":[2,4,6,8,10,12,14,-1,-1,-1,16,18,20,22,24,-1,26,-1,28,30,-1,-1,32,34,36,-1,-1,-1,-1,38,40,42,-1,44,46,-1,-1,-1,-1,-1,-1,-1,-1,-1,-1,-1,-1],"split_conditions":[1E2,8E1,1.1E2,7E1,9E1,5E-1,1E0,3.606444E-2,3.1147514E-2,2.4569519E-2,5E-1,2.5E-1,2E0,5E-1,1.3E2,1.1839936E-2,2E0,-1.9670365E-2,5E-2,1E0,1.2922061E-2,-3.213428E-2,1.2E2,2E0,1.4E2,1.4888166E-2,1.8976465E-2,-1.3669026E-2,-6.5005603E-3,5E-2,3E-2,7.5E-1,-2.8942494E-2,1.2E2,2E-2,-2.0455377E-2,-2.5667727E-2,-3.4025E-3,-1.2080461E-4,8.789948E-4,5.0203367E-3,-2.1088123E-2,-1.2567045E-2,-1.147812E-2,-1.8105997E-2,-9.447747E-3,-1.8929265E-3],"split_indices":[0,0,0,0,0,1,1,0,0,0,1,1,1,1,0,0,1,0,2,1,0,0,0,1,0,0,0,0,0,2,2,1,0,0,2,0,0,0,0,0,0,0,0,0,0,0,0],"split_type":[0,0,0,0,0,0,0,0,0,0,0,0,0,0,0,0,0,0,0,0,0,0,0,0,0,0,0,0,0,0,0,0,0,0,0,0,0,0,0,0,0,0,0,0,0,0,0],"sum_hessian":[1.214E3,5.3E2,6.84E2,2.59E2,2.71E2,1.38E2,5.46E2,1.25E2,1.34E2,1.36E2,1.35E2,4.7E1,9.1E1,3.68E2,1.78E2,4.8E1,8.7E1,2.2E1,2.5E1,6.8E1,2.3E1,1.83E2,1.85E2,8.8E1,9E1,6.8E1,1.9E1,1.9E1,6E0,4.4E1,2.4E1,4.5E1,1.4E2,4.2E1,4.6E1,4.5E1,4.5E1,3.5E1,9E0,1.6E1,8E0,2.3E1,2.2E1,2E1,2.2E1,1.5E1,3.1E1],"tree_param":{"num_deleted":"0","num_feature":"4","num_nodes":"47","size_leaf_vector":"1"}},{"base_weights":[-9.325437E-3,5.037855E-1,-3.9776915E-1,5.7921463E-1,2.7087468E-1,-8.003358E-2,-4.8448816E-1,6.3976216E-1,2.3332603E-2,2.4999377E-1,1.5739646E-2,-2.8640017E-1,5.6185715E-2,-5.687367E-1,-3.6437932E-1,3.417149E-2,2.9577209E-2,1.0477709E-2,1.3663855E-2,-1.9454459E-2,-2.1400708E-1,6.423697E-3,8.879415E-3,-2.962747E-2,-4.814604E-1,-1.298072E-1,-4.41824E-1,-1.2866988E-2,-1.7079517E-1,-5.716011E-2,3.4696806E-2,-2.5445664E-1,-2.6247693E-2,-2.0936537E-1,6.304001E-2,-4.9171865E-1,-3.3882886E-1,-9.845487E-3,-6.338986E-3,-4.860192E-3,4.521029E-3,4.9052755E-3,9.5871836E-4,-2.0964295E-2,-3.921198E-3,-1.283495E-2,-8.345528E-3,-6.1252117E-3,5.4157902E-3,-1.98377E-2,-2.685382E-2,-1.3692113E-2,-2.3232521E-2],"categories":[],"categories_nodes":[],"categories_segments":[],"categories_sizes":[],"default_left":[0,0,0,0,0,0,0,0,0,0,0,0,0,0,0,0,0,0,0,0,0,0,0,0,0,0,0,0,0,0,0,0,0,0,0,0,0,0,0,0,0,0,0,0,0,0,0,0,0,0,0,0,0],"id":25,"left_children":[1,3,5,7,9,11,13,15,-1,17,-1,19,21,23,25,-1,-1,-1,-1,-1,27,29,-1,-1,31,33,35,-1,37,39,41,43,-1,45,47,49,51,-1,-1,-1,-1,-1,-1,-1,-1,-1,-1,-1,-1,-1,-1,-1,-1],"loss_changes":[2.479486E2,9.259689E0,1.9469254E1,2.4548798E0,4.327202E-2,4.3170915E0,5.41893E0,1.4317322E-1,0E0,3.218317E-2,0E0,3.7020445E-1,5.6069434E-1,3.9015198E-1,4.1572456E0,0E0,0E0,0E0,0E0,0E0,2.720213E-2,1.22429974E-1,0E0,0E0,6.069107E-1,9.184099E-1,7.2756195E-1,0E0,3.2359362E-4,1.3289252E-1,4.4378996E-2,3.7333256E-1,0E0,4.1555047E-2,1.6448107E-1,2.822609E-1,3.633623E-1,0E0,0E0,0E0,0E0,0E0,0E0,0E0,0E0,0E0,0E0,0E0,0E0,0E0,0E0,0E0,0E0],"parents":[2147483647,0,0,1,1,2,2,3,3,4,4,5,5,6,6,7,7,9,9,11,11,12,12,13,13,14,14,20,20,21,21,24,24,25,25,26,26,28,28,29,29,30,30,31,31,33,33,34,34,35,35,36,36],"right_children":[2,4,6,8,10,12,14,16,-1,18,-1,20,22,24,26,-1,-1,-1,-1,-1,28,30,-1,-1,32,34,36,-1,38,40,42,44,-1,46,48,50,52,-1,-1,-1,-1,-1,-1,-1,-1,-1,-1,-1,-1,-1,-1,-1,-1],"split_conditions":[1E2,9E1,1.1E2,8E1,3E-1,2E-1,2.5E-1,7E1,2.3332603E-2,2E-2,1.5739646E-2,1E-1,4E-1,2E-1,1.2E2,3.417149E-2,2.9577209E-2,1.0477709E-2,1.3663855E-2,-1.9454459E-2,2E-2,2.5E-1,8.879415E-3,-2.962747E-2,1.2E2,4E-1,4E-1,-1.2866988E-2,1.5E-1,5E-2,1E-2,3E-2,-2.6247693E-2,3E-1,1E-2,1.3E2,1.4E2,-9.845487E-3,-6.338986E-3,-4.860192E-3,4.521029E-3,4.9052755E-3,9.5871836E-4,-2.0964295E-2,-3.921198E-3,-1.283495E-2,-8.345528E-3,-6.1252117E-3,5.4157902E-3,-1.98377E-2,-2.685382E-2,-1.3692113E-2,-2.3232521E-2],"split_indices":[0,0,0,0,3,3,3,0,0,2,0,3,3,3,0,0,0,0,0,0,2,3,0,0,0,3,3,0,3,2,2,2,0,3,2,0,0,0,0,0,0,0,0,0,0,0,0,0,0,0,0,0,0],"split_type":[0,0,0,0,0,0,0,0,0,0,0,0,0,0,0,0,0,0,0,0,0,0,0,0,0,0,0,0,0,0,0,0,0,0,0,0,0,0,0,0,0,0,0,0,0,0,0,0,0,0,0,0,0],"sum_hessian":[1.242E3,5.35E2,7.07E2,4.03E2,1.32E2,1.52E2,5.55E2,2.59E2,1.44E2,9.4E1,3.8E1,6E1,9.2E1,3.24E2,2.31E2,1.29E2,1.3E2,3.8E1,5.6E1,2.3E1,3.7E1,6.6E1,2.6E1,2.5E2,7.4E1,5.8E1,1.73E2,1.6E1,2.1E1,2E1,4.6E1,1.3E1,6.1E1,4.1E1,1.7E1,1.14E2,5.9E1,1.1E1,1E1,1.6E1,4E0,8E0,3.8E1,6E0,7E0,1.7E1,2.4E1,3E0,1.4E1,4E1,7.4E1,4.1E1,1.8E1],"tree_param":{"num_deleted":"0","num_feature":"4","num_nodes":"53","size_leaf_vector":"1"}},{"base_weights":[-6.4948522E-3,4.8418492E-1,-3.7503397E-1,6.120966E-1,3.6026847E-1,-8.050967E-2,-4.5014128E-1,3.267644E-2,2.8183347E-2,2.2193465E-2,2.6862803E-1,-3.2358462E-1,6.743044E-3,-5.173828E-1,-2.7649474E-1,2.3769227E-1,1.51496E-2,-4.0860233E-1,-1.9952835E-1,-6.916846E-2,1.2044976E-1,-4.1441274E-1,-2.7406354E-2,-1.3596548E-1,-4.2658088E-1,9.728346E-3,1.2962188E-2,-2.2064824E-2,-1.0786089E-2,-1.1077768E-2,-6.1109806E-3,-1.0196515E-1,-3.4125827E-3,5.950448E-2,8.410435E-3,-5.2236444E-1,-2.3399077E-1,-2.321017E-1,-3.6513023E-2,-2.5185287E-2,-3.402598E-1,-7.5084358E-3,-4.1104383E-3,-8.550837E-4,1.797097E-3,7.914163E-4,4.090242E-3,-2.9281205E-2,-1.961147E-2,-1.4766072E-2,-7.6423064E-3,-7.3336326E-3,-1.5723428E-2,2.432784E-3,-5.613972E-3,-1.2299481E-2,-2.0242998E-2],"categories":[],"categories_nodes":[],"categories_segments":[],"categories_sizes":[],"default_left":[0,0,0,0,0,0,0,0,0,0,0,0,0,0,0,0,0,0,0,0,0,0,0,0,0,0,0,0,0,0,0,0,0,0,0,0,0,0,0,0,0,0,0,0,0,0,0,0,0,0,0,0,0,0,0,0,0],"id":26,"left_children":[1,3,5,7,9,11,13,-1,-1,-1,15,17,19,21,23,25,-1,27,29,31,33,35,-1,37,39,-1,-1,-1,-1,-1,-1,41,43,45,-1,47,49,51,53,-1,55,-1,-1,-1,-1,-1,-1,-1,-1,-1,-1,-1,-1,-1,-1,-1,-1],"loss_changes":[2.1627904E2,7.910721E0,1.507235E1,1.3526917E-1,1.8956642E0,2.9714348E0,6.208832E0,0E0,0E0,0E0,6.405544E-2,3.0871034E-1,9.060227E-1,1.0106583E0,3.1900892E0,1.6478062E-2,0E0,3.7230015E-2,1.870513E-3,1.3551632E-1,1.1223948E-1,1.7085972E0,0E0,7.6596487E-1,3.2126427E-1,0E0,0E0,0E0,0E0,0E0,0E0,2.7652591E-2,1.2466675E-2,1.8185057E-2,0E0,2.4777317E-1,1.3899732E-1,2.423737E-1,2.700331E-1,0E0,1.3182402E-1,0E0,0E0,0E0,0E0,0E0,0E0,0E0,0E0,0E0,0E0,0E0,0E0,0E0,0E0,0E0,0E0],"parents":[2147483647,0,0,1,1,2,2,3,3,4,4,5,5,6,6,10,10,11,11,12,12,13,13,14,14,15,15,17,17,18,18,19,19,20,20,21,21,23,23,24,24,31,31,32,32,33,33,35,35,36,36,37,37,38,38,40,40],"right_children":[2,4,6,8,10,12,14,-1,-1,-1,16,18,20,22,24,26,-1,28,30,32,34,36,-1,38,40,-1,-1,-1,-1,-1,-1,42,44,46,-1,48,50,52,54,-1,56,-1,-1,-1,-1,-1,-1,-1,-1,-1,-1,-1,-1,-1,-1,-1,-1],"split_conditions":[1E2,8E1,1.1E2,7E1,9E1,1.5E-1,3E-1,3.267644E-2,2.8183347E-2,2.2193465E-2,2.5E-1,1E-1,3E-1,1.2E2,1.3E2,2E-2,1.51496E-2,5E-2,5E-2,2.5E-1,4E-1,2E-1,-2.7406354E-2,4E-1,4E-1,9.728346E-3,1.2962188E-2,-2.2064824E-2,-1.0786089E-2,-1.1077768E-2,-6.1109806E-3,1E-2,5E-2,2E-2,8.410435E-3,1.5E-1,3E-2,1.2E2,1.2E2,-2.5185287E-2,1.4E2,-7.5084358E-3,-4.1104383E-3,-8.550837E-4,1.797097E-3,7.914163E-4,4.090242E-3,-2.9281205E-2,-1.961147E-2,-1.4766072E-2,-7.6423064E-3,-7.3336326E-3,-1.5723428E-2,2.432784E-3,-5.613972E-3,-1.2299481E-2,-2.0242998E-2],"split_indices":[0,0,0,0,0,3,3,0,0,0,3,3,3,0,0,2,0,2,2,3,3,3,0,3,3,0,0,0,0,0,0,2,2,2,0,3,2,0,0,0,0,0,0,0,0,0,0,0,0,0,0,0,0,0,0,0,0],"split_type":[0,0,0,0,0,0,0,0,0,0,0,0,0,0,0,0,0,0,0,0,0,0,0,0,0,0,0,0,0,0,0,0,0,0,0,0,0,0,0,0,0,0,0,0,0,0,0,0,0,0,0,0,0,0,0,0,0],"sum_hessian":[1.194E3,5.12E2,6.82E2,2.5E2,2.62E2,1.39E2,5.43E2,1.28E2,1.22E2,1.35E2,1.27E2,3.6E1,1.03E2,3.9E2,1.53E2,7.1E1,5.6E1,2E1,1.6E1,6.2E1,4.1E1,9.3E1,2.97E2,8E1,7.3E1,2.7E1,4.4E1,1.6E1,4E0,1.1E1,5E0,4.1E1,2.1E1,1.9E1,2.2E1,5.7E1,3.6E1,4E1,4E1,3.6E1,3.7E1,1E1,3.1E1,1.6E1,5E0,7E0,1.2E1,3.6E1,2.1E1,1.9E1,1.7E1,2.1E1,1.9E1,1.9E1,2.1E1,1.7E1,2E1],"tree_param":{"num_deleted":"0","num_feature":"4","num_nodes":"57","size_leaf_vector":"1"}},{"base_weights":[6.2279105E-3,4.5822352E-1,-3.538009E-1,5.7742256E-1,3.3952186E-1,-6.741015E-2,-4.2816E-1,3.0847598E-2,2.669835E-2,2.1037102E-2,2.5097364E-1,-2.2424807E-1,1.24245316E-1,-5.3439724E-1,-3.1996527E-1,9.930872E-3,2.7328557E-1,-1.7970724E-2,-1.4715368E-1,5.214689E-2,1.1875847E-2,-2.826956E-2,-4.7571072E-1,-1.1741231E-1,-3.8142928E-1,1.2218344E-2,1.5574113E-2,-2.0749012E-1,-8.3601795E-2,-2.5091767E-3,8.3775744E-2,-2.0452429E-2,-2.677626E-2,-1.6997464E-1,-1.40387295E-2,-4.4669595E-1,-2.5632527E-1,-1.3257605E-2,-7.743969E-3,-5.372673E-3,-2.4824871E-3,4.8162258E-4,-5.378699E-4,2.8442384E-3,5.3145485E-3,-9.50424E-3,-6.8671852E-3,-8.982593E-3,1.5141277E-3,-2.0353356E-2,-2.614691E-2,-6.1643063E-3,-1.6084317E-2],"categories":[],"categories_nodes":[],"categories_segments":[],"categories_sizes":[],"default_left":[0,0,0,0,0,0,0,0,0,0,0,0,0,0,0,0,0,0,0,0,0,0,0,0,0,0,0,0,0,0,0,0,0,0,0,0,0,0,0,0,0,0,0,0,0,0,0,0,0,0,0,0,0],"id":27,"left_children":[1,3,5,7,9,11,13,-1,-1,-1,15,17,19,21,23,-1,25,-1,27,29,-1,-1,31,33,35,-1,-1,37,39,41,43,-1,-1,45,47,49,51,-1,-1,-1,-1,-1,-1,-1,-1,-1,-1,-1,-1,-1,-1,-1,-1],"loss_changes":[2.0113545E2,7.557678E0,1.462262E1,1.3780212E-1,1.8865604E0,4.3262763E0,6.104904E0,0E0,0E0,0E0,1.0342312E-1,7.703357E-1,5.1845E-1,2.2942352E-1,3.3539886E0,0E0,2.5506973E-2,0E0,1.8204713E-1,7.1087256E-2,0E0,0E0,1.8366623E-1,3.507948E-1,1.5920086E0,0E0,0E0,3.780794E-2,1.6529903E-2,1.7059696E-3,9.69553E-3,0E0,0E0,2.1102428E-3,1.7426461E-1,1.9804001E-1,6.038132E-1,0E0,0E0,0E0,0E0,0E0,0E0,0E0,0E0,0E0,0E0,0E0,0E0,0E0,0E0,0E0,0E0],"parents":[2147483647,0,0,1,1,2,2,3,3,4,4,5,5,6,6,10,10,11,11,12,12,13,13,14,14,16,16,18,18,19,19,22,22,23,23,24,24,27,27,28,28,29,29,30,30,33,33,34,34,35,35,36,36],"right_children":[2,4,6,8,10,12,14,-1,-1,-1,16,18,20,22,24,-1,26,-1,28,30,-1,-1,32,34,36,-1,-1,38,40,42,44,-1,-1,46,48,50,52,-1,-1,-1,-1,-1,-1,-1,-1,-1,-1,-1,-1,-1,-1,-1,-1],"split_conditions":[1E2,8E1,1.1E2,7E1,9E1,7.5E-1,7.5E-1,3.0847598E-2,2.669835E-2,2.1037102E-2,5E-1,2.5E-1,2E0,5E-1,1.2E2,9.930872E-3,3E-2,-1.7970724E-2,5E-1,2E-2,1.1875847E-2,-2.826956E-2,1.3E2,2E0,2E0,1.2218344E-2,1.5574113E-2,2E-2,3E-2,1E-2,1E0,-2.0452429E-2,-2.677626E-2,1E0,1E-2,1.4E2,1.3E2,-1.3257605E-2,-7.743969E-3,-5.372673E-3,-2.4824871E-3,4.8162258E-4,-5.378699E-4,2.8442384E-3,5.3145485E-3,-9.50424E-3,-6.8671852E-3,-8.982593E-3,1.5141277E-3,-2.0353356E-2,-2.614691E-2,-6.1643063E-3,-1.6084317E-2],"split_indices":[0,0,0,0,0,1,1,0,0,0,1,1,1,1,0,0,2,0,1,2,0,0,0,1,1,0,0,2,2,2,1,0,0,1,2,0,0,0,0,0,0,0,0,0,0,0,0,0,0,0,0,0,0],"split_type":[0,0,0,0,0,0,0,0,0,0,0,0,0,0,0,0,0,0,0,0,0,0,0,0,0,0,0,0,0,0,0,0,0,0,0,0,0,0,0,0,0,0,0,0,0,0,0,0,0,0,0,0,0],"sum_hessian":[1.234E3,5.47E2,6.87E2,2.71E2,2.76E2,1.42E2,5.45E2,1.35E2,1.36E2,1.42E2,1.34E2,7.8E1,6.4E1,2.73E2,2.72E2,4.3E1,9.1E1,2.7E1,5.1E1,4E1,2.4E1,1.73E2,1E2,6.4E1,2.08E2,5.6E1,3.5E1,2.5E1,2.6E1,1.5E1,2.5E1,5.1E1,4.9E1,4.2E1,2.2E1,1.35E2,7.3E1,1E1,1.5E1,1.4E1,1.2E1,6E0,9E0,1.3E1,1.2E1,2.3E1,1.9E1,4E0,1.8E1,9.3E1,4.2E1,2.5E1,4.8E1],"tree_param":{"num_deleted":"0","num_feature":"4","num_nodes":"53","size_leaf_vector":"1"}},{"base_weights":[1.3930696E-3,4.3497258E-1,-3.404325E-1,4.9933606E-1,2.4151804E-1,-6.2167395E-2,-4.1434422E-1,5.470254E-1,2.0100525E-2,2.197207E-1,1.4636201E-2,-2.5316638E-1,5.441814E-2,-4.7460535E-1,-2.6682973E-1,2.9253626E-2,2.5388127E-2,9.443862E-3,1.1886777E-2,-3.022059E-1,-1.4692487E-1,6.757295E-3,8.180564E-3,-2.5602838E-2,-4.137031E-1,-1.5655369E-1,-3.7509865E-1,-1.7539162E-2,-1.2013985E-2,-9.700199E-3,-9.504879E-2,-5.5841703E-2,3.717175E-2,-3.2360637E-1,-2.4312014E-2,-2.2938795E-1,-5.8436673E-2,-3.9975974E-1,-1.2243572E-2,-2.9905306E-3,-7.088148E-3,-3.5218E-3,-3.8083046E-4,3.884197E-3,1.2846141E-3,-1.3105059E-2,-1.8485812E-2,-8.360795E-3,-1.4937113E-2,2.140363E-3,-7.297387E-3,-2.2488609E-2,-1.6957445E-2],"categories":[],"categories_nodes":[],"categories_segments":[],"categories_sizes":[],"default_left":[0,0,0,0,0,0,0,0,0,0,0,0,0,0,0,0,0,0,0,0,0,0,0,0,0,0,0,0,0,0,0,0,0,0,0,0,0,0,0,0,0,0,0,0,0,0,0,0,0,0,0,0,0],"id":28,"left_children":[1,3,5,7,9,11,13,15,-1,17,-1,19,21,23,25,-1,-1,-1,-1,27,29,31,-1,-1,33,35,37,-1,-1,-1,39,41,43,45,-1,47,49,51,-1,-1,-1,-1,-1,-1,-1,-1,-1,-1,-1,-1,-1,-1,-1],"loss_changes":[1.7785016E2,6.466194E0,1.3774727E1,1.6180801E0,8.524752E-2,3.1757927E0,4.5847473E0,9.580231E-2,0E0,9.549618E-3,0E0,2.3694038E-1,4.6207154E-1,6.43486E-1,1.803834E0,0E0,0E0,0E0,0E0,2.4009466E-2,2.796349E-2,1.2202234E-1,0E0,0E0,8.098831E-1,5.511514E-1,1.5261078E-1,0E0,0E0,0E0,9.628408E-3,1.42435655E-2,1.8001638E-2,9.878111E-2,0E0,1.4408112E-1,3.1634638E-1,4.14629E-2,0E0,0E0,0E0,0E0,0E0,0E0,0E0,0E0,0E0,0E0,0E0,0E0,0E0,0E0,0E0],"parents":[2147483647,0,0,1,1,2,2,3,3,4,4,5,5,6,6,7,7,9,9,11,11,12,12,13,13,14,14,19,19,20,20,21,21,24,24,25,25,26,26,30,30,31,31,32,32,33,33,35,35,36,36,37,37],"right_children":[2,4,6,8,10,12,14,16,-1,18,-1,20,22,24,26,-1,-1,-1,-1,28,30,32,-1,-1,34,36,38,-1,-1,-1,40,42,44,46,-1,48,50,52,-1,-1,-1,-1,-1,-1,-1,-1,-1,-1,-1,-1,-1,-1,-1],"split_conditions":[1E2,9E1,1.1E2,8E1,3E-1,2E-1,3E-1,7E1,2.0100525E-2,2E-2,1.4636201E-2,1.5E-1,4E-1,2E-1,1.3E2,2.9253626E-2,2.5388127E-2,9.443862E-3,1.1886777E-2,1E-1,2E-2,2.5E-1,8.180564E-3,-2.5602838E-2,1.3E2,4E-1,5E-2,-1.7539162E-2,-1.2013985E-2,-9.700199E-3,5E-2,5E-2,1E-2,1.2E2,-2.4312014E-2,1.2E2,1.2E2,4E-1,-1.2243572E-2,-2.9905306E-3,-7.088148E-3,-3.5218E-3,-3.8083046E-4,3.884197E-3,1.2846141E-3,-1.3105059E-2,-1.8485812E-2,-8.360795E-3,-1.4937113E-2,2.140363E-3,-7.297387E-3,-2.2488609E-2,-1.6957445E-2],"split_indices":[0,0,0,0,3,3,3,0,0,2,0,3,3,3,0,0,0,0,0,3,2,3,0,0,0,3,2,0,0,0,2,2,2,0,0,0,0,3,0,0,0,0,0,0,0,0,0,0,0,0,0,0,0],"split_type":[0,0,0,0,0,0,0,0,0,0,0,0,0,0,0,0,0,0,0,0,0,0,0,0,0,0,0,0,0,0,0,0,0,0,0,0,0,0,0,0,0,0,0,0,0,0,0,0,0,0,0,0,0],"sum_hessian":[1.198E3,5.28E2,6.7E2,3.95E2,1.33E2,1.41E2,5.29E2,2.62E2,1.33E2,9.7E1,3.6E1,5.3E1,8.8E1,3.74E2,1.55E2,1.26E2,1.36E2,4E1,5.7E1,3.5E1,1.8E1,6.2E1,2.6E1,2.27E2,1.47E2,7.8E1,7.7E1,1.7E1,1.8E1,8E0,1E1,2E1,4.2E1,6.8E1,7.9E1,4.4E1,3.4E1,6.3E1,1.4E1,7E0,3E0,1.5E1,5E0,8E0,3.4E1,3.2E1,3.6E1,2.5E1,1.9E1,1.6E1,1.8E1,3.1E1,3.2E1],"tree_param":{"num_deleted":"0","num_feature":"4","num_nodes":"53","size_leaf_vector":"1"}},{"base_weights":[-2.219813E-3,4.1572785E-1,-3.1824055E-1,5.1986486E-1,3.0960667E-1,-5.9780758E-2,-3.8415185E-1,2.7862951E-2,2.4070276E-2,1.8997513E-2,2.294705E-1,-2.8344423E-1,2.1733453E-2,-4.2133248E-1,-1.344141E-1,2.156442E-1,1.4563824E-2,-3.4615967E-1,-1.0484617E-2,-2.2961706E-2,9.56999E-3,-4.822182E-1,-3.5192275E-1,-7.326178E-3,-2.6482874E-1,8.608009E-3,1.1313586E-2,-1.8746732E-2,-9.530137E-3,-6.5766945E-2,1.9382056E-2,-2.5194759E-2,-4.3260744E-1,-1.6559486E-1,