{"learner":{"attributes":{"scikit_learn":"{\"_estimator_type\": \"regressor\"}"},"feature_names":[],"feature_types":[],"gradient_booster":{"model":{"gbtree_model_param":{"num_parallel_tree":"1","num_trees":"500"},"iteration_indptr":[0,1,2,3,4,5,6,7,8,9,10,11,12,13,14,15,16,17,18,19,20,21,22,23,24,25,26,27,28,29,30,31,32,33,34,35,36,37,38,39,40,41,42,43,44,45,46,47,48,49,50,51,52,53,54,55,56,57,58,59,60,61,62,63,64,65,66,67,68,69,70,71,72,73,74,75,76,77,78,79,80,81,82,83,84,85,86,87,88,89,90,91,92,93,94,95,96,97,98,99,100,101,102,103,104,105,106,107,108,109,110,111,112,113,114,115,116,117,118,119,120,121,122,123,124,125,126,127,128,129,130,131,132,133,134,135,136,137,138,139,140,141,142,143,144,145,146,147,148,149,150,151,152,153,154,155,156,157,158,159,160,161,162,163,164,165,166,167,168,169,170,171,172,173,174,175,176,177,178,179,180,181,182,183,184,185,186,187,188,189,190,191,192,193,194,195,196,197,198,199,200,201,202,203,204,205,206,207,208,209,210,211,212,213,214,215,216,217,218,219,220,221,222,223,224,225,226,227,228,229,230,231,232,233,234,235,236,237,238,239,240,241,242,243,244,245,246,247,248,249,250,251,252,253,254,255,256,257,258,259,260,261,262,263,264,265,266,267,268,269,270,271,272,273,274,275,276,277,278,279,280,281,282,283,284,285,286,287,288,289,290,291,292,293,294,295,296,297,298,299,300,301,302,303,304,305,306,307,308,309,310,311,312,313,314,315,316,317,318,319,320,321,322,323,324,325,326,327,328,329,330,331,332,333,334,335,336,337,338,339,340,341,342,343,344,345,346,347,348,349,350,351,352,353,354,355,356,357,358,359,360,361,362,363,364,365,366,367,368,369,370,371,372,373,374,375,376,377,378,379,380,381,382,383,384,385,386,387,388,389,390,391,392,393,394,395,396,397,398,399,400,401,402,403,404,405,406,407,408,409,410,411,412,413,414,415,416,417,418,419,420,421,422,423,424,425,426,427,428,429,430,431,432,433,434,435,436,437,438,439,440,441,442,443,444,445,446,447,448,449,450,451,452,453,454,455,456,457,458,459,460,461,462,463,464,465,466,467,468,469,470,471,472,473,474,475,476,477,478,479,480,481,482,483,484,485,486,487,488,489,490,491,492,493,494,495,496,497,498,499,500],"tree_info":[0,0,0,0,0,0,0,0,0,0,0,0,0,0,0,0,0,0,0,0,0,0,0,0,0,0,0,0,0,0,0,0,0,0,0,0,0,0,0,0,0,0,0,0,0,0,0,0,0,0,0,0,0,0,0,0,0,0,0,0,0,0,0,0,0,0,0,0,0,0,0,0,0,0,0,0,0,0,0,0,0,0,0,0,0,0,0,0,0,0,0,0,0,0,0,0,0,0,0,0,0,0,0,0,0,0,0,0,0,0,0,0,0,0,0,0,0,0,0,0,0,0,0,0,0,0,0,0,0,0,0,0,0,0,0,0,0,0,0,0,0,0,0,0,0,0,0,0,0,0,0,0,0,0,0,0,0,0,0,0,0,0,0,0,0,0,0,0,0,0,0,0,0,0,0,0,0,0,0,0,0,0,0,0,0,0,0,0,0,0,0,0,0,0,0,0,0,0,0,0,0,0,0,0,0,0,0,0,0,0,0,0,0,0,0,0,0,0,0,0,0,0,0,0,0,0,0,0,0,0,0,0,0,0,0,0,0,0,0,0,0,0,0,0,0,0,0,0,0,0,0,0,0,0,0,0,0,0,0,0,0,0,0,0,0,0,0,0,0,0,0,0,0,0,0,0,0,0,0,0,0,0,0,0,0,0,0,0,0,0,0,0,0,0,0,0,0,0,0,0,0,0,0,0,0,0,0,0,0,0,0,0,0,0,0,0,0,0,0,0,0,0,0,0,0,0,0,0,0,0,0,0,0,0,0,0,0,0,0,0,0,0,0,0,0,0,0,0,0,0,0,0,0,0,0,0,0,0,0,0,0,0,0,0,0,0,0,0,0,0,0,0,0,0,0,0,0,0,0,0,0,0,0,0,0,0,0,0,0,0,0,0,0,0,0,0,0,0,0,0,0,0,0,0,0,0,0,0,0,0,0,0,0,0,0,0,0,0,0,0,0,0,0,0,0,0,0,0,0,0,0,0,0,0,0,0,0,0,0,0,0,0,0,0,0,0,0,0,0,0,0,0,0,0,0,0,0,0,0,0,0,0,0,0,0,0,0,0,0,0,0,0,0,0,0,0,0,0,0,0,0,0,0,0,0,0,0,0,0,0,0,0,0,0,0,0,0,0,0,0],"trees":[{"base_weights":[3.8410795E-3,-2.429787E-1,3.236632E-1,-6.2348455E-1,-1.6265367E-1,-3.212715E-2,7.078184E-1,-6.981029E-1,-4.0113217E-1,-3.2492524E-1,1.0318537E-2,-1.7493191E-1,2.4615015E-1,5.440334E-1,1.0289117E0,-5.7642484E-1,-9.61408E-1,-2.579764E-2,-1.6274428E-2,-3.5603678E-1,-1.7214692E-1,-1.5637237E-1,2.7441058E-1,-3.1343994E-1,-6.2119205E-2,1.20372266E-1,4.9382296E-1,4.1863114E-1,7.768096E-1,7.49432E-1,5.7407446E-2,-2.6112894E-2,-7.2483605E-1,-2.9312879E-2,-1.1974344E0,-2.346697E-1,-3.9255732E-1,-3.648781E-1,1.2683674E-2,-2.595773E-1,-4.7553144E-2,1.9506764E-1,3.5007298E-1,-1.7895743E-1,-4.021684E-1,1.5035546E-1,-1.231926E-1,5.217189E-2,4.0587622E-1,3.1381607E-1,5.5319774E-1,3.8559857E-1,5.434105E-1,6.048971E-1,4.6393182E-2,1.9156385E-2,4.658248E-2,-2.3083039E-2,-5.5310972E-2,-7.593058E-2,-3.067152E-2,-1.7577266E-2,-4.844532E-3,-2.4226464E-2,-1.7300306E-2,-1.3660434E-2,-2.3753066E-2,-2.1254888E-3,3.3485573E-3,-6.813512E-3,-2.2674328E-2,-5.9097433E-3,3.436284E-3,1.3791454E-2,1.5889613E-3,1.5122908E-2,2.521894E-2,-5.9979786E-3,-1.1236778E-2,-3.3640575E-2,-1.293803E-2,2.0859947E-2,2.6527278E-3,-2.575269E-3,-1.0369415E-2,-3.2432468E-4,5.3362725E-3,1.0428808E-2,3.2019056E-2,2.0936875E-2,6.257359E-3,3.1595778E-2,1.682261E-2,2.1300817E-2,1.30119175E-2,1.5607257E-2,3.8329393E-2,4.7524134E-3,3.3983983E-2],"categories":[],"categories_nodes":[],"categories_segments":[],"categories_sizes":[],"default_left":[0,0,0,0,0,0,0,0,0,0,0,0,0,0,0,0,0,0,0,0,0,0,0,0,0,0,0,0,0,0,0,0,0,0,0,0,0,0,0,0,0,0,0,0,0,0,0,0,0,0,0,0,0,0,0,0,0,0,0,0,0,0,0,0,0,0,0,0,0,0,0,0,0,0,0,0,0,0,0,0,0,0,0,0,0,0,0,0,0,0,0,0,0,0,0,0,0,0,0],"id":0,"left_children":[1,3,5,7,9,11,13,15,17,19,21,23,25,27,29,31,33,-1,-1,35,37,39,41,43,45,47,49,51,53,55,-1,-1,57,-1,59,61,63,65,67,69,71,73,75,77,79,81,83,85,87,89,91,93,95,97,-1,-1,-1,-1,-1,-1,-1,-1,-1,-1,-1,-1,-1,-1,-1,-1,-1,-1,-1,-1,-1,-1,-1,-1,-1,-1,-1,-1,-1,-1,-1,-1,-1,-1,-1,-1,-1,-1,-1,-1,-1,-1,-1,-1,-1],"loss_changes":[9.496263E1,2.0651646E1,7.164238E1,1.6777725E0,1.5777833E1,1.0891895E1,1.269297E1,2.2331657E0,1.0999775E-1,1.317131E0,1.2060845E1,2.8087392E0,2.8376703E0,4.6080284E0,1.9387817E0,1.19867325E-1,1.600174E0,0E0,0E0,9.716511E-1,1.8213816E0,1.8744102E0,5.6805944E-1,8.9455557E-1,1.3291543E0,1.2055278E0,1.5772152E-1,2.521E-1,9.4488525E-1,1.5119772E0,0E0,0E0,8.944917E-1,0E0,1.8819675E0,8.9991355E-1,6.158447E-1,1.22719765E-1,8.374739E-2,1.9944959E0,6.898963E-1,7.033541E-1,2.3685026E-1,6.486857E-2,1.6888947E0,5.7504016E-1,4.66143E-1,1.670935E-1,4.2164576E-1,1.4555031E-1,1.6274881E-1,3.5527802E-1,8.445902E-1,1.0792322E0,0E0,0E0,0E0,0E0,0E0,0E0,0E0,0E0,0E0,0E0,0E0,0E0,0E0,0E0,0E0,0E0,0E0,0E0,0E0,0E0,0E0,0E0,0E0,0E0,0E0,0E0,0E0,0E0,0E0,0E0,0E0,0E0,0E0,0E0,0E0,0E0,0E0,0E0,0E0,0E0,0E0,0E0,0E0,0E0,0E0],"parents":[2147483647,0,0,1,1,2,2,3,3,4,4,5,5,6,6,7,7,8,8,9,9,10,10,11,11,12,12,13,13,14,14,15,15,16,16,19,19,20,20,21,21,22,22,23,23,24,24,25,25,26,26,27,27,28,28,29,29,32,32,34,34,35,35,36,36,37,37,38,38,39,39,40,40,41,41,42,42,43,43,44,44,45,45,46,46,47,47,48,48,49,49,50,50,51,51,52,52,53,53],"right_children":[2,4,6,8,10,12,14,16,18,20,22,24,26,28,30,32,34,-1,-1,36,38,40,42,44,46,48,50,52,54,56,-1,-1,58,-1,60,62,64,66,68,70,72,74,76,78,80,82,84,86,88,90,92,94,96,98,-1,-1,-1,-1,-1,-1,-1,-1,-1,-1,-1,-1,-1,-1,-1,-1,-1,-1,-1,-1,-1,-1,-1,-1,-1,-1,-1,-1,-1,-1,-1,-1,-1,-1,-1,-1,-1,-1,-1,-1,-1,-1,-1,-1,-1],"split_conditions":[2.5E-1,2.5E-1,7.5E-1,2E-1,1.5E-1,5E-1,2E0,1.5E-1,2E-2,2E0,1E0,2.5E-1,4E-1,4E-1,3E-1,5E-2,2E-2,-2.579764E-2,-1.6274428E-2,5E-1,3E-2,2E-1,2E0,2E-2,1E-2,5E-2,2E-2,5E-2,1E0,2E-2,5.7407446E-2,-2.6112894E-2,1E-1,-2.9312879E-2,5E-2,1E-1,7.5E-1,2E-2,1E-1,3E-2,7.5E-1,3E-2,5E-2,1E-2,3E-2,3E-1,3E-2,3E-1,3E-1,1E-2,5E-2,3E-2,3E-1,1E-2,4.6393182E-2,1.9156385E-2,4.658248E-2,-2.3083039E-2,-5.5310972E-2,-7.593058E-2,-3.067152E-2,-1.7577266E-2,-4.844532E-3,-2.4226464E-2,-1.7300306E-2,-1.3660434E-2,-2.3753066E-2,-2.1254888E-3,3.3485573E-3,-6.813512E-3,-2.2674328E-2,-5.9097433E-3,3.436284E-3,1.3791454E-2,1.5889613E-3,1.5122908E-2,2.521894E-2,-5.9979786E-3,-1.1236778E-2,-3.3640575E-2,-1.293803E-2,2.0859947E-2,2.6527278E-3,-2.575269E-3,-1.0369415E-2,-3.2432468E-4,5.3362725E-3,1.0428808E-2,3.2019056E-2,2.0936875E-2,6.257359E-3,3.1595778E-2,1.682261E-2,2.1300817E-2,1.30119175E-2,1.5607257E-2,3.8329393E-2,4.7524134E-3,3.3983983E-2],"split_indices":[3,1,1,3,3,1,1,3,2,1,1,1,3,3,3,2,2,0,0,1,2,3,1,2,2,2,2,2,1,2,0,0,3,0,2,3,1,2,3,2,1,2,2,2,2,3,2,3,3,2,2,2,3,2,0,0,0,0,0,0,0,0,0,0,0,0,0,0,0,0,0,0,0,0,0,0,0,0,0,0,0,0,0,0,0,0,0,0,0,0,0,0,0,0,0,0,0,0,0],"split_type":[0,0,0,0,0,0,0,0,0,0,0,0,0,0,0,0,0,0,0,0,0,0,0,0,0,0,0,0,0,0,0,0,0,0,0,0,0,0,0,0,0,0,0,0,0,0,0,0,0,0,0,0,0,0,0,0,0,0,0,0,0,0,0,0,0,0,0,0,0,0,0,0,0,0,0,0,0,0,0,0,0,0,0,0,0,0,0,0,0,0,0,0,0,0,0,0,0,0,0],"sum_hessian":[1.201E3,6.78E2,5.23E2,1.17E2,5.61E2,2.72E2,2.51E2,8.6E1,3.1E1,2.89E2,2.72E2,1.8E2,9.2E1,1.68E2,8.3E1,6.1E1,2.5E1,1E1,2.1E1,2.39E2,5E1,1.67E2,1.05E2,8E1,1E2,6.2E1,3E1,1.11E2,5.7E1,2.7E1,5.6E1,4.8E1,1.3E1,1.1E1,1.4E1,5.7E1,1.82E2,2.4E1,2.6E1,8.5E1,8.2E1,5.3E1,5.2E1,3.3E1,4.7E1,2.2E1,7.8E1,5.1E1,1.1E1,9E0,2.1E1,9.1E1,2E1,2.9E1,2.8E1,1E1,1.7E1,9E0,4E0,8E0,6E0,3E1,2.7E1,5.8E1,1.24E2,1.5E1,9E0,1.3E1,1.3E1,5.3E1,3.2E1,5.1E1,3.1E1,3.5E1,1.8E1,4.2E1,1E1,1.6E1,1.7E1,1.5E1,3.2E1,5E0,1.7E1,4.3E1,3.5E1,2.5E1,2.6E1,7E0,4E0,5E0,4E0,1.4E1,7E0,6.7E1,2.4E1,1.1E1,9E0,4E0,2.5E1],"tree_param":{"num_deleted":"0","num_feature":"4","num_nodes":"99","size_leaf_vector":"1"}},{"base_weights":[-8.086817E-3,1.2555768E0,-1.0152051E0,1.6133611E0,9.204661E-1,-6.293957E-2,-1.244271E0,8.676303E-2,7.4140094E-2,5.747382E-2,6.8978846E-1,-4.893052E-1,2.0965527E-1,-1.7235678E0,-8.4982914E-1,5.544451E-1,8.135102E-1,-8.7429065E-1,-2.883321E-1,-2.5079614E-1,4.9094206E-1,-1.817639E0,-1.1897211E0,-1.3768587E0,-2.6856562E-1,2.4499891E-2,3.1202078E-2,3.1758137E-2,4.679252E-2,-5.0773706E-2,-2.942625E-2,-3.9769462E-1,1.3047817E-1,-3.9549503E-1,-1.0836796E-1,3.2296944E-1,6.4599586E-1,-1.5243196E0,-9.493195E-2,-1.457402E0,-5.422514E-1,-8.372676E-1,-1.5449544E0,-5.692005E-1,7.646151E-2,-3.3021465E-2,-1.0752021E-2,-2.5267324E-3,9.9619115E-3,-2.6891727E-2,-1.2042132E-2,-1.1738903E-2,3.1595335E-3,8.463727E-3,2.3182163E-2,2.0617967E-2,3.6584303E-2,-8.968749E-2,-6.3832626E-2,-4.461947E-2,-8.2416706E-2,-1.5098107E-3,-3.832382E-2,-6.769901E-2,-2.6341757E-2,-8.721994E-2,-5.872063E-2,-1.1735092E-2,-4.577185E-2,-7.1205026E-3,2.8133795E-2],"categories":[],"categories_nodes":[],"categories_segments":[],"categories_sizes":[],"default_left":[0,0,0,0,0,0,0,0,0,0,0,0,0,0,0,0,0,0,0,0,0,0,0,0,0,0,0,0,0,0,0,0,0,0,0,0,0,0,0,0,0,0,0,0,0,0,0,0,0,0,0,0,0,0,0,0,0,0,0,0,0,0,0,0,0,0,0,0,0,0,0],"id":1,"left_children":[1,3,5,7,9,11,13,-1,-1,-1,15,17,19,21,23,25,27,29,31,33,35,37,39,41,43,-1,-1,-1,-1,-1,-1,45,47,49,51,53,55,57,-1,59,61,63,65,67,69,-1,-1,-1,-1,-1,-1,-1,-1,-1,-1,-1,-1,-1,-1,-1,-1,-1,-1,-1,-1,-1,-1,-1,-1,-1,-1],"loss_changes":[1.5208292E3,6.2060608E1,1.4497913E2,1.4852905E0,1.3787521E1,1.5211845E1,9.986865E1,0E0,0E0,0E0,1.8932343E0,3.6938715E0,1.0484638E1,9.94043E0,9.030774E1,8.192062E-3,9.547348E-1,8.8238716E-2,1.6549656E0,5.960263E-1,1.0936022E0,1.9289551E0,5.969017E0,1.2765411E1,1.4772786E1,0E0,0E0,0E0,0E0,0E0,0E0,1.2016892E0,1.0964003E-1,2.0066357E-1,3.8351038E-1,4.836588E-1,1.9879246E-1,9.797287E-1,0E0,1.4417763E0,1.4694576E0,5.542448E0,6.5979614E0,8.5871315E0,7.2101703E0,0E0,0E0,0E0,0E0,0E0,0E0,0E0,0E0,0E0,0E0,0E0,0E0,0E0,0E0,0E0,0E0,0E0,0E0,0E0,0E0,0E0,0E0,0E0,0E0,0E0,0E0],"parents":[2147483647,0,0,1,1,2,2,3,3,4,4,5,5,6,6,10,10,11,11,12,12,13,13,14,14,15,15,16,16,17,17,18,18,19,19,20,20,21,21,22,22,23,23,24,24,31,31,32,32,33,33,34,34,35,35,36,36,37,37,39,39,40,40,41,41,42,42,43,43,44,44],"right_children":[2,4,6,8,10,12,14,-1,-1,-1,16,18,20,22,24,26,28,30,32,34,36,38,40,42,44,-1,-1,-1,-1,-1,-1,46,48,50,52,54,56,58,-1,60,62,64,66,68,70,-1,-1,-1,-1,-1,-1,-1,-1,-1,-1,-1,-1,-1,-1,-1,-1,-1,-1,-1,-1,-1,-1,-1,-1,-1,-1],"split_conditions":[1E2,8E1,1.1E2,7E1,9E1,2E-1,2E-1,8.676303E-2,7.4140094E-2,5.747382E-2,7.5E-1,5E-1,5E-1,2E0,7.5E-1,2.5E-1,2E-1,1.5E-1,2E0,3E-1,1E0,1.2E2,1.5E-1,1.2E2,3E-1,2.4499891E-2,3.1202078E-2,3.1758137E-2,4.679252E-2,-5.0773706E-2,-2.942625E-2,1E-1,1E-1,2.5E-1,2.5E-1,3E-1,2.5E-1,5E-1,-9.493195E-2,1.2E2,1.2E2,2.5E-1,5E-1,1.3E2,2E0,-3.3021465E-2,-1.0752021E-2,-2.5267324E-3,9.9619115E-3,-2.6891727E-2,-1.2042132E-2,-1.1738903E-2,3.1595335E-3,8.463727E-3,2.3182163E-2,2.0617967E-2,3.6584303E-2,-8.968749E-2,-6.3832626E-2,-4.461947E-2,-8.2416706E-2,-1.5098107E-3,-3.832382E-2,-6.769901E-2,-2.6341757E-2,-8.721994E-2,-5.872063E-2,-1.1735092E-2,-4.577185E-2,-7.1205026E-3,2.8133795E-2],"split_indices":[0,0,0,0,0,3,3,0,0,0,1,1,1,1,1,3,3,3,1,3,1,0,3,0,3,0,0,0,0,0,0,3,3,1,1,3,3,1,0,0,0,1,1,0,1,0,0,0,0,0,0,0,0,0,0,0,0,0,0,0,0,0,0,0,0,0,0,0,0,0,0],"split_type":[0,0,0,0,0,0,0,0,0,0,0,0,0,0,0,0,0,0,0,0,0,0,0,0,0,0,0,0,0,0,0,0,0,0,0,0,0,0,0,0,0,0,0,0,0,0,0,0,0,0,0,0,0,0,0,0,0,0,0,0,0,0,0,0,0,0,0,0,0,0,0],"sum_hessian":[1.193E3,5.29E2,6.64E2,2.54E2,2.75E2,1.29E2,5.35E2,1.25E2,1.29E2,1.36E2,1.39E2,5E1,7.9E1,2.4E2,2.95E2,6.9E1,7E1,1.6E1,3.4E1,3E1,4.9E1,2.02E2,3.8E1,1.54E2,1.41E2,4E1,2.9E1,3.1E1,3.9E1,9E0,7E0,2.7E1,7E0,1.4E1,1.6E1,2.5E1,2.4E1,4.8E1,1.54E2,2.6E1,1.2E1,3.8E1,1.16E2,7.5E1,6.6E1,1E1,1.7E1,2E0,5E0,6E0,8E0,9E0,7E0,1.3E1,1.2E1,8E0,1.6E1,2E1,2.8E1,8E0,1.8E1,4E0,8E0,1.3E1,2.5E1,7.3E1,4.3E1,3.9E1,3.6E1,4.6E1,2E1],"tree_param":{"num_deleted":"0","num_feature":"4","num_nodes":"71","size_leaf_vector":"1"}},{"base_weights":[2.0643981E-2,1.2034731E0,-8.983814E-1,1.5321642E0,8.777047E-1,-3.6220303E-1,-1.2612104E0,8.2268E-2,7.016695E-2,5.435967E-2,6.448098E-1,-9.102574E-1,-8.919704E-2,-1.6291293E0,-8.8134736E-1,2.622973E-2,3.7747495E-2,-5.204169E-1,-6.529951E-2,1.7223339E-1,-3.7040946E-1,-8.8296115E-2,-6.678043E-2,-1.1018203E0,-4.3382832E-1,-3.438293E-2,-3.1600574E-1,2.3031002E-3,3.6099362E-1,-5.4383314E-1,1.4334576E-1,-7.781734E-1,-6.301397E-2,-2.9632702E-2,-7.0591956E-1,-1.9318098E-2,-8.181682E-3,-5.778202E-3,6.004083E-3,1.1332756E-2,2.5879202E-2,-3.3650257E-2,-2.3652041E-2,-3.5829705E-3,1.9220568E-2,-4.8913542E-2,-3.4770828E-2,-8.643706E-3,4.43015E-3,-3.729407E-2,-2.2641849E-2],"categories":[],"categories_nodes":[],"categories_segments":[],"categories_sizes":[],"default_left":[0,0,0,0,0,0,0,0,0,0,0,0,0,0,0,0,0,0,0,0,0,0,0,0,0,0,0,0,0,0,0,0,0,0,0,0,0,0,0,0,0,0,0,0,0,0,0,0,0,0,0],"id":2,"left_children":[1,3,5,7,9,11,13,-1,-1,-1,15,17,19,21,23,-1,-1,25,-1,27,29,-1,-1,31,33,-1,35,37,39,41,43,45,-1,47,49,-1,-1,-1,-1,-1,-1,-1,-1,-1,-1,-1,-1,-1,-1,-1,-1],"loss_changes":[1.2903224E3,5.422827E1,1.2949664E2,1.4386597E0,1.2130432E1,4.0466408E1,5.418817E1,0E0,0E0,0E0,1.2854996E0,1.320488E1,1.3443979E1,5.711914E0,1.9057816E1,0E0,0E0,1.3894396E0,0E0,3.0463963E0,7.91852E0,0E0,0E0,5.7888794E0,7.3476143E0,0E0,1.833458E-1,7.2187036E-1,8.293128E-1,2.851677E-1,1.2196445E0,8.142853E-2,0E0,4.895322E-1,6.6782E-2,0E0,0E0,0E0,0E0,0E0,0E0,0E0,0E0,0E0,0E0,0E0,0E0,0E0,0E0,0E0,0E0],"parents":[2147483647,0,0,1,1,2,2,3,3,4,4,5,5,6,6,10,10,11,11,12,12,13,13,14,14,17,17,19,19,20,20,23,23,24,24,26,26,27,27,28,28,29,29,30,30,31,31,33,33,34,34],"right_children":[2,4,6,8,10,12,14,-1,-1,-1,16,18,20,22,24,-1,-1,26,-1,28,30,-1,-1,32,34,-1,36,38,40,42,44,46,-1,48,50,-1,-1,-1,-1,-1,-1,-1,-1,-1,-1,-1,-1,-1,-1,-1,-1],"split_conditions":[1E2,8E1,1.2E2,7E1,9E1,5E-1,7.5E-1,8.2268E-2,7.016695E-2,5.435967E-2,7.5E-1,1.1E2,1.1E2,5E-1,2E0,2.622973E-2,3.7747495E-2,2.5E-1,-6.529951E-2,1E0,2E0,-8.8296115E-2,-6.678043E-2,1.3E2,1.3E2,-3.438293E-2,3E-2,7.5E-1,2E0,7.5E-1,3E-2,1E-2,-6.301397E-2,2E-2,5E-2,-1.9318098E-2,-8.181682E-3,-5.778202E-3,6.004083E-3,1.1332756E-2,2.5879202E-2,-3.3650257E-2,-2.3652041E-2,-3.5829705E-3,1.9220568E-2,-4.8913542E-2,-3.4770828E-2,-8.643706E-3,4.43015E-3,-3.729407E-2,-2.2641849E-2],"split_indices":[0,0,0,0,0,1,1,0,0,0,1,0,0,1,1,0,0,1,0,1,1,0,0,0,0,0,2,1,1,1,2,2,0,2,2,0,0,0,0,0,0,0,0,0,0,0,0,0,0,0,0],"split_type":[0,0,0,0,0,0,0,0,0,0,0,0,0,0,0,0,0,0,0,0,0,0,0,0,0,0,0,0,0,0,0,0,0,0,0,0,0,0,0,0,0,0,0,0,0,0,0,0,0,0,0],"sum_hessian":[1.185E3,5.18E2,6.67E2,2.56E2,2.62E2,2.7E2,3.97E2,1.3E2,1.26E2,1.36E2,1.26E2,8.9E1,1.81E2,2E2,1.97E2,6.3E1,6.3E1,4.6E1,4.3E1,9.4E1,8.7E1,1.33E2,6.7E1,1.31E2,6.6E1,2.4E1,2.2E1,5E1,4.4E1,6.5E1,2.2E1,4.5E1,8.6E1,2.7E1,3.9E1,1.4E1,8E0,2.5E1,2.5E1,2.5E1,1.9E1,2E1,4.5E1,1.2E1,1E1,1E1,3.5E1,1.2E1,1.5E1,3.2E1,7E0],"tree_param":{"num_deleted":"0","num_feature":"4","num_nodes":"51","size_leaf_vector":"1"}},{"base_weights":[1.4692772E-2,-2.057819E-1,3.027517E-1,-3.6077222E-1,-5.2436568E-2,-1.4694068E-1,5.358207E-1,-4.0652618E-1,-1.7110525E-1,-5.435194E-1,5.0411537E-2,-2.112887E-1,3.1464144E-3,4.0394154E-1,9.237835E-1,-3.158068E-1,-4.3729842E-1,-2.876726E-1,4.0897537E-2,-7.67224E-1,-3.238021E-1,-8.995514E-2,2.6734746E-1,-3.0585232E-1,-1.23451285E-1,1.1796145E-1,-9.6464835E-2,2.6769805E-1,6.4982426E-1,8.166295E-1,5.455045E-2,-2.2600202E-2,-2.7279022E-1,-4.6287286E-1,-2.5439465E-1,-2.0085081E-1,-2.3962958E-2,-8.741289E-2,1.06420845E-1,-2.5916616E-2,-4.4526413E-2,-3.212383E-2,-2.2555122E-1,4.499638E-2,-1.7822544E-1,1.6577461E-1,3.543072E-1,-1.9770917E-1,-6.171012E-1,1.3164697E-2,-2.732864E-1,-2.0344455E-3,1.0304703E-2,-5.319531E-2,-1.4211605E-1,1.7938426E-1,3.900363E-1,4.4049433E-1,7.489838E-1,3.4158956E-2,4.9210034E-2,3.9461176E-3,-1.6532136E-2,-2.662302E-2,-2.2154536E-2,-2.2564175E-2,-3.8232186E-4,-1.9885687E-2,-5.9329225E-3,-1.1121226E-3,-6.7550377E-3,-2.828806E-3,1.2879664E-2,-4.3964256E-3,-2.3786768E-2,-3.3731037E-3,7.969117E-3,-1.3035017E-2,-6.951882E-3,3.7956615E-3,1.3746914E-2,1.573245E-2,2.4335964E-2,-1.1688947E-2,-7.7452213E-3,-4.487918E-2,-1.6519075E-2,-3.030767E-3,1.3948587E-2,-1.8466158E-2,-4.1224114E-3,2.2940158E-3,-2.8797963E-3,2.589064E-4,-1.2210175E-2,-1.5532936E-2,3.540322E-3,2.5830618E-3,1.1800918E-2,1.3420248E-2,2.4872733E-2,9.548132E-3,2.6491722E-2,2.9285556E-2,4.1953016E-2],"categories":[],"categories_nodes":[],"categories_segments":[],"categories_sizes":[],"default_left":[0,0,0,0,0,0,0,0,0,0,0,0,0,0,0,0,0,0,0,0,0,0,0,0,0,0,0,0,0,0,0,0,0,0,0,0,0,0,0,0,0,0,0,0,0,0,0,0,0,0,0,0,0,0,0,0,0,0,0,0,0,0,0,0,0,0,0,0,0,0,0,0,0,0,0,0,0,0,0,0,0,0,0,0,0,0,0,0,0,0,0,0,0,0,0,0,0,0,0,0,0,0,0,0,0],"id":3,"left_children":[1,3,5,7,9,11,13,15,17,19,21,23,25,27,29,31,33,35,37,39,41,43,45,47,49,51,53,55,57,59,-1,-1,61,63,65,67,-1,69,71,-1,-1,-1,73,75,77,79,81,83,85,87,89,91,-1,93,95,97,99,101,103,-1,-1,-1,-1,-1,-1,-1,-1,-1,-1,-1,-1,-1,-1,-1,-1,-1,-1,-1,-1,-1,-1,-1,-1,-1,-1,-1,-1,-1,-1,-1,-1,-1,-1,-1,-1,-1,-1,-1,-1,-1,-1,-1,-1,-1,-1],"loss_changes":[7.690903E1,1.6285276E1,5.5103645E1,2.8896446E0,1.7502802E1,1.7390699E0,1.7329666E1,6.2680817E-1,1.6922226E0,2.700676E0,8.763364E0,1.0088267E0,6.404069E-1,8.536022E0,6.6799164E-1,3.0438614E-1,8.271332E-1,6.356313E-1,2.1948564E-1,4.2840385E-1,8.570106E-1,2.0926564E0,9.393654E-1,1.8975596E0,1.3750793E0,2.7538365E-1,5.169928E-2,1.7559357E0,1.5797272E0,6.0227203E-1,0E0,0E0,1.2062464E0,6.351471E-3,1.3082622E0,4.705881E-1,0E0,2.496557E-2,4.3346462E-1,0E0,0E0,0E0,8.533758E-1,9.1120887E-1,3.0634618E-1,5.08847E-1,1.6192818E-1,3.4808636E-2,9.097519E-1,7.229151E-1,5.560293E-1,3.45891E-2,0E0,1.9081119E-1,5.24408E-1,7.1115446E-1,7.810612E-1,6.122041E-1,4.056816E-1,0E0,0E0,0E0,0E0,0E0,0E0,0E0,0E0,0E0,0E0,0E0,0E0,0E0,0E0,0E0,0E0,0E0,0E0,0E0,0E0,0E0,0E0,0E0,0E0,0E0,0E0,0E0,0E0,0E0,0E0,0E0,0E0,0E0,0E0,0E0,0E0,0E0,0E0,0E0,0E0,0E0,0E0,0E0,0E0,0E0,0E0],"parents":[2147483647,0,0,1,1,2,2,3,3,4,4,5,5,6,6,7,7,8,8,9,9,10,10,11,11,12,12,13,13,14,14,15,15,16,16,17,17,18,18,19,19,20,20,21,21,22,22,23,23,24,24,25,25,26,26,27,27,28,28,29,29,32,32,33,33,34,34,35,35,37,37,38,38,42,42,43,43,44,44,45,45,46,46,47,47,48,48,49,49,50,50,51,51,53,53,54,54,55,55,56,56,57,57,58,58],"right_children":[2,4,6,8,10,12,14,16,18,20,22,24,26,28,30,32,34,36,38,40,42,44,46,48,50,52,54,56,58,60,-1,-1,62,64,66,68,-1,70,72,-1,-1,-1,74,76,78,80,82,84,86,88,90,92,-1,94,96,98,100,102,104,-1,-1,-1,-1,-1,-1,-1,-1,-1,-1,-1,-1,-1,-1,-1,-1,-1,-1,-1,-1,-1,-1,-1,-1,-1,-1,-1,-1,-1,-1,-1,-1,-1,-1,-1,-1,-1,-1,-1,-1,-1,-1,-1,-1,-1,-1],"split_conditions":[2.5E-1,1.5E-1,5E-1,5E-2,2.5E-1,4E-1,2E0,1E-2,1E0,2E-1,1E0,2.5E-1,2E-2,4E-1,4E-1,2.5E-1,2E0,7.5E-1,2E0,2E-2,1E-2,2E-2,2E0,5E-2,3E-1,2.5E-1,2.5E-1,3E-2,7.5E-1,3E-2,5.455045E-2,-2.2600202E-2,5E-1,2.5E-1,1E-1,2.5E-1,-2.3962958E-2,1E-1,1E-1,-2.5916616E-2,-4.4526413E-2,-3.212383E-2,5E-2,1E-2,5E-1,2E-1,5E-2,2E-2,3E-1,5E-2,3E-2,1E-2,1.0304703E-2,5E-2,5E-2,7.5E-1,3E-1,2E-2,2E-2,3.4158956E-2,4.9210034E-2,3.9461176E-3,-1.6532136E-2,-2.662302E-2,-2.2154536E-2,-2.2564175E-2,-3.8232186E-4,-1.9885687E-2,-5.9329225E-3,-1.1121226E-3,-6.7550377E-3,-2.828806E-3,1.2879664E-2,-4.3964256E-3,-2.3786768E-2,-3.3731037E-3,7.969117E-3,-1.3035017E-2,-6.951882E-3,3.7956615E-3,1.3746914E-2,1.573245E-2,2.4335964E-2,-1.1688947E-2,-7.7452213E-3,-4.487918E-2,-1.6519075E-2,-3.030767E-3,1.3948587E-2,-1.8466158E-2,-4.1224114E-3,2.2940158E-3,-2.8797963E-3,2.589064E-4,-1.2210175E-2,-1.5532936E-2,3.540322E-3,2.5830618E-3,1.1800918E-2,1.3420248E-2,2.4872733E-2,9.548132E-3,2.6491722E-2,2.9285556E-2,4.1953016E-2],"split_indices":[3,3,1,2,1,3,1,2,1,3,1,1,2,3,3,1,1,1,1,2,2,2,1,2,3,1,1,2,1,2,0,0,1,1,3,1,0,3,3,0,0,0,2,2,1,3,2,2,3,2,2,2,0,2,2,1,3,2,2,0,0,0,0,0,0,0,0,0,0,0,0,0,0,0,0,0,0,0,0,0,0,0,0,0,0,0,0,0,0,0,0,0,0,0,0,0,0,0,0,0,0,0,0,0,0],"split_type":[0,0,0,0,0,0,0,0,0,0,0,0,0,0,0,0,0,0,0,0,0,0,0,0,0,0,0,0,0,0,0,0,0,0,0,0,0,0,0,0,0,0,0,0,0,0,0,0,0,0,0,0,0,0,0,0,0,0,0,0,0,0,0,0,0,0,0,0,0,0,0,0,0,0,0,0,0,0,0,0,0,0,0,0,0,0,0,0,0,0,0,0,0,0,0,0,0,0,0,0,0,0,0,0,0],"sum_hessian":[1.209E3,6.85E2,5.24E2,3.4E2,3.45E2,1.79E2,3.45E2,2.73E2,6.7E1,5.9E1,2.86E2,1.25E2,5.4E1,2.59E2,8.6E1,7.2E1,2.01E2,4.3E1,2.4E1,2.8E1,3.1E1,1.74E2,1.12E2,5.9E1,6.6E1,2.5E1,2.9E1,1.68E2,9.1E1,5.6E1,3E1,1.5E1,5.7E1,1.75E2,2.6E1,3.1E1,1.2E1,8E0,1.6E1,1.1E1,1.7E1,6E0,2.5E1,6.9E1,1.05E2,5.3E1,5.9E1,4.5E1,1.4E1,3.5E1,3.1E1,1.1E1,1.4E1,1.6E1,1.3E1,9.9E1,6.9E1,3.1E1,6E1,3.4E1,2.2E1,8E0,4.9E1,3.3E1,1.42E2,1.4E1,1.2E1,8E0,2.3E1,4E0,4E0,8E0,8E0,1.7E1,8E0,3.5E1,3.4E1,3.2E1,7.3E1,3E1,2.3E1,4.8E1,1.1E1,2.2E1,2.3E1,6E0,8E0,2.8E1,7E0,2E1,1.1E1,6E0,5E0,1.3E1,3E0,7E0,6E0,3.1E1,6.8E1,3.4E1,3.5E1,9E0,2.2E1,2.4E1,3.6E1],"tree_param":{"num_deleted":"0","num_feature":"4","num_nodes":"105","size_leaf_vector":"1"}},{"base_weights":[4.500645E-3,1.1445718E0,-8.878831E-1,1.4527358E0,8.4020007E-1,-3.607692E-1,-1.2196522E0,7.82579E-2,6.685237E-2,5.1880848E-2,6.241714E-1,-8.897588E-1,3.0479912E-2,-1.5667468E0,-7.4996865E-1,2.6776692E-2,3.5637457E-2,-4.829159E-1,-1.2667168E0,2.2308092E-1,-1.896773E-1,-8.671336E-2,-1.3815401E0,-9.3917316E-1,-3.7477365E-1,-6.101814E-1,-1.8741569E-1,-7.2040476E-2,-4.363024E-2,5.4742105E-2,3.9425966E-1,-2.7543232E-1,9.8922916E-2,-5.4663815E-2,-7.558278E-2,-6.4908344E-1,-1.0814395E0,-8.541245E-2,-5.476656E-1,-3.57971E-2,-2.1871082E-2,-1.0336596E-2,-4.7923564E-3,-2.852128E-3,7.4783037E-3,1.2714869E-2,2.4860766E-2,-1.897824E-2,-6.764538E-3,-7.519162E-3,8.154366E-3,-9.284397E-3,-3.6160868E-2,-6.0507715E-2,-4.7268193E-2,-1.0081024E-2,3.512672E-3,-1.0982798E-2,-3.0732334E-2],"categories":[],"categories_nodes":[],"categories_segments":[],"categories_sizes":[],"default_left":[0,0,0,0,0,0,0,0,0,0,0,0,0,0,0,0,0,0,0,0,0,0,0,0,0,0,0,0,0,0,0,0,0,0,0,0,0,0,0,0,0,0,0,0,0,0,0,0,0,0,0,0,0,0,0,0,0,0,0],"id":4,"left_children":[1,3,5,7,9,11,13,-1,-1,-1,15,17,19,21,23,-1,-1,25,27,29,31,-1,33,35,37,39,41,-1,-1,43,45,47,49,-1,-1,51,53,55,57,-1,-1,-1,-1,-1,-1,-1,-1,-1,-1,-1,-1,-1,-1,-1,-1,-1,-1,-1,-1],"loss_changes":[1.2188212E3,4.8116333E1,1.17079346E2,1.2888184E0,1.0739288E1,5.4045433E1,6.599115E1,0E0,0E0,0E0,6.389694E-1,1.6411545E1,6.4450912E0,4.9261475E0,1.2212997E1,0E0,0E0,1.9540262E0,2.6536255E0,2.3125153E0,1.7844195E0,0E0,2.735733E0,4.126648E0,3.0049458E0,3.81135E-1,1.2023032E-2,0E0,0E0,4.5372593E-1,4.4995594E-1,7.5127935E-1,2.964675E-1,0E0,0E0,1.2741928E0,2.0461273E-1,4.4831556E-1,6.9986534E-1,0E0,0E0,0E0,0E0,0E0,0E0,0E0,0E0,0E0,0E0,0E0,0E0,0E0,0E0,0E0,0E0,0E0,0E0,0E0,0E0],"parents":[2147483647,0,0,1,1,2,2,3,3,4,4,5,5,6,6,10,10,11,11,12,12,13,13,14,14,17,17,18,18,19,19,20,20,22,22,23,23,24,24,25,25,26,26,29,29,30,30,31,31,32,32,35,35,36,36,37,37,38,38],"right_children":[2,4,6,8,10,12,14,-1,-1,-1,16,18,20,22,24,-1,-1,26,28,30,32,-1,34,36,38,40,42,-1,-1,44,46,48,50,-1,-1,52,54,56,58,-1,-1,-1,-1,-1,-1,-1,-1,-1,-1,-1,-1,-1,-1,-1,-1,-1,-1,-1,-1],"split_conditions":[1E2,8E1,1.2E2,7E1,9E1,2E-1,2.5E-1,7.82579E-2,6.685237E-2,5.1880848E-2,2.5E-1,1.1E2,1.1E2,1.5E-1,4E-1,2.6776692E-2,3.5637457E-2,1.5E-1,1.5E-1,3E-1,4E-1,-8.671336E-2,1.3E2,1.3E2,1.3E2,1E-1,3E-2,-7.2040476E-2,-4.363024E-2,2.5E-1,4E-1,3E-2,1E-2,-5.4663815E-2,-7.558278E-2,1E-2,3E-1,3E-2,1E-2,-3.57971E-2,-2.1871082E-2,-1.0336596E-2,-4.7923564E-3,-2.852128E-3,7.4783037E-3,1.2714869E-2,2.4860766E-2,-1.897824E-2,-6.764538E-3,-7.519162E-3,8.154366E-3,-9.284397E-3,-3.6160868E-2,-6.0507715E-2,-4.7268193E-2,-1.0081024E-2,3.512672E-3,-1.0982798E-2,-3.0732334E-2],"split_indices":[0,0,0,0,0,3,3,0,0,0,3,0,0,3,3,0,0,3,3,3,3,0,0,0,0,3,2,0,0,3,3,2,2,0,0,2,3,2,2,0,0,0,0,0,0,0,0,0,0,0,0,0,0,0,0,0,0,0,0],"split_type":[0,0,0,0,0,0,0,0,0,0,0,0,0,0,0,0,0,0,0,0,0,0,0,0,0,0,0,0,0,0,0,0,0,0,0,0,0,0,0,0,0,0,0,0,0,0,0,0,0,0,0,0,0,0,0,0,0,0,0],"sum_hessian":[1.196E3,5.25E2,6.71E2,2.59E2,2.66E2,2.6E2,4.11E2,1.25E2,1.34E2,1.37E2,1.29E2,1.1E2,1.5E2,2.35E2,1.76E2,6.8E1,6.1E1,5.4E1,5.6E1,8E1,7E1,1.19E2,1.16E2,1.16E2,6E1,3.7E1,1.7E1,3.7E1,1.9E1,4.1E1,3.9E1,5.4E1,1.6E1,3.9E1,7.7E1,4E1,7.6E1,2.3E1,3.7E1,2.1E1,1.6E1,1.3E1,4E0,1.9E1,2.2E1,1.8E1,2.1E1,3E1,2.4E1,3E0,1.3E1,6E0,3.4E1,3.5E1,4.1E1,1.3E1,1E1,7E0,3E1],"tree_param":{"num_deleted":"0","num_feature":"4","num_nodes":"59","size_leaf_vector":"1"}},{"base_weights":[-5.591624E-3,1.0768296E0,-8.4711915E-1,1.3825651E0,7.922866E-1,-1.3135653E0,-4.8889786E-1,7.4332915E-2,6.343188E-2,4.947334E-2,5.866302E-1,-4.467901E-1,-1.5106661E0,-9.413124E-1,-2.469588E-2,2.3627652E-2,6.8198895E-1,-8.1272703E-1,-2.1075115E-1,-1.5850575E0,-1.1036783E0,-3.654834E-1,-1.3094873E0,4.0320393E-1,-3.2587144E-1,2.81963E-2,4.057923E-2,-4.674885E-2,-2.6612869E-2,-3.4477532E-1,1.7218924E-1,-8.262392E-2,-1.4079332E0,-6.240117E-1,-1.4174418E0,-7.4830526E-1,-1.4063406E-1,-7.588584E-2,-9.49345E-1,2.645459E-1,3.4317214E-2,-5.368235E-1,1.5196294E-1,-2.7325947E-2,-9.697721E-3,-1.3597687E-3,1.127174E-2,-4.9526542E-2,-7.644763E-2,-4.4241082E-2,-9.369831E-3,-7.778382E-2,-4.7325652E-2,-1.7664647E-2,-6.03649E-2,2.383E-3,-1.6918315E-2,-6.518357E-2,-2.7773125E-2,3.6846602E-3,2.2638334E-2,-3.5587355E-2,1.1767311E-3,-5.3120283E-3,2.2339638E-2],"categories":[],"categories_nodes":[],"categories_segments":[],"categories_sizes":[],"default_left":[0,0,0,0,0,0,0,0,0,0,0,0,0,0,0,0,0,0,0,0,0,0,0,0,0,0,0,0,0,0,0,0,0,0,0,0,0,0,0,0,0,0,0,0,0,0,0,0,0,0,0,0,0,0,0,0,0,0,0,0,0,0,0,0,0],"id":5,"left_children":[1,3,5,7,9,11,13,-1,-1,-1,15,17,19,21,23,-1,25,27,29,31,33,35,37,39,41,-1,-1,-1,-1,43,45,-1,47,49,51,53,55,-1,57,59,-1,61,63,-1,-1,-1,-1,-1,-1,-1,-1,-1,-1,-1,-1,-1,-1,-1,-1,-1,-1,-1,-1,-1,-1],"loss_changes":[1.1203926E3,4.5707886E1,1.1498474E2,1.1736145E0,1.0814499E1,5.0577698E1,8.2511345E1,0E0,0E0,0E0,1.2006798E0,4.7521124E0,5.6380005E0,4.171057E1,2.5261623E1,0E0,6.7456055E-1,2.5667477E-1,1.9070044E0,1.09558105E-1,5.2860756E0,6.694866E0,7.6332245E0,2.9984655E0,1.1673595E1,0E0,0E0,0E0,0E0,7.155335E-1,1.1229426E-1,0E0,1.6678925E0,1.8839111E0,8.9897156E-2,4.831394E0,1.9149486E0,0E0,5.8353233E0,1.9782903E0,0E0,7.8583393E0,2.7880068E0,0E0,0E0,0E0,0E0,0E0,0E0,0E0,0E0,0E0,0E0,0E0,0E0,0E0,0E0,0E0,0E0,0E0,0E0,0E0,0E0,0E0,0E0],"parents":[2147483647,0,0,1,1,2,2,3,3,4,4,5,5,6,6,10,10,11,11,12,12,13,13,14,14,16,16,17,17,18,18,19,19,20,20,21,21,22,22,23,23,24,24,29,29,30,30,32,32,33,33,34,34,35,35,36,36,38,38,39,39,41,41,42,42],"right_children":[2,4,6,8,10,12,14,-1,-1,-1,16,18,20,22,24,-1,26,28,30,32,34,36,38,40,42,-1,-1,-1,-1,44,46,-1,48,50,52,54,56,-1,58,60,-1,62,64,-1,-1,-1,-1,-1,-1,-1,-1,-1,-1,-1,-1,-1,-1,-1,-1,-1,-1,-1,-1,-1,-1],"split_conditions":[1E2,8E1,2E-1,7E1,9E1,1.1E2,7.5E-1,7.4332915E-2,6.343188E-2,4.947334E-2,7.5E-1,5E-1,2E0,1.2E2,1.2E2,2.3627652E-2,2.5E-1,1.5E-1,2E0,1.5E-1,1.3E2,2.5E-1,5E-1,2E0,2E0,2.81963E-2,4.057923E-2,-4.674885E-2,-2.6612869E-2,1E-1,1E-1,-8.262392E-2,1.2E2,1.5E-1,1.5E-1,1.1E2,1.1E2,-7.588584E-2,3E-1,3E-1,3.4317214E-2,4E-1,3E-1,-2.7325947E-2,-9.697721E-3,-1.3597687E-3,1.127174E-2,-4.9526542E-2,-7.644763E-2,-4.4241082E-2,-9.369831E-3,-7.778382E-2,-4.7325652E-2,-1.7664647E-2,-6.03649E-2,2.383E-3,-1.6918315E-2,-6.518357E-2,-2.7773125E-2,3.6846602E-3,2.2638334E-2,-3.5587355E-2,1.1767311E-3,-5.3120283E-3,2.2339638E-2],"split_indices":[0,0,3,0,0,0,1,0,0,0,1,1,1,0,0,0,3,3,1,3,0,1,1,1,1,0,0,0,0,3,3,0,0,3,3,0,0,0,3,3,0,3,3,0,0,0,0,0,0,0,0,0,0,0,0,0,0,0,0,0,0,0,0,0,0],"split_type":[0,0,0,0,0,0,0,0,0,0,0,0,0,0,0,0,0,0,0,0,0,0,0,0,0,0,0,0,0,0,0,0,0,0,0,0,0,0,0,0,0,0,0,0,0,0,0,0,0,0,0,0,0,0,0,0,0,0,0,0,0,0,0,0,0],"sum_hessian":[1.228E3,5.37E2,6.91E2,2.57E2,2.8E2,2.99E2,3.92E2,1.28E2,1.29E2,1.41E2,1.39E2,5.6E1,2.43E2,1.98E2,1.94E2,6.6E1,7.3E1,2.1E1,3.5E1,2.03E2,4E1,7.8E1,1.2E2,8E1,1.14E2,4.1E1,3.2E1,1.3E1,8E0,2.6E1,9E0,1.41E2,6.2E1,1.7E1,2.3E1,2.8E1,5E1,7.4E1,4.6E1,5.5E1,2.5E1,7.9E1,3.5E1,1E1,1.6E1,2E0,7E0,1.6E1,4.6E1,1E1,7E0,1.6E1,7E0,1.6E1,1.2E1,2.6E1,2.4E1,2.3E1,2.3E1,2.8E1,2.7E1,6E1,1.9E1,1.9E1,1.6E1],"tree_param":{"num_deleted":"0","num_feature":"4","num_nodes":"65","size_leaf_vector":"1"}},{"base_weights":[-1.8294446E-2,1.0201794E0,-8.100658E-1,1.3073114E0,7.4947447E-1,-1.1427927E0,-3.4814987E-1,7.0514515E-2,6.026715E-2,4.6631496E-2,5.701508E-1,-3.7071106E-1,-1.3250035E0,1.0328193E-1,-6.462222E-1,5.061649E-1,3.553736E-2,-5.953138E-1,-1.2453159E-1,-7.576377E-2,-1.1203245E0,3.0942625E-1,-1.4370626E-1,-8.61484E-1,-2.7530277E-1,2.1816088E-2,2.7498676E-2,-6.6398644E-1,-2.3762485E-1,-2.5657263E-1,7.1340026E-3,-8.959553E-1,-6.723567E-2,2.1081796E-1,2.4180682E-2,-2.5474826E-1,1.5458332E-1,-5.324074E-1,-1.0598243E0,-1.1666573E-2,-4.099151E-1,-3.810182E-2,-2.4776205E-2,-1.899106E-2,-2.3660064E-5,-1.5285757E-2,-9.088645E-3,-1.0806056E-3,3.8905144E-3,-3.5352048E-2,-5.142155E-2,6.7580463E-3,1.2392185E-2,-1.997602E-2,-6.2359436E-3,1.0629124E-2,-7.413707E-3,-2.846224E-2,-1.7695969E-2,-5.8960915E-2,-4.5462962E-2,-9.482092E-3,1.2255905E-3,-1.6279033E-3,-2.3511408E-2],"categories":[],"categories_nodes":[],"categories_segments":[],"categories_sizes":[],"default_left":[0,0,0,0,0,0,0,0,0,0,0,0,0,0,0,0,0,0,0,0,0,0,0,0,0,0,0,0,0,0,0,0,0,0,0,0,0,0,0,0,0,0,0,0,0,0,0,0,0,0,0,0,0,0,0,0,0,0,0,0,0,0,0,0,0],"id":6,"left_children":[1,3,5,7,9,11,13,-1,-1,-1,15,17,19,21,23,25,-1,27,29,-1,31,33,35,37,39,-1,-1,41,43,45,47,49,-1,51,-1,53,55,57,59,61,63,-1,-1,-1,-1,-1,-1,-1,-1,-1,-1,-1,-1,-1,-1,-1,-1,-1,-1,-1,-1,-1,-1,-1,-1],"loss_changes":[9.883292E2,3.9438843E1,1.0441998E2,9.357605E-1,8.336166E0,5.521875E1,3.8685265E1,0E0,0E0,0E0,8.9071655E-1,4.1833925E0,1.0764648E1,5.8997164E0,1.35759735E1,6.294632E-2,0E0,8.247585E-1,6.6247046E-1,0E0,6.749832E0,9.8015356E-1,1.7948815E0,6.550087E0,2.3019814E0,0E0,0E0,1.6747761E-1,2.6959708E-1,1.4270425E-2,4.2315014E-2,1.3250351E0,0E0,8.415389E-2,0E0,6.8433285E-1,2.9500264E-1,8.126068E-2,1.3220978E-1,1.5274216E-1,9.633522E-1,0E0,0E0,0E0,0E0,0E0,0E0,0E0,0E0,0E0,0E0,0E0,0E0,0E0,0E0,0E0,0E0,0E0,0E0,0E0,0E0,0E0,0E0,0E0,0E0],"parents":[2147483647,0,0,1,1,2,2,3,3,4,4,5,5,6,6,10,10,11,11,12,12,13,13,14,14,15,15,17,17,18,18,20,20,21,21,22,22,23,23,24,24,27,27,28,28,29,29,30,30,31,31,33,33,35,35,36,36,37,37,38,38,39,39,40,40],"right_children":[2,4,6,8,10,12,14,-1,-1,-1,16,18,20,22,24,26,-1,28,30,-1,32,34,36,38,40,-1,-1,42,44,46,48,50,-1,52,-1,54,56,58,60,62,64,-1,-1,-1,-1,-1,-1,-1,-1,-1,-1,-1,-1,-1,-1,-1,-1,-1,-1,-1,-1,-1,-1,-1,-1],"split_conditions":[1E2,8E1,2.5E-1,7E1,9E1,1.1E2,1.2E2,7.0514515E-2,6.026715E-2,4.6631496E-2,3E-1,1.5E-1,1.5E-1,1.1E2,4E-1,2E-2,3.553736E-2,5E-2,2E-1,-7.576377E-2,1.3E2,4E-1,4E-1,1.3E2,1.3E2,2.1816088E-2,2.7498676E-2,1E-1,1E-1,2E-2,5E-2,1.2E2,-6.723567E-2,2E-2,2.4180682E-2,3E-1,5E-2,5E-2,3E-1,1E-2,1E-2,-3.810182E-2,-2.4776205E-2,-1.899106E-2,-2.3660064E-5,-1.5285757E-2,-9.088645E-3,-1.0806056E-3,3.8905144E-3,-3.5352048E-2,-5.142155E-2,6.7580463E-3,1.2392185E-2,-1.997602E-2,-6.2359436E-3,1.0629124E-2,-7.413707E-3,-2.846224E-2,-1.7695969E-2,-5.8960915E-2,-4.5462962E-2,-9.482092E-3,1.2255905E-3,-1.6279033E-3,-2.3511408E-2],"split_indices":[0,0,3,0,0,0,0,0,0,0,3,3,3,0,3,2,0,2,3,0,0,3,3,0,0,0,0,3,3,2,2,0,0,2,0,3,2,2,3,2,2,0,0,0,0,0,0,0,0,0,0,0,0,0,0,0,0,0,0,0,0,0,0,0,0],"split_type":[0,0,0,0,0,0,0,0,0,0,0,0,0,0,0,0,0,0,0,0,0,0,0,0,0,0,0,0,0,0,0,0,0,0,0,0,0,0,0,0,0,0,0,0,0,0,0,0,0,0,0,0,0,0,0,0,0,0,0,0,0,0,0,0,0],"sum_hessian":[1.2E3,5.19E2,6.81E2,2.5E2,2.69E2,3.95E2,2.86E2,1.18E2,1.32E2,1.31E2,1.38E2,7.6E1,3.19E2,1.14E2,1.72E2,9.8E1,4E1,3.9E1,3.7E1,1.62E2,1.57E2,6.2E1,5.2E1,1.08E2,6.4E1,4.2E1,5.6E1,3.2E1,7E0,1.8E1,1.9E1,8.1E1,7.6E1,4.1E1,2.1E1,3.8E1,1.4E1,4.2E1,6.6E1,2.2E1,4.2E1,1.8E1,1.4E1,4E0,3E0,9E0,9E0,1.4E1,5E0,3.6E1,4.5E1,1.5E1,2.6E1,1.7E1,2.1E1,1.2E1,2E0,3.3E1,9E0,3.3E1,3.3E1,3E0,1.9E1,6E0,3.6E1],"tree_param":{"num_deleted":"0","num_feature":"4","num_nodes":"65","size_leaf_vector":"1"}},{"base_weights":[5.36653E-3,9.7230643E-1,-7.454418E-1,1.2495202E0,7.1660185E-1,-1.1818725E0,-4.178859E-1,6.71054E-2,5.7314046E-2,4.4354893E-2,5.2803457E-1,-4.327623E-1,-1.3624986E0,4.93984E-2,-7.165271E-1,4.758239E-1,3.237067E-2,-3.5638563E-2,-2.545742E-1,-1.0894145E0,-7.201606E-2,-5.7655185E-2,3.865841E-1,-8.656141E-1,-2.793508E-1,1.965277E-2,2.5911367E-2,-3.4530985E-1,-1.6018343E-1,-6.6756286E-2,-4.63577E-2,1.2972668E-1,-2.8637528E-1,2.2736322E-2,2.6872692E-1,-6.1419135E-1,-4.9958535E-2,-3.393364E-2,-3.9540812E-1,-2.0496126E-2,-7.3882067E-3,-6.8942267E-3,-1.2029122E-2,-5.015044E-4,1.0589007E-2,-3.197506E-2,-1.0936827E-2,5.6287083E-3,1.4805131E-2,-4.1971594E-2,-2.241413E-2,9.503904E-3,-4.091441E-3,-2.5878498E-2,-1.0188592E-2],"categories":[],"categories_nodes":[],"categories_segments":[],"categories_sizes":[],"default_left":[0,0,0,0,0,0,0,0,0,0,0,0,0,0,0,0,0,0,0,0,0,0,0,0,0,0,0,0,0,0,0,0,0,0,0,0,0,0,0,0,0,0,0,0,0,0,0,0,0,0,0,0,0,0,0],"id":7,"left_children":[1,3,5,7,9,11,13,-1,-1,-1,15,17,19,21,23,25,-1,-1,27,29,-1,31,33,35,37,-1,-1,39,41,-1,-1,43,45,-1,47,49,-1,51,53,-1,-1,-1,-1,-1,-1,-1,-1,-1,-1,-1,-1,-1,-1,-1,-1],"loss_changes":[8.769905E2,3.653174E1,9.671585E1,8.703613E-1,8.437134E0,3.8785248E1,5.4460037E1,0E0,0E0,0E0,5.271492E-1,2.7124128E0,3.4039001E0,5.5451202E0,1.5270393E1,1.3674545E-1,0E0,0E0,2.615776E-1,9.948044E-1,0E0,5.051537E0,1.7495203E-1,5.329834E0,1.7524953E0,0E0,0E0,1.691792E-1,2.6836395E-3,0E0,0E0,7.4751353E-1,1.1260219E0,0E0,3.5063148E-2,2.015337E0,0E0,2.4086457E-1,8.777809E-1,0E0,0E0,0E0,0E0,0E0,0E0,0E0,0E0,0E0,0E0,0E0,0E0,0E0,0E0,0E0,0E0],"parents":[2147483647,0,0,1,1,2,2,3,3,4,4,5,5,6,6,10,10,11,11,12,12,13,13,14,14,15,15,18,18,19,19,21,21,22,22,23,23,24,24,27,27,28,28,31,31,32,32,34,34,35,35,37,37,38,38],"right_children":[2,4,6,8,10,12,14,-1,-1,-1,16,18,20,22,24,26,-1,-1,28,30,-1,32,34,36,38,-1,-1,40,42,-1,-1,44,46,-1,48,50,-1,52,54,-1,-1,-1,-1,-1,-1,-1,-1,-1,-1,-1,-1,-1,-1,-1,-1],"split_conditions":[1E2,8E1,2E-1,7E1,9E1,1.1E2,1.2E2,6.71054E-2,5.7314046E-2,4.4354893E-2,3E-1,1E-1,1.2E2,4E-1,4E-1,2E-2,3.237067E-2,-3.5638563E-2,1.5E-1,1E-1,-7.201606E-2,1.1E2,1.1E2,1.3E2,1.3E2,1.965277E-2,2.5911367E-2,5E-2,5E-2,-6.6756286E-2,-4.63577E-2,2.5E-1,1E-2,2.2736322E-2,1E-2,2.5E-1,-4.9958535E-2,1E-2,3E-2,-2.0496126E-2,-7.3882067E-3,-6.8942267E-3,-1.2029122E-2,-5.015044E-4,1.0589007E-2,-3.197506E-2,-1.0936827E-2,5.6287083E-3,1.4805131E-2,-4.1971594E-2,-2.241413E-2,9.503904E-3,-4.091441E-3,-2.5878498E-2,-1.0188592E-2],"split_indices":[0,0,3,0,0,0,0,0,0,0,3,3,0,3,3,2,0,0,3,3,0,0,0,0,0,0,0,2,2,0,0,3,2,0,2,3,0,2,2,0,0,0,0,0,0,0,0,0,0,0,0,0,0,0,0],"split_type":[0,0,0,0,0,0,0,0,0,0,0,0,0,0,0,0,0,0,0,0,0,0,0,0,0,0,0,0,0,0,0,0,0,0,0,0,0,0,0,0,0,0,0,0,0,0,0,0,0,0,0,0,0,0,0],"sum_hessian":[1.206E3,5.27E2,6.79E2,2.51E2,2.76E2,2.9E2,3.89E2,1.26E2,1.25E2,1.43E2,1.33E2,5.7E1,2.33E2,1.52E2,2.37E2,9.6E1,3.7E1,2.1E1,3.6E1,5.5E1,1.78E2,1.16E2,3.6E1,1.76E2,6.1E1,3.6E1,6E1,1.7E1,1.9E1,1.9E1,3.6E1,6.4E1,5.2E1,2.1E1,1.5E1,6.3E1,1.13E2,2E1,4.1E1,1.2E1,5E0,1.7E1,2E0,2.4E1,4E1,7E0,4.5E1,3E0,1.2E1,2.5E1,3.8E1,3E0,1.7E1,2.4E1,1.7E1],"tree_param":{"num_deleted":"0","num_feature":"4","num_nodes":"55","size_leaf_vector":"1"}},{"base_weights":[-6.8800957E-3,9.333348E-1,-7.37686E-1,1.1877756E0,6.904298E-1,-1.8708775E-2,-9.230647E-1,6.392053E-2,5.4431785E-2,4.2489566E-2,5.0718576E-1,-4.0387696E-1,2.4287806E-1,-1.2259315E0,-4.8839265E-1,4.2622423E-1,3.0255685E-2,-5.1102483E-1,-1.9586037E-1,9.548877E-3,3.306981E-1,-6.862794E-2,-1.0618227E0,-2.618255E-1,-7.315698E-1,1.7729238E-2,2.348126E-2,-2.8866207E-2,-2.7428412E-1,-1.6214041E-2,-1.4656845E-1,-2.891159E-2,5.354155E-3,1.1917475E-2,2.2707308E-2,-8.6520773E-1,-6.2611364E-2,-2.6537916E-2,-1.15227185E-1,-4.4983845E-2,-3.750343E-1,-1.6805872E-2,-8.852116E-3,-5.250234E-3,-1.2769977E-2,1.1029093E-3,-1.0641018E-2,-3.5833832E-2,-4.864463E-2,9.57671E-4,-1.2682408E-2,-2.1167418E-2,-9.152669E-3],"categories":[],"categories_nodes":[],"categories_segments":[],"categories_sizes":[],"default_left":[0,0,0,0,0,0,0,0,0,0,0,0,0,0,0,0,0,0,0,0,0,0,0,0,0,0,0,0,0,0,0,0,0,0,0,0,0,0,0,0,0,0,0,0,0,0,0,0,0,0,0,0,0],"id":8,"left_children":[1,3,5,7,9,11,13,-1,-1,-1,15,17,19,21,23,25,-1,27,29,31,33,-1,35,37,39,-1,-1,-1,41,-1,43,45,-1,-1,-1,47,-1,-1,49,-1,51,-1,-1,-1,-1,-1,-1,-1,-1,-1,-1,-1,-1],"loss_changes":[8.279745E2,3.175116E1,9.034863E1,9.0856934E-1,7.511963E0,1.4203782E1,7.0359436E1,0E0,0E0,0E0,7.648468E-1,1.1703568E0,1.7180839E0,6.170471E0,1.2094856E1,6.355953E-2,0E0,4.223919E-1,8.540261E-2,9.312503E-2,5.871701E-1,0E0,4.681778E0,4.5515785E0,6.075756E0,0E0,0E0,0E0,6.209016E-4,0E0,5.008015E-2,1.7342262E-1,0E0,0E0,0E0,5.663185E-1,0E0,0E0,1.4371426E0,0E0,2.564187E-1,0E0,0E0,0E0,0E0,0E0,0E0,0E0,0E0,0E0,0E0,0E0,0E0],"parents":[2147483647,0,0,1,1,2,2,3,3,4,4,5,5,6,6,10,10,11,11,12,12,13,13,14,14,15,15,17,17,18,18,19,19,20,20,22,22,23,23,24,24,28,28,30,30,31,31,35,35,38,38,40,40],"right_children":[2,4,6,8,10,12,14,-1,-1,-1,16,18,20,22,24,26,-1,28,30,32,34,-1,36,38,40,-1,-1,-1,42,-1,44,46,-1,-1,-1,48,-1,-1,50,-1,52,-1,-1,-1,-1,-1,-1,-1,-1,-1,-1,-1,-1],"split_conditions":[1E2,8E1,1.1E2,7E1,9E1,2E-1,2.5E-1,6.392053E-2,5.4431785E-2,4.2489566E-2,2.5E-1,1.5E-1,2.5E-1,1.5E-1,1.3E2,2E-2,3.0255685E-2,5E-2,1E-2,5E-2,4E-1,-6.862794E-2,1.3E2,3E-1,4E-1,1.7729238E-2,2.348126E-2,-2.8866207E-2,1E-1,-1.6214041E-2,5E-2,3E-2,5.354155E-3,1.1917475E-2,2.2707308E-2,1.2E2,-6.2611364E-2,-2.6537916E-2,1.2E2,-4.4983845E-2,5E-2,-1.6805872E-2,-8.852116E-3,-5.250234E-3,-1.2769977E-2,1.1029093E-3,-1.0641018E-2,-3.5833832E-2,-4.864463E-2,9.57671E-4,-1.2682408E-2,-2.1167418E-2,-9.152669E-3],"split_indices":[0,0,0,0,0,3,3,0,0,0,3,3,3,3,0,2,0,2,2,2,3,0,0,3,3,0,0,0,3,0,2,2,0,0,0,0,0,0,0,0,2,0,0,0,0,0,0,0,0,0,0,0,0],"split_type":[0,0,0,0,0,0,0,0,0,0,0,0,0,0,0,0,0,0,0,0,0,0,0,0,0,0,0,0,0,0,0,0,0,0,0,0,0,0,0,0,0,0,0,0,0,0,0,0,0,0,0,0,0],"sum_hessian":[1.203E3,5.26E2,6.77E2,2.55E2,2.71E2,1.39E2,5.38E2,1.27E2,1.28E2,1.43E2,1.28E2,5.6E1,8.3E1,3.16E2,2.22E2,7.3E1,5.5E1,3.6E1,2E1,2.3E1,6E1,1.63E2,1.53E2,1.16E2,1.06E2,3.1E1,4.2E1,2.7E1,9E0,4E0,1.6E1,1.7E1,6E0,3.6E1,2.4E1,7.8E1,7.5E1,4E1,7.6E1,7.1E1,3.5E1,4E0,5E0,1.3E1,3E0,1.4E1,3E0,3.6E1,4.2E1,3.9E1,3.7E1,2.7E1,8E0],"tree_param":{"num_deleted":"0","num_feature":"4","num_nodes":"53","size_leaf_vector":"1"}},{"base_weights":[2.0696973E-2,8.906143E-1,-6.6953784E-1,1.1258413E0,6.599296E-1,-2.515323E-1,-9.578011E-1,6.0630597E-2,5.1858634E-2,4.0442653E-2,4.8839837E-1,-6.770084E-1,5.129883E-2,-1.2188599E0,-5.940869E-1,2.135181E-2,3.087402E-2,-3.752179E-1,-9.828768E-1,-1.319834E-1,2.087111E-1,-6.516771E-2,-9.647882E-1,-7.301747E-1,-3.186512E-1,-3.0346725E-2,-2.5868538E-1,-5.471478E-2,-7.276082E-1,3.722626E-2,-3.371252E-1,3.3883253E-1,6.1227873E-2,-3.811526E-2,-5.4211315E-2,-2.6369933E-2,-8.4596014E-1,-1.2775531E-1,-4.3499273E-1,-1.54289305E-2,-7.581595E-3,-4.139132E-2,-1.7789735E-2,-1.843675E-3,5.002115E-3,-2.5900101E-2,-1.0024355E-2,1.2293218E-2,2.035456E-2,-1.2007211E-3,9.399841E-3,-5.2960645E-2,-3.835541E-2,-3.7646696E-3,-1.507798E-2,-8.902763E-3,-2.312011E-2],"categories":[],"categories_nodes":[],"categories_segments":[],"categories_sizes":[],"default_left":[0,0,0,0,0,0,0,0,0,0,0,0,0,0,0,0,0,0,0,0,0,0,0,0,0,0,0,0,0,0,0,0,0,0,0,0,0,0,0,0,0,0,0,0,0,0,0,0,0,0,0,0,0,0,0,0,0],"id":9,"left_children":[1,3,5,7,9,11,13,-1,-1,-1,15,17,19,21,23,-1,-1,25,27,29,31,-1,33,35,37,-1,39,-1,41,43,45,47,49,-1,-1,-1,51,53,55,-1,-1,-1,-1,-1,-1,-1,-1,-1,-1,-1,-1,-1,-1,-1,-1,-1,-1],"loss_changes":[7.193316E2,2.8016571E1,8.025018E1,7.503662E-1,6.502121E0,3.5338917E1,3.6781464E1,0E0,0E0,0E0,7.5017166E-1,1.0154343E1,4.672537E0,3.6585999E0,6.027069E0,0E0,0E0,1.4361429E0,7.9652023E-1,2.6159482E0,1.6488471E0,0E0,6.487236E-1,2.159958E0,1.2103477E0,0E0,1.7220068E-1,0E0,4.507141E-1,1.9918436E-1,7.3644614E-1,1.9182158E-1,4.583698E-1,0E0,0E0,0E0,3.4772873E-1,1.8701103E-1,1.6415548E-1,0E0,0E0,0E0,0E0,0E0,0E0,0E0,0E0,0E0,0E0,0E0,0E0,0E0,0E0,0E0,0E0,0E0,0E0],"parents":[2147483647,0,0,1,1,2,2,3,3,4,4,5,5,6,6,10,10,11,11,12,12,13,13,14,14,17,17,18,18,19,19,20,20,22,22,23,23,24,24,26,26,28,28,29,29,30,30,31,31,32,32,36,36,37,37,38,38],"right_children":[2,4,6,8,10,12,14,-1,-1,-1,16,18,20,22,24,-1,-1,26,28,30,32,-1,34,36,38,-1,40,-1,42,44,46,48,50,-1,-1,-1,52,54,56,-1,-1,-1,-1,-1,-1,-1,-1,-1,-1,-1,-1,-1,-1,-1,-1,-1,-1],"split_conditions":[1E2,8E1,1.2E2,7E1,9E1,2E-1,2.5E-1,6.0630597E-2,5.1858634E-2,4.0442653E-2,3E-1,1.1E2,3E-1,2E-1,4E-1,2.135181E-2,3.087402E-2,1E-1,1.5E-1,1.1E2,1.1E2,-6.516771E-2,1.3E2,1.3E2,1.3E2,-3.0346725E-2,3E-2,-5.471478E-2,5E-2,2.5E-1,2E-2,4E-1,4E-1,-3.811526E-2,-5.4211315E-2,-2.6369933E-2,1E-2,5E-2,1E-2,-1.54289305E-2,-7.581595E-3,-4.139132E-2,-1.7789735E-2,-1.843675E-3,5.002115E-3,-2.5900101E-2,-1.0024355E-2,1.2293218E-2,2.035456E-2,-1.2007211E-3,9.399841E-3,-5.2960645E-2,-3.835541E-2,-3.7646696E-3,-1.507798E-2,-8.902763E-3,-2.312011E-2],"split_indices":[0,0,0,0,0,3,3,0,0,0,3,0,3,3,3,0,0,3,3,0,0,0,0,0,0,0,2,0,2,3,2,3,3,0,0,0,2,2,2,0,0,0,0,0,0,0,0,0,0,0,0,0,0,0,0,0,0],"split_type":[0,0,0,0,0,0,0,0,0,0,0,0,0,0,0,0,0,0,0,0,0,0,0,0,0,0,0,0,0,0,0,0,0,0,0,0,0,0,0,0,0,0,0,0,0,0,0,0,0,0,0,0,0,0,0,0,0],"sum_hessian":[1.196E3,5.29E2,6.67E2,2.6E2,2.69E2,2.73E2,3.94E2,1.25E2,1.35E2,1.42E2,1.27E2,1.13E2,1.6E2,2.28E2,1.66E2,8.9E1,3.8E1,5.8E1,5.5E1,7.4E1,8.6E1,1.68E2,6E1,1.1E2,5.6E1,1.8E1,4E1,3.6E1,1.9E1,4.1E1,3.3E1,4.5E1,4.1E1,2.5E1,3.5E1,4.2E1,6.8E1,2.2E1,3.4E1,2.6E1,1.4E1,1.4E1,5E0,1.9E1,2.2E1,1.3E1,2E1,2.1E1,2.4E1,2.5E1,1.6E1,1.5E1,5.3E1,1.8E1,4E0,4E0,3E1],"tree_param":{"num_deleted":"0","num_feature":"4","num_nodes":"57","size_leaf_vector":"1"}},{"base_weights":[2.2609146E-2,8.441958E-1,-6.428729E-1,1.0666978E0,6.2186277E-1,-9.315753E-1,-2.6139674E-1,5.7728913E-2,4.9239725E-2,3.8242463E-2,4.6089396E-1,-2.8534475E-1,-1.0911182E0,-8.953671E-1,2.34513E-2,1.50835095E-2,5.4163986E-1,-6.5611243E-1,-6.7654125E-2,-1.1893933E0,-5.4629993E-1,-4.051018E-1,-6.263598E-2,-1.3457182E-1,5.37368E-1,4.763742E-1,3.5893008E-2,-3.9386116E-2,-4.8953575E-1,-3.6287162E-1,6.0800634E-2,-1.2520007E0,-9.3316966E-1,-9.090018E-1,-1.7625417E-1,-1.326985E-1,-6.3227135E-1,2.548275E-1,-3.9553034E-1,2.8966153E-1,6.4442855E-1,1.9837301E-2,2.7545506E-2,-2.813823E-2,-1.4294917E-2,-2.1654285E-2,3.1173348E-3,-2.8035106E-4,1.6361615E-2,-5.400448E-2,-6.478844E-2,-5.8353502E-2,-3.181949E-2,-3.0398548E-2,-5.796842E-2,2.5479249E-3,-1.949544E-2,-1.3796322E-2,-1.3077502E-3,-4.45799E-2,-2.1946123E-2,8.573783E-3,2.1064628E-2,-2.7595947E-2,-3.499708E-3,1.9452594E-2,-3.4038187E-4,3.4373153E-2,1.9626243E-2],"categories":[],"categories_nodes":[],"categories_segments":[],"categories_sizes":[],"default_left":[0,0,0,0,0,0,0,0,0,0,0,0,0,0,0,0,0,0,0,0,0,0,0,0,0,0,0,0,0,0,0,0,0,0,0,0,0,0,0,0,0,0,0,0,0,0,0,0,0,0,0,0,0,0,0,0,0,0,0,0,0,0,0,0,0,0,0,0,0],"id":10,"left_children":[1,3,5,7,9,11,13,-1,-1,-1,15,17,19,21,23,-1,25,27,29,31,33,35,-1,37,39,41,-1,-1,43,45,47,49,51,53,55,57,59,61,63,65,67,-1,-1,-1,-1,-1,-1,-1,-1,-1,-1,-1,-1,-1,-1,-1,-1,-1,-1,-1,-1,-1,-1,-1,-1,-1,-1,-1,-1],"loss_changes":[6.5609735E2,2.5901794E1,7.277472E1,7.8479004E-1,5.884918E0,3.855789E1,5.1848953E1,0E0,0E0,0E0,1.5079708E0,6.0897717E0,1.55199585E1,1.5085106E1,1.6233248E1,0E0,6.3562393E-1,2.2823048E-1,1.8802453E0,2.9222412E0,6.2821674E0,2.329486E0,0E0,1.5648205E1,1.0597534E0,1.672144E-1,0E0,0E0,6.278896E-2,4.7484624E-1,6.210933E-1,1.2033081E-1,3.0058022E0,1.1039715E0,1.2334952E0,2.8272325E-1,6.616087E-1,7.880192E-1,4.6451025E0,4.7410738E-1,7.705116E-2,0E0,0E0,0E0,0E0,0E0,0E0,0E0,0E0,0E0,0E0,0E0,0E0,0E0,0E0,0E0,0E0,0E0,0E0,0E0,0E0,0E0,0E0,0E0,0E0,0E0,0E0,0E0,0E0],"parents":[2147483647,0,0,1,1,2,2,3,3,4,4,5,5,6,6,10,10,11,11,12,12,13,13,14,14,16,16,17,17,18,18,19,19,20,20,21,21,23,23,24,24,25,25,28,28,29,29,30,30,31,31,32,32,33,33,34,34,35,35,36,36,37,37,38,38,39,39,40,40],"right_children":[2,4,6,8,10,12,14,-1,-1,-1,16,18,20,22,24,-1,26,28,30,32,34,36,-1,38,40,42,-1,-1,44,46,48,50,52,54,56,58,60,62,64,66,68,-1,-1,-1,-1,-1,-1,-1,-1,-1,-1,-1,-1,-1,-1,-1,-1,-1,-1,-1,-1,-1,-1,-1,-1,-1,-1,-1,-1],"split_conditions":[1E2,8E1,2.5E-1,7E1,9E1,1.1E2,5E-1,5.7728913E-2,4.9239725E-2,3.8242463E-2,5E-1,5E-1,2E0,1.2E2,2E0,1.50835095E-2,2E0,1.5E-1,1E-1,1E0,1.5E-1,1.1E2,-6.263598E-2,1.2E2,3E-1,2.5E-1,3.5893008E-2,-3.9386116E-2,2.5E-1,2E0,2E0,1.2E2,1.5E-1,1.3E2,1.3E2,2.5E-1,2.5E-1,4E-1,4E-1,1.4E2,1.4E2,1.9837301E-2,2.7545506E-2,-2.813823E-2,-1.4294917E-2,-2.1654285E-2,3.1173348E-3,-2.8035106E-4,1.6361615E-2,-5.400448E-2,-6.478844E-2,-5.8353502E-2,-3.181949E-2,-3.0398548E-2,-5.796842E-2,2.5479249E-3,-1.949544E-2,-1.3796322E-2,-1.3077502E-3,-4.45799E-2,-2.1946123E-2,8.573783E-3,2.1064628E-2,-2.7595947E-2,-3.499708E-3,1.9452594E-2,-3.4038187E-4,3.4373153E-2,1.9626243E-2],"split_indices":[0,0,3,0,0,0,1,0,0,0,1,1,1,0,1,0,1,3,3,1,3,0,0,0,3,3,0,0,1,1,1,0,3,0,0,1,1,3,3,0,0,0,0,0,0,0,0,0,0,0,0,0,0,0,0,0,0,0,0,0,0,0,0,0,0,0,0,0,0],"split_type":[0,0,0,0,0,0,0,0,0,0,0,0,0,0,0,0,0,0,0,0,0,0,0,0,0,0,0,0,0,0,0,0,0,0,0,0,0,0,0,0,0,0,0,0,0,0,0,0,0,0,0,0,0,0,0,0,0,0,0,0,0,0,0,0,0,0,0,0,0],"sum_hessian":[1.198E3,5.36E2,6.62E2,2.66E2,2.7E2,3.76E2,2.86E2,1.22E2,1.44E2,1.41E2,1.29E2,7.5E1,3.01E2,8.8E1,1.98E2,4.5E1,8.4E1,2.7E1,4.8E1,2.54E2,4.7E1,3.8E1,5E1,1.52E2,4.6E1,6.4E1,2E1,1.3E1,1.4E1,1.4E1,3.4E1,2.01E2,5.3E1,2.3E1,2.4E1,1.8E1,2E1,6.1E1,9.1E1,1.5E1,3.1E1,3.4E1,3E1,9E0,5E0,1.2E1,2E0,2.8E1,6E0,4.6E1,1.55E2,2.8E1,2.5E1,1.2E1,1.1E1,1.2E1,1.2E1,7E0,1.1E1,7E0,1.3E1,4.2E1,1.9E1,6.1E1,3E1,1.1E1,4E0,2.5E1,6E0],"tree_param":{"num_deleted":"0","num_feature":"4","num_nodes":"69","size_leaf_vector":"1"}},{"base_weights":[4.1058734E-3,7.9011124E-1,-6.0221404E-1,1.0124856E0,5.904918E-1,-9.189478E-1,-2.7517337E-1,5.4788437E-2,4.6734925E-2,3.6137946E-2,4.450328E-1,-3.1010804E-1,-1.0992808E0,8.9904815E-2,-5.345396E-1,3.604152E-1,2.8658224E-2,-2.7776519E-2,-1.7459986E-1,-8.584947E-1,-1.1732438E0,-3.105981E-2,3.377686E-1,-6.888899E-1,-2.3386693E-1,1.432162E-2,4.1530466E-1,-2.9017827E-1,-5.2554768E-2,-4.9215782E-2,-2.9864747E-2,-6.2626265E-2,-5.057779E-2,1.368213E-1,-2.0542395E-1,2.6345754E-2,1.57809E-1,-4.9437907E-1,-8.057401E-1,1.5774105E-1,-4.121969E-1,1.3331442E-2,2.1757672E-2,-1.6351221E-2,-9.74187E-3,-6.825493E-3,6.8481156E-4,3.244646E-3,9.651309E-3,-1.3739856E-2,-4.43634E-3,-1.0217424E-2,1.5500036E-2,-2.617073E-2,-1.7819786E-2,-4.6172198E-2,-3.4003094E-2,-1.0851279E-3,1.4182034E-2,-2.324946E-2,-9.857523E-3],"categories":[],"categories_nodes":[],"categories_segments":[],"categories_sizes":[],"default_left":[0,0,0,0,0,0,0,0,0,0,0,0,0,0,0,0,0,0,0,0,0,0,0,0,0,0,0,0,0,0,0,0,0,0,0,0,0,0,0,0,0,0,0,0,0,0,0,0,0,0,0,0,0,0,0,0,0,0,0,0,0],"id":11,"left_children":[1,3,5,7,9,11,13,-1,-1,-1,15,17,19,21,23,25,-1,-1,27,29,31,33,35,37,39,-1,41,43,45,-1,-1,-1,-1,47,49,-1,51,53,55,57,59,-1,-1,-1,-1,-1,-1,-1,-1,-1,-1,-1,-1,-1,-1,-1,-1,-1,-1,-1,-1],"loss_changes":[5.723607E2,2.2618225E1,6.997763E1,5.6947327E-1,5.0269165E0,3.7428223E1,3.176885E1,0E0,0E0,0E0,1.2571182E0,2.5635443E0,3.7122192E0,4.208076E0,8.935043E0,2.2215652E-1,0E0,0E0,7.3235595E-1,1.5811234E0,1.2967834E0,2.8089886E0,1.4826293E0,2.5336533E0,4.8138304E0,0E0,1.9723415E-2,3.1132936E-2,1.5204664E-1,0E0,0E0,0E0,0E0,1.855675E-1,3.5611355E-1,0E0,1.4412822E0,1.7784119E-2,5.4063034E-1,5.0317705E-1,4.4190788E-1,0E0,0E0,0E0,0E0,0E0,0E0,0E0,0E0,0E0,0E0,0E0,0E0,0E0,0E0,0E0,0E0,0E0,0E0,0E0,0E0],"parents":[2147483647,0,0,1,1,2,2,3,3,4,4,5,5,6,6,10,10,11,11,12,12,13,13,14,14,15,15,18,18,19,19,20,20,21,21,22,22,23,23,24,24,26,26,27,27,28,28,33,33,34,34,36,36,37,37,38,38,39,39,40,40],"right_children":[2,4,6,8,10,12,14,-1,-1,-1,16,18,20,22,24,26,-1,-1,28,30,32,34,36,38,40,-1,42,44,46,-1,-1,-1,-1,48,50,-1,52,54,56,58,60,-1,-1,-1,-1,-1,-1,-1,-1,-1,-1,-1,-1,-1,-1,-1,-1,-1,-1,-1,-1],"split_conditions":[1E2,8E1,7.5E-1,7E1,9E1,1.1E2,1.2E2,5.4788437E-2,4.6734925E-2,3.6137946E-2,1E0,2.5E-1,1.2E2,2E0,2E0,5E-1,2.8658224E-2,-2.7776519E-2,5E-1,5E-1,5E-1,1.1E2,1.1E2,1.3E2,1.3E2,1.432162E-2,1E-2,3E-2,2E-2,-4.9215782E-2,-2.9864747E-2,-6.2626265E-2,-5.057779E-2,2E-2,3E-2,2.6345754E-2,2E-2,5E-2,1E0,2E-2,5E-2,1.3331442E-2,2.1757672E-2,-1.6351221E-2,-9.74187E-3,-6.825493E-3,6.8481156E-4,3.244646E-3,9.651309E-3,-1.3739856E-2,-4.43634E-3,-1.0217424E-2,1.5500036E-2,-2.617073E-2,-1.7819786E-2,-4.6172198E-2,-3.4003094E-2,-1.0851279E-3,1.4182034E-2,-2.324946E-2,-9.857523E-3],"split_indices":[0,0,1,0,0,0,0,0,0,0,1,1,0,1,1,1,0,0,1,1,1,0,0,0,0,0,2,2,2,0,0,0,0,2,2,0,2,2,1,2,2,0,0,0,0,0,0,0,0,0,0,0,0,0,0,0,0,0,0,0,0],"split_type":[0,0,0,0,0,0,0,0,0,0,0,0,0,0,0,0,0,0,0,0,0,0,0,0,0,0,0,0,0,0,0,0,0,0,0,0,0,0,0,0,0,0,0,0,0,0,0,0,0,0,0,0,0,0,0,0,0,0,0,0,0],"sum_hessian":[1.199E3,5.22E2,6.77E2,2.45E2,2.77E2,3.43E2,3.34E2,1.12E2,1.33E2,1.43E2,1.34E2,7.9E1,2.64E2,1.39E2,1.95E2,8.3E1,5.1E1,2.7E1,5.2E1,6.5E1,1.99E2,9.4E1,4.5E1,1.28E2,6.7E1,3.8E1,4.5E1,2.6E1,2.6E1,4.2E1,2.3E1,1.29E2,7E1,4.8E1,4.6E1,2.1E1,2.4E1,5E1,7.8E1,2.1E1,4.6E1,7E0,3.8E1,1.7E1,9E0,1.1E1,1.5E1,2.2E1,2.6E1,2.8E1,1.8E1,7E0,1.7E1,3.9E1,1.1E1,3.7E1,4.1E1,9E0,1.2E1,3.6E1,1E1],"tree_param":{"num_deleted":"0","num_feature":"4","num_nodes":"61","size_leaf_vector":"1"}},{"base_weights":[4.3854723E-3,7.5389725E-1,-5.974847E-1,9.657766E-1,5.639831E-1,-8.763879E-1,-2.3158854E-1,5.2065976E-2,4.4372678E-2,3.4423217E-2,4.214929E-1,-3.1267363E-1,-1.0223981E0,-8.4880143E-1,5.1818304E-2,1.3894309E-2,4.8787543E-1,-5.9381115E-1,-9.807908E-2,-1.1394947E0,-7.6291794E-1,-4.083457E-1,-1.1712904E0,-1.01494566E-1,5.1072055E-1,1.84848E-2,5.551359E-1,-3.7801083E-2,-4.0762284E-1,-3.0829087E-1,1.07460506E-1,-9.8632103E-1,-5.883212E-2,-1.0252961E0,-4.2953253E-1,-1.5547207E-1,-5.8849263E-1,-6.452032E-2,-4.82498E-2,1.2044961E-1,-4.4585675E-1,2.8603783E-1,6.080407E-1,2.4552705E-2,3.4877792E-2,-2.496782E-2,-1.42150195E-2,-2.0435957E-2,-6.84311E-3,-2.7560632E-4,1.3308671E-2,-5.4618467E-2,-2.9741008E-2,-3.317616E-2,-5.6907494E-2,-8.898122E-3,-3.4829367E-2,-1.3355951E-2,-7.0726144E-4,-4.3424454E-2,-1.9063098E-2,1.740402E-2,-3.3774078E-4,-3.082074E-2,-6.5495158E-3,2.0929758E-2,4.229323E-3,3.2087527E-2,1.9316925E-2],"categories":[],"categories_nodes":[],"categories_segments":[],"categories_sizes":[],"default_left":[0,0,0,0,0,0,0,0,0,0,0,0,0,0,0,0,0,0,0,0,0,0,0,0,0,0,0,0,0,0,0,0,0,0,0,0,0,0,0,0,0,0,0,0,0,0,0,0,0,0,0,0,0,0,0,0,0,0,0,0,0,0,0,0,0,0,0,0,0],"id":12,"left_children":[1,3,5,7,9,11,13,-1,-1,-1,15,17,19,21,23,-1,25,27,29,31,33,35,37,39,41,-1,43,-1,45,47,49,51,-1,53,55,57,59,-1,-1,61,63,65,67,-1,-1,-1,-1,-1,-1,-1,-1,-1,-1,-1,-1,-1,-1,-1,-1,-1,-1,-1,-1,-1,-1,-1,-1,-1,-1],"loss_changes":[5.408788E2,2.0942902E1,6.766005E1,5.609741E-1,4.747223E0,3.071045E1,5.059654E1,0E0,0E0,0E0,1.1513767E0,4.707875E0,8.215515E0,1.244754E1,1.4052604E1,0E0,5.1810837E-1,7.186861E-1,2.020644E0,2.1362305E-4,7.9570084E0,1.7306824E0,3.2562256E-2,1.151808E1,9.1938496E-1,0E0,1.6854858E-1,0E0,6.166315E-2,3.400364E-1,4.3179235E-1,1.2600555E0,0E0,1.4086685E0,2.8320856E0,2.802383E-1,1.0034256E0,0E0,0E0,2.6662703E0,3.0877333E0,4.18558E-1,6.166458E-3,0E0,0E0,0E0,0E0,0E0,0E0,0E0,0E0,0E0,0E0,0E0,0E0,0E0,0E0,0E0,0E0,0E0,0E0,0E0,0E0,0E0,0E0,0E0,0E0,0E0,0E0],"parents":[2147483647,0,0,1,1,2,2,3,3,4,4,5,5,6,6,10,10,11,11,12,12,13,13,14,14,16,16,17,17,18,18,19,19,20,20,21,21,22,22,23,23,24,24,26,26,28,28,29,29,30,30,31,31,33,33,34,34,35,35,36,36,39,39,40,40,41,41,42,42],"right_children":[2,4,6,8,10,12,14,-1,-1,-1,16,18,20,22,24,-1,26,28,30,32,34,36,38,40,42,-1,44,-1,46,48,50,52,-1,54,56,58,60,-1,-1,62,64,66,68,-1,-1,-1,-1,-1,-1,-1,-1,-1,-1,-1,-1,-1,-1,-1,-1,-1,-1,-1,-1,-1,-1,-1,-1,-1,-1],"split_conditions":[1E2,8E1,2.5E-1,7E1,9E1,1.1E2,5E-1,5.2065976E-2,4.4372678E-2,3.4423217E-2,5E-1,5E-1,1E0,1.2E2,2E0,1.3894309E-2,2E-1,1.5E-1,1.5E-1,1.2E2,1.5E-1,1.1E2,2.5E-1,1.3E2,3E-1,1.84848E-2,2E0,-3.7801083E-2,2.5E-1,1E-1,1E0,7.5E-1,-5.883212E-2,1.2E2,1.3E2,2.5E-1,2.5E-1,-6.452032E-2,-4.82498E-2,1.1E2,4E-1,1.3E2,1.4E2,2.4552705E-2,3.4877792E-2,-2.496782E-2,-1.42150195E-2,-2.0435957E-2,-6.84311E-3,-2.7560632E-4,1.3308671E-2,-5.4618467E-2,-2.9741008E-2,-3.317616E-2,-5.6907494E-2,-8.898122E-3,-3.4829367E-2,-1.3355951E-2,-7.0726144E-4,-4.3424454E-2,-1.9063098E-2,1.740402E-2,-3.3774078E-4,-3.082074E-2,-6.5495158E-3,2.0929758E-2,4.229323E-3,3.2087527E-2,1.9316925E-2],"split_indices":[0,0,3,0,0,0,1,0,0,0,1,1,1,0,1,0,3,3,3,0,3,0,1,0,3,0,1,0,1,3,1,1,0,0,0,1,1,0,0,0,3,0,0,0,0,0,0,0,0,0,0,0,0,0,0,0,0,0,0,0,0,0,0,0,0,0,0,0,0],"split_type":[0,0,0,0,0,0,0,0,0,0,0,0,0,0,0,0,0,0,0,0,0,0,0,0,0,0,0,0,0,0,0,0,0,0,0,0,0,0,0,0,0,0,0,0,0,0,0,0,0,0,0,0,0,0,0,0,0,0,0,0,0,0,0,0,0,0,0,0,0],"sum_hessian":[1.197E3,5.33E2,6.64E2,2.5E2,2.83E2,3.76E2,2.88E2,1.21E2,1.29E2,1.49E2,1.34E2,7.8E1,2.98E2,9E1,1.98E2,4.4E1,9E1,3.3E1,4.5E1,2.03E2,9.5E1,3.9E1,5.1E1,1.49E2,4.9E1,3.5E1,5.5E1,1.6E1,1.7E1,2.2E1,2.3E1,4.5E1,1.58E2,5.2E1,4.3E1,1.7E1,2.2E1,2.9E1,2.2E1,9.1E1,5.8E1,1.6E1,3.3E1,4.1E1,1.4E1,8E0,9E0,1.3E1,9E0,1.4E1,9E0,3.4E1,1.1E1,1.4E1,3.8E1,2.3E1,2E1,9E0,8E0,8E0,1.4E1,3.2E1,5.9E1,3.7E1,2.1E1,9E0,7E0,2.7E1,6E0],"tree_param":{"num_deleted":"0","num_feature":"4","num_nodes":"69","size_leaf_vector":"1"}},{"base_weights":[3.5772999E-3,-1.8211953E-1,1.939106E-1,-3.6252838E-1,-9.6227035E-2,-2.2049338E-2,4.6152532E-1,-3.9896375E-1,-2.69927E-1,-2.019969E-1,4.8928525E-2,-3.1005728E-1,7.79133E-2,3.4737584E-1,6.8720376E-1,-3.7499216E-1,-4.814576E-1,-1.2908979E-1,-1.721805E-2,-2.5057784E-1,-1.529586E-1,1.2336706E-2,1.2007696E-1,-3.4918606E-1,-1.428382E-1,-9.390007E-2,1.344615E-1,2.601853E-1,5.2178043E-1,2.8050218E-2,3.7410524E-2,-4.124469E-1,-2.9334864E-1,-3.92771E-1,-4.054308E-2,-8.27857E-3,-5.799732E-2,-2.8981125E-1,-8.98984E-2,-1.10986546E-1,-3.2146892E-1,-1.8718364E-2,6.430515E-3,3.0955812E-2,2.0244978E-1,-2.956328E-1,-1.9932462E-2,-2.5623187E-2,8.467988E-2,-1.7128064E-1,3.8581577E-3,5.299516E-2,3.0186749E-1,2.2505373E-1,4.184346E-1,4.3977153E-1,2.9083341E-2,-1.7385198E-2,-2.67769E-2,-2.5168017E-2,-1.0185255E-3,-2.1612532E-2,-1.175709E-2,3.00193E-3,-6.351086E-3,-1.0786941E-2,-1.7822875E-2,-9.620722E-3,9.766457E-4,-1.0351268E-2,-3.8106635E-3,-2.2658547E-2,-8.758473E-3,2.4991583E-3,-3.5267E-3,6.765557E-3,-6.8426565E-3,4.70735E-3,1.1801349E-2,-1.7945802E-2,-1.1194816E-2,8.648431E-4,5.8104643E-3,-1.2130711E-2,-6.2200706E-3,-1.3058113E-3,6.4428523E-3,8.0025E-3,1.7875543E-2,8.841262E-3,1.3583744E-2,1.413623E-2,2.5805254E-2,7.7639357E-3,2.3953963E-2],"categories":[],"categories_nodes":[],"categories_segments":[],"categories_sizes":[],"default_left":[0,0,0,0,0,0,0,0,0,0,0,0,0,0,0,0,0,0,0,0,0,0,0,0,0,0,0,0,0,0,0,0,0,0,0,0,0,0,0,0,0,0,0,0,0,0,0,0,0,0,0,0,0,0,0,0,0,0,0,0,0,0,0,0,0,0,0,0,0,0,0,0,0,0,0,0,0,0,0,0,0,0,0,0,0,0,0,0,0,0,0,0,0,0,0],"id":13,"left_children":[1,3,5,7,9,11,13,15,17,19,21,23,25,27,29,31,33,35,-1,37,39,41,43,45,47,49,51,53,55,-1,-1,57,59,61,-1,-1,63,65,67,69,71,73,-1,75,77,79,-1,-1,81,83,-1,85,87,89,91,93,-1,-1,-1,-1,-1,-1,-1,-1,-1,-1,-1,-1,-1,-1,-1,-1,-1,-1,-1,-1,-1,-1,-1,-1,-1,-1,-1,-1,-1,-1,-1,-1,-1,-1,-1,-1,-1,-1,-1],"loss_changes":[4.2943287E1,9.49501E0,3.4686607E1,5.603523E-1,6.427473E0,9.6112385E0,6.6652527E0,9.630966E-2,5.7404804E-1,5.381937E-1,4.593294E-1,5.128279E-1,2.4221292E0,2.6013985E0,2.6546097E-1,2.2455502E-1,4.9950075E-1,4.7455788E-2,0E0,7.3042727E-1,8.3426666E-1,4.284917E-1,4.3420273E-1,6.492138E-2,1.5571322E0,8.339087E-1,2.5343E0,5.8409405E-1,3.396225E-2,0E0,0E0,4.1148758E-1,2.225562E0,4.7715187E-2,0E0,0E0,8.095242E-2,3.9701557E-1,2.8422007E-1,3.181802E-1,3.8304877E-1,3.3814794E-1,0E0,5.438705E-1,9.051037E-2,8.760905E-2,0E0,0E0,2.3484498E-2,1.1361313E-1,0E0,7.655606E-1,4.241433E-1,1.8130493E-1,1.3243628E-1,2.499094E-1,0E0,0E0,0E0,0E0,0E0,0E0,0E0,0E0,0E0,0E0,0E0,0E0,0E0,0E0,0E0,0E0,0E0,0E0,0E0,0E0,0E0,0E0,0E0,0E0,0E0,0E0,0E0,0E0,0E0,0E0,0E0,0E0,0E0,0E0,0E0,0E0,0E0,0E0,0E0],"parents":[2147483647,0,0,1,1,2,2,3,3,4,4,5,5,6,6,7,7,8,8,9,9,10,10,11,11,12,12,13,13,14,14,15,15,16,16,17,17,19,19,20,20,21,21,22,22,23,23,24,24,25,25,26,26,27,27,28,28,31,31,32,32,33,33,36,36,37,37,38,38,39,39,40,40,41,41,43,43,44,44,45,45,48,48,49,49,51,51,52,52,53,53,54,54,55,55],"right_children":[2,4,6,8,10,12,14,16,18,20,22,24,26,28,30,32,34,36,-1,38,40,42,44,46,48,50,52,54,56,-1,-1,58,60,62,-1,-1,64,66,68,70,72,74,-1,76,78,80,-1,-1,82,84,-1,86,88,90,92,94,-1,-1,-1,-1,-1,-1,-1,-1,-1,-1,-1,-1,-1,-1,-1,-1,-1,-1,-1,-1,-1,-1,-1,-1,-1,-1,-1,-1,-1,-1,-1,-1,-1,-1,-1,-1,-1,-1,-1],"split_conditions":[7.5E-1,2.5E-1,2.5E-1,3E-1,2.5E-1,1E-1,2E0,5E-2,2E-2,1.5E-1,4E-1,5E-2,1E-2,4E-1,3E-1,2E-1,2.5E-1,4E-1,-1.721805E-2,5E-2,5E-2,5E-2,5E-1,2E-2,1E0,2E-1,2E0,5E-2,1E0,2.8050218E-2,3.7410524E-2,1.5E-1,2E-2,2E-1,-4.054308E-2,-8.27857E-3,1E-2,2E-2,1E-1,1E-2,5E-1,2E-2,6.430515E-3,3E-2,2E-2,1E-2,-1.9932462E-2,-2.5623187E-2,2E0,1E0,3.8581577E-3,1E0,1.5E-1,1E0,1E0,1E-2,2.9083341E-2,-1.7385198E-2,-2.67769E-2,-2.5168017E-2,-1.0185255E-3,-2.1612532E-2,-1.175709E-2,3.00193E-3,-6.351086E-3,-1.0786941E-2,-1.7822875E-2,-9.620722E-3,9.766457E-4,-1.0351268E-2,-3.8106635E-3,-2.2658547E-2,-8.758473E-3,2.4991583E-3,-3.5267E-3,6.765557E-3,-6.8426565E-3,4.70735E-3,1.1801349E-2,-1.7945802E-2,-1.1194816E-2,8.648431E-4,5.8104643E-3,-1.2130711E-2,-6.2200706E-3,-1.3058113E-3,6.4428523E-3,8.0025E-3,1.7875543E-2,8.841262E-3,1.3583744E-2,1.413623E-2,2.5805254E-2,7.7639357E-3,2.3953963E-2],"split_indices":[1,1,3,3,3,3,1,2,2,3,3,2,2,3,3,3,3,3,0,2,2,2,1,2,1,3,1,2,1,0,0,3,2,3,0,0,2,2,3,2,1,2,0,2,2,2,0,0,1,1,0,1,3,1,1,2,0,0,0,0,0,0,0,0,0,0,0,0,0,0,0,0,0,0,0,0,0,0,0,0,0,0,0,0,0,0,0,0,0,0,0,0,0,0,0],"split_type":[0,0,0,0,0,0,0,0,0,0,0,0,0,0,0,0,0,0,0,0,0,0,0,0,0,0,0,0,0,0,0,0,0,0,0,0,0,0,0,0,0,0,0,0,0,0,0,0,0,0,0,0,0,0,0,0,0,0,0,0,0,0,0,0,0,0,0,0,0,0,0,0,0,0,0,0,0,0,0,0,0,0,0,0,0,0,0,0,0,0,0,0,0,0,0],"sum_hessian":[1.213E3,6.14E2,5.99E2,1.97E2,4.17E2,3.32E2,2.67E2,1.39E2,5.8E1,2.41E2,1.76E2,8.5E1,2.47E2,1.79E2,8.8E1,1.12E2,2.7E1,2.1E1,3.7E1,1.19E2,1.22E2,1.17E2,5.9E1,6.8E1,1.7E1,6.1E1,1.86E2,1.21E2,5.8E1,3.2E1,5.6E1,7.4E1,3.8E1,2.3E1,4E0,1.3E1,8E0,9.5E1,2.4E1,9.9E1,2.3E1,9.3E1,2.4E1,2.9E1,3E1,3.6E1,3.2E1,6E0,1.1E1,4.2E1,1.9E1,1.26E2,6E1,1.01E2,2E1,2.8E1,3E1,5.1E1,2.3E1,2.1E1,1.7E1,1.7E1,6E0,3E0,5E0,4.7E1,4.8E1,1.2E1,1.2E1,2.5E1,7.4E1,1.1E1,1.2E1,4E1,5.3E1,1.8E1,1.1E1,8E0,2.2E1,1.7E1,1.9E1,4E0,7E0,1.5E1,2.7E1,6.2E1,6.4E1,1.8E1,4.2E1,5.2E1,4.9E1,1E1,1E1,4E0,2.4E1],"tree_param":{"num_deleted":"0","num_feature":"4","num_nodes":"95","size_leaf_vector":"1"}},{"base_weights":[1.461795E-2,7.235514E-1,-5.581707E-1,9.1878843E-1,5.29257E-1,-8.722602E-1,-3.1901154E-1,4.930742E-2,4.2169318E-2,3.295541E-2,3.8423043E-1,-3.277723E-1,-1.0021684E0,1.764093E-2,-5.4452723E-1,3.3112425E-1,2.237726E-2,-4.99043E-1,-2.4031986E-1,-8.186006E-1,-1.0657985E0,1.5774114E-1,-1.5114108E-1,-6.6579914E-1,-1.4069143E-1,1.31883845E-2,1.821032E-2,-3.1878017E-2,-1.902929E-1,-2.6568612E-1,-5.440742E-3,-5.3415645E-2,-3.241541E-2,-5.603708E-2,-4.7053486E-2,7.119248E-2,2.4466436E-1,-3.3761764E-1,5.075E-2,-4.7513565E-1,-7.743855E-1,-4.2329334E-2,-2.8856087E-1,-1.3493411E-2,2.881805E-4,-1.710079E-2,-8.9108925E-3,1.2994233E-3,5.8655757E-3,8.99552E-3,1.4888381E-2,-2.2063294E-2,-9.790934E-3,-2.1558856E-3,1.2546931E-2,-3.1261314E-2,-1.9464592E-2,-3.4809656E-2,-4.226022E-2,-6.062568E-3,1.9541327E-3,-9.593561E-3,-1.6665144E-2],"categories":[],"categories_nodes":[],"categories_segments":[],"categories_sizes":[],"default_left":[0,0,0,0,0,0,0,0,0,0,0,0,0,0,0,0,0,0,0,0,0,0,0,0,0,0,0,0,0,0,0,0,0,0,0,0,0,0,0,0,0,0,0,0,0,0,0,0,0,0,0,0,0,0,0,0,0,0,0,0,0,0,0],"id":14,"left_children":[1,3,5,7,9,11,13,-1,-1,-1,15,17,19,21,23,25,-1,27,29,31,33,35,37,39,41,-1,-1,-1,43,45,-1,-1,-1,-1,-1,47,49,51,53,55,57,59,61,-1,-1,-1,-1,-1,-1,-1,-1,-1,-1,-1,-1,-1,-1,-1,-1,-1,-1,-1,-1],"loss_changes":[4.8159567E2,1.9618439E1,4.8998734E1,5.0408936E-1,4.793701E0,1.9689087E1,2.840384E1,0E0,0E0,0E0,2.855568E-1,7.188401E-1,1.7906799E0,3.5944471E0,1.0876488E1,6.882858E-2,0E0,6.484866E-1,1.0118532E-1,1.9864235E0,8.2901E-2,6.0699797E-1,2.6148427E0,3.1930618E0,7.58657E-1,0E0,0E0,0E0,1.10764235E-1,1.5269232E-1,0E0,0E0,0E0,0E0,0E0,8.6596146E-2,8.7412834E-2,4.426918E-1,6.4972234E-1,5.940876E-1,9.6206665E-3,2.1677038E-1,2.6896715E-2,0E0,0E0,0E0,0E0,0E0,0E0,0E0,0E0,0E0,0E0,0E0,0E0,0E0,0E0,0E0,0E0,0E0,0E0,0E0,0E0],"parents":[2147483647,0,0,1,1,2,2,3,3,4,4,5,5,6,6,10,10,11,11,12,12,13,13,14,14,15,15,17,17,18,18,19,19,20,20,21,21,22,22,23,23,24,24,28,28,29,29,35,35,36,36,37,37,38,38,39,39,40,40,41,41,42,42],"right_children":[2,4,6,8,10,12,14,-1,-1,-1,16,18,20,22,24,26,-1,28,30,32,34,36,38,40,42,-1,-1,-1,44,46,-1,-1,-1,-1,-1,48,50,52,54,56,58,60,62,-1,-1,-1,-1,-1,-1,-1,-1,-1,-1,-1,-1,-1,-1,-1,-1,-1,-1,-1,-1],"split_conditions":[1E2,8E1,2E-1,7E1,9E1,1.1E2,1.2E2,4.930742E-2,4.2169318E-2,3.295541E-2,2.5E-1,1E-1,1.2E2,1.1E2,4E-1,2E-2,2.237726E-2,3E-2,5E-2,1E-1,1.5E-1,3E-1,3E-1,1.3E2,1.4E2,1.31883845E-2,1.821032E-2,-3.1878017E-2,5E-2,1.5E-1,-5.440742E-3,-5.3415645E-2,-3.241541E-2,-5.603708E-2,-4.7053486E-2,2.5E-1,4E-1,3E-2,3E-2,2.5E-1,1.4E2,3E-2,2E-2,-1.3493411E-2,2.881805E-4,-1.710079E-2,-8.9108925E-3,1.2994233E-3,5.8655757E-3,8.99552E-3,1.4888381E-2,-2.2063294E-2,-9.790934E-3,-2.1558856E-3,1.2546931E-2,-3.1261314E-2,-1.9464592E-2,-3.4809656E-2,-4.226022E-2,-6.062568E-3,1.9541327E-3,-9.593561E-3,-1.6665144E-2],"split_indices":[0,0,3,0,0,0,0,0,0,0,3,3,0,0,3,2,0,2,2,3,3,3,3,0,0,0,0,0,2,3,0,0,0,0,0,3,3,2,2,3,0,2,2,0,0,0,0,0,0,0,0,0,0,0,0,0,0,0,0,0,0,0,0],"split_type":[0,0,0,0,0,0,0,0,0,0,0,0,0,0,0,0,0,0,0,0,0,0,0,0,0,0,0,0,0,0,0,0,0,0,0,0,0,0,0,0,0,0,0,0,0,0,0,0,0,0,0,0,0,0,0,0,0,0,0,0,0,0,0],"sum_hessian":[1.184E3,5.29E2,6.55E2,2.62E2,2.67E2,2.82E2,3.73E2,1.32E2,1.3E2,1.39E2,1.28E2,5.5E1,2.27E2,1.5E2,2.23E2,7.3E1,5.5E1,1.7E1,3.8E1,6.2E1,1.65E2,8.2E1,6.8E1,1.71E2,5.2E1,2.7E1,4.6E1,1.1E1,6E0,3.1E1,7E0,2.3E1,3.9E1,1.09E2,5.6E1,4.2E1,4E1,3.5E1,3.3E1,6.4E1,1.07E2,3.2E1,2E1,4E0,2E0,1.5E1,1.6E1,2.2E1,2E1,2E1,2E1,1.9E1,1.6E1,2.3E1,1E1,2.1E1,4.3E1,5.6E1,5.1E1,1.6E1,1.6E1,8E0,1.2E1],"tree_param":{"num_deleted":"0","num_feature":"4","num_nodes":"63","size_leaf_vector":"1"}},{"base_weights":[-9.931057E-3,6.7908674E-1,-5.3675324E-1,8.719138E-1,5.0202125E-1,-2.0401938E-1,-7.519373E-1,4.6863105E-2,4.0244263E-2,3.105759E-2,3.8099316E-1,-5.5095977E-1,4.540011E-2,-1.0103861E0,-5.3966165E-1,3.3858037E-1,2.4240594E-2,-3.1807148E-1,-7.442732E-1,-1.0808553E-1,1.8190038E-1,-5.311432E-2,-9.0470225E-1,-6.412692E-1,-2.4108565E-1,1.2681312E-2,1.7873717E-2,-4.715477E-1,-2.2566809E-1,-5.0362367E-2,-5.8103055E-1,4.1438654E-2,-2.9964474E-1,2.7474713E-1,7.290027E-2,-3.476732E-2,-4.981271E-2,-4.5856306E-1,-7.384193E-1,-1.0028176E-1,-3.143318E-1,-2.9264307E-2,-1.4006992E-2,-8.15568E-3,-1.3488032E-2,-3.1216715E-2,-1.8125147E-2,-1.1603847E-3,5.847117E-3,-1.2404195E-2,-2.1488095E-2,1.0956386E-2,1.5921053E-2,4.5870963E-4,6.506017E-3,-2.7622549E-2,-2.0035049E-2,-4.043887E-2,-2.9191276E-2,-6.8216296E-3,9.4296143E-4,-2.0059135E-2,-8.916878E-3],"categories":[],"categories_nodes":[],"categories_segments":[],"categories_sizes":[],"default_left":[0,0,0,0,0,0,0,0,0,0,0,0,0,0,0,0,0,0,0,0,0,0,0,0,0,0,0,0,0,0,0,0,0,0,0,0,0,0,0,0,0,0,0,0,0,0,0,0,0,0,0,0,0,0,0,0,0,0,0,0,0,0,0],"id":15,"left_children":[1,3,5,7,9,11,13,-1,-1,-1,15,17,19,21,23,25,-1,27,29,31,33,-1,35,37,39,-1,-1,41,43,-1,45,47,49,51,53,-1,-1,55,57,59,61,-1,-1,-1,-1,-1,-1,-1,-1,-1,-1,-1,-1,-1,-1,-1,-1,-1,-1,-1,-1,-1,-1],"loss_changes":[4.381303E2,1.7419098E1,4.8820312E1,3.362732E-1,3.728325E0,2.338911E1,2.2222626E1,0E0,0E0,0E0,4.479046E-1,4.8505783E0,3.329892E0,5.9158325E-2,6.823044E0,7.3057175E-2,0E0,6.452179E-1,2.0334015E0,2.1606221E0,8.3007693E-1,0E0,6.1061096E-1,2.6966248E0,5.8727884E-1,0E0,0E0,2.4967623E-1,5.25347E-2,0E0,1.5219975E-1,2.1259859E-1,1.1477804E-1,3.9535046E-2,1.4466266E-1,0E0,0E0,1.1545181E-1,7.242737E-1,9.732802E-2,3.8909125E-1,0E0,0E0,0E0,0E0,0E0,0E0,0E0,0E0,0E0,0E0,0E0,0E0,0E0,0E0,0E0,0E0,0E0,0E0,0E0,0E0,0E0,0E0],"parents":[2147483647,0,0,1,1,2,2,3,3,4,4,5,5,6,6,10,10,11,11,12,12,13,13,14,14,15,15,17,17,18,18,19,19,20,20,22,22,23,23,24,24,27,27,28,28,30,30,31,31,32,32,33,33,34,34,37,37,38,38,39,39,40,40],"right_children":[2,4,6,8,10,12,14,-1,-1,-1,16,18,20,22,24,26,-1,28,30,32,34,-1,36,38,40,-1,-1,42,44,-1,46,48,50,52,54,-1,-1,56,58,60,62,-1,-1,-1,-1,-1,-1,-1,-1,-1,-1,-1,-1,-1,-1,-1,-1,-1,-1,-1,-1,-1,-1],"split_conditions":[1E2,8E1,1.2E2,7E1,9E1,2E-1,2E-1,4.6863105E-2,4.0244263E-2,3.105759E-2,3E-1,1.1E2,3E-1,1.5E-1,4E-1,1E-2,2.4240594E-2,1E-1,1E-1,1.1E2,1.1E2,-5.311432E-2,1.3E2,1.3E2,1.3E2,1.2681312E-2,1.7873717E-2,3E-2,2E-2,-5.0362367E-2,5E-2,2.5E-1,5E-2,4E-1,4E-1,-3.476732E-2,-4.981271E-2,2.5E-1,3E-1,5E-2,3E-2,-2.9264307E-2,-1.4006992E-2,-8.15568E-3,-1.3488032E-2,-3.1216715E-2,-1.8125147E-2,-1.1603847E-3,5.847117E-3,-1.2404195E-2,-2.1488095E-2,1.0956386E-2,1.5921053E-2,4.5870963E-4,6.506017E-3,-2.7622549E-2,-2.0035049E-2,-4.043887E-2,-2.9191276E-2,-6.8216296E-3,9.4296143E-4,-2.0059135E-2,-8.916878E-3],"split_indices":[0,0,0,0,0,3,3,0,0,0,3,0,3,3,3,2,0,3,3,0,0,0,0,0,0,0,0,2,2,0,2,3,2,3,3,0,0,3,3,2,2,0,0,0,0,0,0,0,0,0,0,0,0,0,0,0,0,0,0,0,0,0,0],"split_type":[0,0,0,0,0,0,0,0,0,0,0,0,0,0,0,0,0,0,0,0,0,0,0,0,0,0,0,0,0,0,0,0,0,0,0,0,0,0,0,0,0,0,0,0,0,0,0,0,0,0,0,0,0,0,0,0,0,0,0,0,0,0,0],"sum_hessian":[1.205E3,5.22E2,6.83E2,2.48E2,2.74E2,2.69E2,4.14E2,1.19E2,1.29E2,1.36E2,1.38E2,1.12E2,1.57E2,1.85E2,2.29E2,1.01E2,3.7E1,5.2E1,6E1,7.4E1,8.3E1,1.18E2,6.7E1,1.7E2,5.9E1,2.1E1,8E1,1.8E1,3.4E1,2.1E1,3.9E1,4.2E1,3.2E1,4.4E1,3.9E1,2.3E1,4.4E1,6.1E1,1.09E2,2.1E1,3.8E1,1E1,8E0,1.6E1,1.8E1,3.1E1,8E0,2.3E1,1.9E1,2.5E1,7E0,2.2E1,2.2E1,1.9E1,2E1,2E1,4.1E1,7.2E1,3.7E1,1.6E1,5E0,2.2E1,1.6E1],"tree_param":{"num_deleted":"0","num_feature":"4","num_nodes":"63","size_leaf_vector":"1"}},{"base_weights":[-3.1228445E-3,6.475082E-1,-4.992484E-1,8.292226E-1,4.6748373E-1,-7.610547E-1,-2.2410971E-1,4.453284E-2,3.828555E-2,2.9207557E-2,3.463572E-1,-2.7389672E-1,-9.0129423E-1,-6.804324E-1,9.997559E-2,2.9280925E-1,4.6516746E-1,-3.030409E-2,-1.5101904E-1,-9.671564E-1,-5.5195475E-1,-2.2405986E-1,-9.213415E-1,-6.657586E-2,4.4192585E-1,1.1861307E-2,3.3997622E-1,1.6397985E-2,2.7317861E-2,-3.659668E-1,-4.7725715E-2,-5.222414E-2,-8.0181265E-1,-7.6077074E-1,-1.2592757E-1,-5.706224E-1,-2.2116553E-2,-5.147639E-2,-6.822279E-1,1.4159097E-1,-3.795338E-1,2.91953E-1,2.9138759E-2,1.2854203E-2,1.9500168E-2,-2.0977942E-2,-6.599863E-3,-5.3401915E-3,1.0466099E-2,-2.9333308E-2,-5.0076026E-2,-1.5020372E-2,-4.4391003E-2,4.997978E-3,-1.8215481E-2,-9.537353E-3,-4.27724E-2,-6.7967E-3,8.9453515E-3,-1.8023208E-2,-4.091419E-2,-1.235523E-3,1.5019141E-2,-3.0200655E-2,-7.8767E-3,2.0593515E-2,3.7891273E-3],"categories":[],"categories_nodes":[],"categories_segments":[],"categories_sizes":[],"default_left":[0,0,0,0,0,0,0,0,0,0,0,0,0,0,0,0,0,0,0,0,0,0,0,0,0,0,0,0,0,0,0,0,0,0,0,0,0,0,0,0,0,0,0,0,0,0,0,0,0,0,0,0,0,0,0,0,0,0,0,0,0,0,0,0,0,0,0],"id":16,"left_children":[1,3,5,7,9,11,13,-1,-1,-1,15,17,19,21,23,25,27,-1,29,31,33,35,37,39,41,-1,43,-1,-1,45,47,-1,49,51,53,55,57,-1,59,61,63,65,-1,-1,-1,-1,-1,-1,-1,-1,-1,-1,-1,-1,-1,-1,-1,-1,-1,-1,-1,-1,-1,-1,-1,-1,-1],"loss_changes":[3.857401E2,1.6524994E1,4.8667847E1,3.16864E-1,3.5001297E0,2.3459763E1,4.9166668E1,0E0,0E0,0E0,6.972227E-1,3.1331024E0,5.6553802E0,1.4965874E1,1.1135122E1,1.6316509E-1,2.552719E-1,0E0,1.2924917E0,2.0392456E0,3.9074554E0,3.4166934E0,1.625824E0,8.653203E0,1.1817656E0,0E0,9.878588E-2,0E0,0E0,1.828587E-1,6.4497805E-1,0E0,2.6778908E0,1.487957E0,8.979752E-1,1.7843928E0,7.5647926E-1,0E0,1.0621519E0,2.1200078E0,2.5460682E0,8.2423234E-1,0E0,0E0,0E0,0E0,0E0,0E0,0E0,0E0,0E0,0E0,0E0,0E0,0E0,0E0,0E0,0E0,0E0,0E0,0E0,0E0,0E0,0E0,0E0,0E0,0E0],"parents":[2147483647,0,0,1,1,2,2,3,3,4,4,5,5,6,6,10,10,11,11,12,12,13,13,14,14,15,15,16,16,18,18,19,19,20,20,21,21,22,22,23,23,24,24,26,26,29,29,30,30,32,32,33,33,34,34,35,35,36,36,38,38,39,39,40,40,41,41],"right_children":[2,4,6,8,10,12,14,-1,-1,-1,16,18,20,22,24,26,28,-1,30,32,34,36,38,40,42,-1,44,-1,-1,46,48,-1,50,52,54,56,58,-1,60,62,64,66,-1,-1,-1,-1,-1,-1,-1,-1,-1,-1,-1,-1,-1,-1,-1,-1,-1,-1,-1,-1,-1,-1,-1,-1,-1],"split_conditions":[1E2,8E1,7.5E-1,7E1,9E1,1.1E2,2E-1,4.453284E-2,3.828555E-2,2.9207557E-2,1E0,1.5E-1,4E-1,1.2E2,2E0,5E-1,2E-1,-3.030409E-2,2.5E-1,5E-1,5E-1,1E-1,1.5E-1,1.3E2,3E-1,1.1861307E-2,2E-1,1.6397985E-2,2.7317861E-2,4E-1,4E-1,-5.222414E-2,1.3E2,1.2E2,1.3E2,1.1E2,2E0,-5.147639E-2,1.3E2,3E-1,3E-1,1.3E2,2.9138759E-2,1.2854203E-2,1.9500168E-2,-2.0977942E-2,-6.599863E-3,-5.3401915E-3,1.0466099E-2,-2.9333308E-2,-5.0076026E-2,-1.5020372E-2,-4.4391003E-2,4.997978E-3,-1.8215481E-2,-9.537353E-3,-4.27724E-2,-6.7967E-3,8.9453515E-3,-1.8023208E-2,-4.091419E-2,-1.235523E-3,1.5019141E-2,-3.0200655E-2,-7.8767E-3,2.0593515E-2,3.7891273E-3],"split_indices":[0,0,1,0,0,0,3,0,0,0,1,3,3,0,1,1,3,0,1,1,1,3,3,0,3,0,3,0,0,3,3,0,0,0,0,0,1,0,0,3,3,0,0,0,0,0,0,0,0,0,0,0,0,0,0,0,0,0,0,0,0,0,0,0,0,0,0],"split_type":[0,0,0,0,0,0,0,0,0,0,0,0,0,0,0,0,0,0,0,0,0,0,0,0,0,0,0,0,0,0,0,0,0,0,0,0,0,0,0,0,0,0,0,0,0,0,0,0,0,0,0,0,0,0,0,0,0,0,0,0,0,0,0,0,0,0,0],"sum_hessian":[1.193E3,5.16E2,6.77E2,2.55E2,2.61E2,3.46E2,3.31E2,1.23E2,1.32E2,1.31E2,1.3E2,7.8E1,2.68E2,1.37E2,1.94E2,9.2E1,3.8E1,2E1,5.8E1,2.24E2,4.4E1,4.8E1,8.9E1,1.31E2,6.3E1,4.5E1,4.7E1,1.6E1,2.2E1,1.8E1,4E1,1.49E2,7.5E1,2.9E1,1.5E1,1.7E1,3.1E1,5.9E1,3E1,7.9E1,5.2E1,3.2E1,3.1E1,2E1,2.7E1,1.4E1,4E0,3.3E1,7E0,3.8E1,3.7E1,7E0,2.2E1,8E0,7E0,8E0,9E0,2E1,1.1E1,1E1,2E1,3.9E1,4E1,2.5E1,2.7E1,2E1,1.2E1],"tree_param":{"num_deleted":"0","num_feature":"4","num_nodes":"67","size_leaf_vector":"1"}},{"base_weights":[-1.9105205E-3,-1.21724136E-1,2.3682733E-1,-3.1366843E-1,-6.3569315E-2,-1.14869066E-1,3.781512E-1,-1.7641823E-1,-3.368747E-1,-1.7139572E-1,7.524301E-2,-2.6792252E-1,-1.40898E-2,2.2567353E-1,4.8026663E-1,-6.2501326E-2,-2.531536E-1,-3.0501816E-1,-2.1640526E-2,-2.1726397E-1,-1.2507227E-1,7.524342E-3,2.2510192E-1,-1.4125693E-1,-4.7568986E-1,-9.3746915E-2,7.052171E-2,1.465497E-1,2.9839867E-1,3.5089183E-1,5.955233E-1,-9.611063E-3,3.8073678E-3,-2.0170143E-2,-1.345265E-1,-4.231333E-1,-2.6533347E-1,-3.2897624E-1,-1.8550763E-1,-5.6781467E-2,-1.7454492E-1,-2.7899478E-2,9.0888985E-2,2.0137887E-1,1.6040133E-2,-1.0651617E-2,-6.513891E-2,-3.160639E-2,-2.2068119E-1,-6.2019667E-3,-1.467655E-1,4.2342056E-2,6.407767E-3,2.4164678E-1,9.013947E-2,2.4059168E-1,1.90466E-2,2.808439E-1,2.358208E-2,2.6295796E-2,3.4885403E-2,9.066368E-3,-1.3781882E-2,-7.985479E-3,-2.4245432E-2,-1.8997332E-2,-1.0547648E-2,-1.2400544E-2,-2.2968648E-2,-1.136171E-2,-8.022511E-3,-3.9003936E-3,-1.5809656E-3,-3.7755712E-3,-1.4336072E-2,-2.8552038E-3,4.6680863E-3,6.066549E-3,-2.2338291E-3,1.2326537E-2,8.540803E-3,-7.5846286E-3,3.3907357E-3,-1.3231798E-2,2.175054E-3,1.8543184E-3,-2.435753E-3,-1.1427846E-2,-1.8380292E-3,7.132379E-4,3.1691939E-3,6.927532E-3,1.959296E-2,2.3287686E-3,9.032354E-3,7.7388934E-3,1.687462E-2,8.5400995E-3,1.5075102E-2],"categories":[],"categories_nodes":[],"categories_segments":[],"categories_sizes":[],"default_left":[0,0,0,0,0,0,0,0,0,0,0,0,0,0,0,0,0,0,0,0,0,0,0,0,0,0,0,0,0,0,0,0,0,0,0,0,0,0,0,0,0,0,0,0,0,0,0,0,0,0,0,0,0,0,0,0,0,0,0,0,0,0,0,0,0,0,0,0,0,0,0,0,0,0,0,0,0,0,0,0,0,0,0,0,0,0,0,0,0,0,0,0,0,0,0,0,0,0,0],"id":17,"left_children":[1,3,5,7,9,11,13,15,17,19,21,23,25,27,29,31,33,35,-1,37,39,41,43,45,47,49,51,53,55,57,59,-1,-1,-1,61,63,65,67,69,71,73,75,77,79,-1,-1,81,-1,83,85,87,89,-1,91,93,95,-1,97,-1,-1,-1,-1,-1,-1,-1,-1,-1,-1,-1,-1,-1,-1,-1,-1,-1,-1,-1,-1,-1,-1,-1,-1,-1,-1,-1,-1,-1,-1,-1,-1,-1,-1,-1,-1,-1,-1,-1,-1,-1],"loss_changes":[3.441089E1,8.921211E0,2.0024086E1,5.329914E-1,9.232958E0,1.78548E0,4.360302E0,2.3767972E-1,3.508606E-1,7.1012306E-1,2.7383323E0,1.1433861E0,4.8514476E-1,6.2952185E-1,2.340866E0,2.484486E-1,2.487334E-1,4.5958614E-1,0E0,5.5270195E-1,5.813315E-1,5.5476433E-1,1.261034E-1,1.5002543E-1,5.386827E-1,1.708256E-1,5.1417008E-2,2.893561E-1,1.9461107E-1,5.695782E-1,2.6610565E-1,0E0,0E0,0E0,5.4025614E-1,3.9447546E-1,5.057254E-1,2.767024E-1,1.0678196E-1,3.7591115E-2,1.1003819E0,4.727941E-1,2.3652634E-1,5.448675E-2,0E0,0E0,1.9440892E-1,0E0,1.044085E-1,2.9411476E-2,1.9853967E-1,1.386578E-2,0E0,2.709204E-1,1.4141583E-1,2.6374936E-1,0E0,7.353258E-2,0E0,0E0,0E0,0E0,0E0,0E0,0E0,0E0,0E0,0E0,0E0,0E0,0E0,0E0,0E0,0E0,0E0,0E0,0E0,0E0,0E0,0E0,0E0,0E0,0E0,0E0,0E0,0E0,0E0,0E0,0E0,0E0,0E0,0E0,0E0,0E0,0E0,0E0,0E0,0E0,0E0],"parents":[2147483647,0,0,1,1,2,2,3,3,4,4,5,5,6,6,7,7,8,8,9,9,10,10,11,11,12,12,13,13,14,14,15,15,16,16,17,17,19,19,20,20,21,21,22,22,23,23,24,24,25,25,26,26,27,27,28,28,29,29,30,30,34,34,35,35,36,36,37,37,38,38,39,39,40,40,41,41,42,42,43,43,46,46,48,48,49,49,50,50,51,51,53,53,54,54,55,55,57,57],"right_children":[2,4,6,8,10,12,14,16,18,20,22,24,26,28,30,32,34,36,-1,38,40,42,44,46,48,50,52,54,56,58,60,-1,-1,-1,62,64,66,68,70,72,74,76,78,80,-1,-1,82,-1,84,86,88,90,-1,92,94,96,-1,98,-1,-1,-1,-1,-1,-1,-1,-1,-1,-1,-1,-1,-1,-1,-1,-1,-1,-1,-1,-1,-1,-1,-1,-1,-1,-1,-1,-1,-1,-1,-1,-1,-1,-1,-1,-1,-1,-1,-1,-1,-1],"split_conditions":[1E0,2.5E-1,1.5E-1,1E-1,2.5E-1,2E-2,2.5E-1,2E-2,5E-2,1.5E-1,7.5E-1,1E-2,2E0,2E0,2E0,1E-2,3E-2,1E-2,-2.1640526E-2,1E-2,2E-2,4E-1,5E-2,1E-1,1E-1,3E-2,5E-2,2E-2,3E-2,4E-1,4E-1,-9.611063E-3,3.8073678E-3,-2.0170143E-2,5E-2,1.5E-1,2E-1,7.5E-1,5E-1,2E-1,2E-1,5E-2,5E-2,3E-1,1.6040133E-2,-1.0651617E-2,2E0,-3.160639E-2,2E0,1E-1,5E-2,3E-2,6.407767E-3,1E-2,5E-2,2E-1,1.90466E-2,1E-2,2.358208E-2,2.6295796E-2,3.4885403E-2,9.066368E-3,-1.3781882E-2,-7.985479E-3,-2.4245432E-2,-1.8997332E-2,-1.0547648E-2,-1.2400544E-2,-2.2968648E-2,-1.136171E-2,-8.022511E-3,-3.9003936E-3,-1.5809656E-3,-3.7755712E-3,-1.4336072E-2,-2.8552038E-3,4.6680863E-3,6.066549E-3,-2.2338291E-3,1.2326537E-2,8.540803E-3,-7.5846286E-3,3.3907357E-3,-1.3231798E-2,2.175054E-3,1.8543184E-3,-2.435753E-3,-1.1427846E-2,-1.8380292E-3,7.132379E-4,3.1691939E-3,6.927532E-3,1.959296E-2,2.3287686E-3,9.032354E-3,7.7388934E-3,1.687462E-2,8.5400995E-3,1.5075102E-2],"split_indices":[1,1,3,3,3,2,3,2,2,3,1,2,1,1,1,2,2,2,0,2,2,3,2,3,3,2,2,2,2,3,3,0,0,0,2,3,3,1,1,3,3,2,2,3,0,0,1,0,1,3,2,2,0,2,2,3,0,2,0,0,0,0,0,0,0,0,0,0,0,0,0,0,0,0,0,0,0,0,0,0,0,0,0,0,0,0,0,0,0,0,0,0,0,0,0,0,0,0,0],"split_type":[0,0,0,0,0,0,0,0,0,0,0,0,0,0,0,0,0,0,0,0,0,0,0,0,0,0,0,0,0,0,0,0,0,0,0,0,0,0,0,0,0,0,0,0,0,0,0,0,0,0,0,0,0,0,0,0,0,0,0,0,0,0,0,0,0,0,0,0,0,0,0,0,0,0,0,0,0,0,0,0,0,0,0,0,0,0,0,0,0,0,0,0,0,0,0,0,0,0,0],"sum_hessian":[1.201E3,8E2,4.01E2,1.85E2,6.15E2,1.15E2,2.86E2,2.8E1,1.57E2,3.46E2,2.69E2,4.5E1,7E1,1.16E2,1.7E2,1.2E1,1.6E1,1.21E2,3.6E1,1.72E2,1.74E2,1.86E2,8.3E1,2.9E1,1.6E1,3.6E1,3.4E1,5.7E1,5.9E1,8.2E1,8.8E1,6E0,6E0,6E0,1E1,2.8E1,9.3E1,3.6E1,1.36E2,7.4E1,1E2,1.31E2,5.5E1,6.9E1,1.4E1,1.4E1,1.5E1,9E0,7E0,1.4E1,2.2E1,2.4E1,1E1,2E1,3.7E1,3.7E1,2.2E1,5.4E1,2.8E1,5.6E1,3.2E1,3E0,7E0,6E0,2.2E1,2.8E1,6.5E1,2.4E1,1.2E1,4.8E1,8.8E1,3.9E1,3.5E1,5.4E1,4.6E1,1.06E2,2.5E1,4.5E1,1E1,2.5E1,4.4E1,9E0,6E0,6E0,1E0,7E0,7E0,1.2E1,1E1,1.1E1,1.3E1,1.3E1,7E0,2.6E1,1.1E1,2.1E1,1.6E1,1E1,4.4E1],"tree_param":{"num_deleted":"0","num_feature":"4","num_nodes":"99","size_leaf_vector":"1"}},{"base_weights":[-2.4820843E-3,6.236938E-1,-4.8696494E-1,7.881172E-1,4.660202E-1,-1.6901568E-1,-6.834985E-1,4.2270698E-2,3.6395516E-2,2.832267E-2,3.5282955E-1,-5.6161946E-1,3.16172E-2,-8.5389245E-1,-3.2541028E-1,2.8684366E-1,4.5398983E-1,-3.518887E-1,-7.879399E-1,-6.322322E-2,3.4312546E-1,-4.9129944E-2,-7.255061E-1,-4.5586532E-1,-1.7618862E-1,1.177608E-2,1.6395716E-2,1.8786391E-2,2.5861138E-2,-2.2492277E-2,-1.218873E-2,-4.7243156E-2,-3.0116707E-2,9.7855814E-2,-2.4886681E-1,3.9999297E-1,2.6991868E-1,-6.3081896E-1,-4.5382824E-2,-3.8496768E-1,-2.9662644E-2,5.2283224E-2,-3.079888E-1,-6.45664E-4,7.9703545E-3,-1.6329123E-2,-1.0111663E-2,1.40908975E-2,2.325697E-2,1.0788676E-2,1.8465966E-2,-2.7817318E-2,-3.4995355E-2,-2.5358444E-2,-1.7335314E-2,-3.5739907E-3,6.977862E-3,-2.0086754E-2,-1.2051422E-2],"categories":[],"categories_nodes":[],"categories_segments":[],"categories_sizes":[],"default_left":[0,0,0,0,0,0,0,0,0,0,0,0,0,0,0,0,0,0,0,0,0,0,0,0,0,0,0,0,0,0,0,0,0,0,0,0,0,0,0,0,0,0,0,0,0,0,0,0,0,0,0,0,0,0,0,0,0,0,0],"id":18,"left_children":[1,3,5,7,9,11,13,-1,-1,-1,15,17,19,21,23,25,27,29,31,33,35,-1,37,39,41,-1,-1,-1,-1,-1,-1,-1,-1,43,45,47,49,51,-1,53,-1,55,57,-1,-1,-1,-1,-1,-1,-1,-1,-1,-1,-1,-1,-1,-1,-1,-1],"loss_changes":[3.685967E2,1.3373093E1,4.2688553E1,2.746277E-1,2.9036293E0,2.0734066E1,2.5531921E1,0E0,0E0,0E0,7.4422264E-1,3.947235E0,5.191819E0,4.0130157E0,2.6060896E0,9.561157E-2,5.3100586E-2,3.9868355E-1,6.5416336E-1,4.0612974E0,6.2720776E-2,0E0,1.9627914E0,4.8266888E-1,2.0035357E0,0E0,0E0,0E0,0E0,0E0,0E0,0E0,0E0,4.9977082E-1,1.6227579E-1,3.0587673E-2,3.3334136E-2,1.2512207E-1,0E0,6.2616825E-2,0E0,2.8000796E-1,1.6681623E-1,0E0,0E0,0E0,0E0,0E0,0E0,0E0,0E0,0E0,0E0,0E0,0E0,0E0,0E0,0E0,0E0],"parents":[2147483647,0,0,1,1,2,2,3,3,4,4,5,5,6,6,10,10,11,11,12,12,13,13,14,14,15,15,16,16,17,17,18,18,19,19,20,20,22,22,23,23,24,24,33,33,34,34,35,35,36,36,37,37,39,39,41,41,42,42],"right_children":[2,4,6,8,10,12,14,-1,-1,-1,16,18,20,22,24,26,28,30,32,34,36,-1,38,40,42,-1,-1,-1,-1,-1,-1,-1,-1,44,46,48,50,52,-1,54,-1,56,58,-1,-1,-1,-1,-1,-1,-1,-1,-1,-1,-1,-1,-1,-1,-1,-1],"split_conditions":[1E2,8E1,1.2E2,7E1,9E1,5E-1,1E0,4.2270698E-2,3.6395516E-2,2.832267E-2,1E0,1.1E2,2E0,5E-1,2E0,5E-1,2E0,2.5E-1,2.5E-1,1.1E2,1.1E2,-4.9129944E-2,1.4E2,1.4E2,1.3E2,1.177608E-2,1.6395716E-2,1.8786391E-2,2.5861138E-2,-2.2492277E-2,-1.218873E-2,-4.7243156E-2,-3.0116707E-2,7.5E-1,7.5E-1,2E-2,5E-2,1.3E2,-4.5382824E-2,1E-2,-2.9662644E-2,2E-2,2E-2,-6.45664E-4,7.9703545E-3,-1.6329123E-2,-1.0111663E-2,1.40908975E-2,2.325697E-2,1.0788676E-2,1.8465966E-2,-2.7817318E-2,-3.4995355E-2,-2.5358444E-2,-1.7335314E-2,-3.5739907E-3,6.977862E-3,-2.0086754E-2,-1.2051422E-2],"split_indices":[0,0,0,0,0,1,1,0,0,0,1,0,1,1,1,1,1,1,1,0,0,0,0,0,0,0,0,0,0,0,0,0,0,1,1,2,2,0,0,2,0,2,2,0,0,0,0,0,0,0,0,0,0,0,0,0,0,0,0],"split_type":[0,0,0,0,0,0,0,0,0,0,0,0,0,0,0,0,0,0,0,0,0,0,0,0,0,0,0,0,0,0,0,0,0,0,0,0,0,0,0,0,0,0,0,0,0,0,0,0,0,0,0,0,0,0,0,0,0,0,0],"sum_hessian":[1.213E3,5.29E2,6.84E2,2.57E2,2.72E2,2.62E2,4.22E2,1.25E2,1.32E2,1.42E2,1.3E2,8.8E1,1.74E2,2.85E2,1.37E2,8.1E1,4.9E1,4.7E1,4.1E1,1.34E2,4E1,1.39E2,1.46E2,7.2E1,6.5E1,3.9E1,4.2E1,2.5E1,2.4E1,2.3E1,2.4E1,2E1,2.1E1,7.2E1,6.2E1,2E1,2E1,9.9E1,4.7E1,5E1,2.2E1,2.4E1,4.1E1,2.6E1,4.6E1,2.1E1,4.1E1,9E0,1.1E1,1.5E1,5E0,5.2E1,4.7E1,9E0,4.1E1,1E1,1.4E1,1.5E1,2.6E1],"tree_param":{"num_deleted":"0","num_feature":"4","num_nodes":"59","size_leaf_vector":"1"}},{"base_weights":[-3.2164843E-3,5.8499455E-1,-4.6445215E-1,7.462508E-1,4.2574498E-1,-7.2369856E-1,-2.6681584E-1,4.026333E-2,3.441139E-2,2.64594E-2,3.2945204E-1,-2.5638714E-1,-8.449415E-1,2.6470663E-2,-4.5177147E-1,3.0241197E-1,2.322132E-2,-4.439328E-1,-1.6319409E-1,-4.722872E-2,-7.8458077E-1,-9.7269066E-2,1.4352539E-1,-5.406776E-1,-1.5996993E-1,2.6199973E-1,1.6341856E-2,-2.385042E-2,-9.618918E-3,-2.1094644E-1,-1.12498716E-1,-3.297699E-2,-4.450968E-2,4.540525E-2,-2.6645666E-1,6.1559647E-2,2.3268855E-1,-3.5652718E-1,-6.3285094E-1,2.7361643E-4,-2.6070225E-1,9.289652E-3,1.44295795E-2,-1.3168017E-2,-1.8009146E-3,-7.5541087E-3,-3.227019E-3,-5.91405E-4,4.125386E-3,-1.9860271E-2,-7.753613E-3,6.583476E-3,1.7455021E-4,1.5288213E-2,6.9283084E-3,-1.9917639E-2,-8.2508465E-3,-3.379363E-2,-2.7306443E-2,1.186204E-3,-4.4446434E-3,-1.6163804E-2,-2.2006945E-3],"categories":[],"categories_nodes":[],"categories_segments":[],"categories_sizes":[],"default_left":[0,0,0,0,0,0,0,0,0,0,0,0,0,0,0,0,0,0,0,0,0,0,0,0,0,0,0,0,0,0,0,0,0,0,0,0,0,0,0,0,0,0,0,0,0,0,0,0,0,0,0,0,0,0,0,0,0,0,0,0,0,0,0],"id":19,"left_children":[1,3,5,7,9,11,13,-1,-1,-1,15,17,19,21,23,25,-1,27,29,-1,31,33,35,37,39,41,-1,-1,-1,43,45,-1,-1,47,49,51,53,55,57,59,61,-1,-1,-1,-1,-1,-1,-1,-1,-1,-1,-1,-1,-1,-1,-1,-1,-1,-1,-1,-1,-1,-1],"loss_changes":[3.2963464E2,1.3395386E1,3.469896E1,3.4980774E-1,2.5250435E0,1.6440887E1,2.1059017E1,0E0,0E0,0E0,3.814621E-1,1.0111861E0,6.60141E-1,2.201093E0,6.087929E0,3.4791946E-2,0E0,7.46398E-2,8.036423E-2,0E0,1.4069824E0,1.7983642E0,5.557251E-1,2.8635979E0,9.2014825E-1,4.973221E-2,0E0,0E0,0E0,1.8305618E-1,3.2808274E-2,0E0,0E0,8.803937E-2,4.3355894E-1,1.7053011E-1,2.1211958E-1,4.3889618E-1,7.860184E-2,5.0201792E-2,4.603374E-1,0E0,0E0,0E0,0E0,0E0,0E0,0E0,0E0,0E0,0E0,0E0,0E0,0E0,0E0,0E0,0E0,0E0,0E0,0E0,0E0,0E0,0E0],"parents":[2147483647,0,0,1,1,2,2,3,3,4,4,5,5,6,6,10,10,11,11,12,12,13,13,14,14,15,15,17,17,18,18,20,20,21,21,22,22,23,23,24,24,25,25,29,29,30,30,33,33,34,34,35,35,36,36,37,37,38,38,39,39,40,40],"right_children":[2,4,6,8,10,12,14,-1,-1,-1,16,18,20,22,24,26,-1,28,30,-1,32,34,36,38,40,42,-1,-1,-1,44,46,-1,-1,48,50,52,54,56,58,60,62,-1,-1,-1,-1,-1,-1,-1,-1,-1,-1,-1,-1,-1,-1,-1,-1,-1,-1,-1,-1,-1,-1],"split_conditions":[1E2,8E1,2E-1,7E1,9E1,1.1E2,1.2E2,4.026333E-2,3.441139E-2,2.64594E-2,4E-1,1E-1,1E-1,3E-1,4E-1,2E-2,2.322132E-2,5E-2,1.5E-1,-4.722872E-2,1.3E2,1.1E2,4E-1,1.3E2,1.3E2,1.5E-1,1.6341856E-2,-2.385042E-2,-9.618918E-3,5E-2,2E-2,-3.297699E-2,-4.450968E-2,2E-2,2.5E-1,1.1E2,1.1E2,5E-2,3E-1,5E-2,5E-2,9.289652E-3,1.44295795E-2,-1.3168017E-2,-1.8009146E-3,-7.5541087E-3,-3.227019E-3,-5.91405E-4,4.125386E-3,-1.9860271E-2,-7.753613E-3,6.583476E-3,1.7455021E-4,1.5288213E-2,6.9283084E-3,-1.9917639E-2,-8.2508465E-3,-3.379363E-2,-2.7306443E-2,1.186204E-3,-4.4446434E-3,-1.6163804E-2,-2.2006945E-3],"split_indices":[0,0,3,0,0,0,0,0,0,0,3,3,3,3,3,2,0,2,3,0,0,0,3,0,0,3,0,0,0,2,2,0,0,2,3,0,0,2,3,2,2,0,0,0,0,0,0,0,0,0,0,0,0,0,0,0,0,0,0,0,0,0,0],"split_type":[0,0,0,0,0,0,0,0,0,0,0,0,0,0,0,0,0,0,0,0,0,0,0,0,0,0,0,0,0,0,0,0,0,0,0,0,0,0,0,0,0,0,0,0,0,0,0,0,0,0,0,0,0,0,0,0,0,0,0,0,0,0,0],"sum_hessian":[1.213E3,5.33E2,6.8E2,2.63E2,2.7E2,2.93E2,3.87E2,1.24E2,1.39E2,1.28E2,1.42E2,6.1E1,2.32E2,1.5E2,2.37E2,1.21E2,2.1E1,1.9E1,4.2E1,8.2E1,1.5E2,7.3E1,7.7E1,1.81E2,5.6E1,5E1,7.1E1,1.6E1,3E0,2E1,2.2E1,7.2E1,7.8E1,4E1,3.3E1,4.1E1,3.6E1,6.2E1,1.19E2,2.2E1,3.4E1,1.5E1,3.5E1,1.5E1,5E0,1.1E1,1.1E1,1.6E1,2.4E1,1.4E1,1.9E1,1.8E1,2.3E1,1.9E1,1.7E1,5E1,1.2E1,7.5E1,4.4E1,1.8E1,4E0,2.6E1,8E0],"tree_param":{"num_deleted":"0","num_feature":"4","num_nodes":"63","size_leaf_vector":"1"}},{"base_weights":[-7.845438E-3,5.577982E-1,-4.3933952E-1,7.141798E-1,4.0902776E-1,-6.7012703E-1,-2.012791E-1,3.8317196E-2,3.2696392E-2,2.5436312E-2,3.099638E-1,-2.3783451E-1,-7.890072E-1,-1.8845914E-2,-4.663852E-1,2.4282628E-1,3.7846693E-1,-3.378111E-1,-3.647832E-2,-5.9011745E-1,-8.4814215E-1,-1.3032351E-1,2.2497971E-1,-5.679493E-1,-2.641026E-1,1.04815075E-2,1.4226315E-2,1.6624678E-2,2.297399E-2,-2.0635841E-2,-1.2351586E-2,-4.7963113E-3,3.4921445E-2,-7.244521E-1,-3.016315E-1,-4.531938E-2,-7.319873E-1,1.19566314E-1,-2.4748443E-1,1.9342585E-2,1.4443989E-1,-3.239729E-2,-4.7212797E-1,-1.6807912E-2,-1.0363106E-2,1.1051901E-3,2.1375155E-3,-4.3040674E-2,-2.9046526E-2,2.4850986E-3,-1.6872931E-2,-2.8343374E-2,-4.009067E-2,3.4159836E-3,1.104607E-2,-8.503572E-3,-1.5427147E-2,5.1694247E-4,1.1274457E-2,-1.9834649E-2,-2.7517943E-2],"categories":[],"categories_nodes":[],"categories_segments":[],"categories_sizes":[],"default_left":[0,0,0,0,0,0,0,0,0,0,0,0,0,0,0,0,0,0,0,0,0,0,0,0,0,0,0,0,0,0,0,0,0,0,0,0,0,0,0,0,0,0,0,0,0,0,0,0,0,0,0,0,0,0,0,0,0,0,0,0,0],"id":20,"left_children":[1,3,5,7,9,11,13,-1,-1,-1,15,17,19,21,23,25,27,29,31,33,35,37,39,41,43,-1,-1,-1,-1,-1,-1,-1,45,47,49,-1,51,53,55,-1,57,-1,59,-1,-1,-1,-1,-1,-1,-1,-1,-1,-1,-1,-1,-1,-1,-1,-1,-1,-1],"loss_changes":[3.011857E2,1.2131363E1,3.8324066E1,3.12912E-1,2.5682335E0,1.8056168E1,1.6725204E1,0E0,0E0,0E0,5.565758E-1,1.5578885E0,2.7691345E0,5.628626E0,2.7468014E0,4.2791843E-2,1.00486755E-1,2.5163984E-1,1.1795318E-1,2.3779774E0,7.7082825E-1,4.1869707E0,7.915373E-1,4.0696526E-1,1.310153E-1,0E0,0E0,0E0,0E0,0E0,0E0,0E0,3.5957433E-4,3.8061333E-1,3.0627942E-1,0E0,4.2173004E-1,2.2383565E-1,4.060173E-1,0E0,4.867642E-1,0E0,5.3138733E-2,0E0,0E0,0E0,0E0,0E0,0E0,0E0,0E0,0E0,0E0,0E0,0E0,0E0,0E0,0E0,0E0,0E0,0E0],"parents":[2147483647,0,0,1,1,2,2,3,3,4,4,5,5,6,6,10,10,11,11,12,12,13,13,14,14,15,15,16,16,17,17,18,18,19,19,20,20,21,21,22,22,23,23,24,24,32,32,33,33,34,34,36,36,37,37,38,38,40,40,42,42],"right_children":[2,4,6,8,10,12,14,-1,-1,-1,16,18,20,22,24,26,28,30,32,34,36,38,40,42,44,-1,-1,-1,-1,-1,-1,-1,46,48,50,-1,52,54,56,-1,58,-1,60,-1,-1,-1,-1,-1,-1,-1,-1,-1,-1,-1,-1,-1,-1,-1,-1,-1,-1],"split_conditions":[1E2,8E1,7.5E-1,7E1,9E1,1.1E2,1.3E2,3.8317196E-2,3.2696392E-2,2.5436312E-2,7.5E-1,5E-1,1.2E2,2E0,2E0,5E-1,2E0,2.5E-1,3E-2,5E-1,5E-1,1.1E2,1.1E2,1E0,2E-2,1.04815075E-2,1.4226315E-2,1.6624678E-2,2.297399E-2,-2.0635841E-2,-1.2351586E-2,-4.7963113E-3,5E-2,2.5E-1,1E-2,-4.531938E-2,1.3E2,3E-2,1.2E2,1.9342585E-2,2E-2,-3.239729E-2,1.4E2,-1.6807912E-2,-1.0363106E-2,1.1051901E-3,2.1375155E-3,-4.3040674E-2,-2.9046526E-2,2.4850986E-3,-1.6872931E-2,-2.8343374E-2,-4.009067E-2,3.4159836E-3,1.104607E-2,-8.503572E-3,-1.5427147E-2,5.1694247E-4,1.1274457E-2,-1.9834649E-2,-2.7517943E-2],"split_indices":[0,0,1,0,0,0,0,0,0,0,1,1,0,1,1,1,1,1,2,1,1,0,0,1,2,0,0,0,0,0,0,0,2,1,2,0,0,2,0,0,2,0,0,0,0,0,0,0,0,0,0,0,0,0,0,0,0,0,0,0,0],"split_type":[0,0,0,0,0,0,0,0,0,0,0,0,0,0,0,0,0,0,0,0,0,0,0,0,0,0,0,0,0,0,0,0,0,0,0,0,0,0,0,0,0,0,0,0,0,0,0,0,0,0,0,0,0,0,0,0,0,0,0,0,0],"sum_hessian":[1.232E3,5.33E2,6.99E2,2.58E2,2.75E2,3.54E2,3.45E2,1.32E2,1.26E2,1.35E2,1.4E2,7.7E1,2.77E2,2.05E2,1.4E2,7.3E1,6.7E1,5.1E1,2.6E1,6.6E1,2.11E2,1.41E2,6.4E1,9.2E1,4.8E1,4.4E1,2.9E1,4.6E1,2.1E1,2.6E1,2.5E1,1.4E1,1.2E1,4.4E1,2.2E1,1.36E2,7.5E1,4.5E1,9.6E1,2E1,4.4E1,4.7E1,4.5E1,1.9E1,2.9E1,6E0,6E0,2E1,2.4E1,2E0,2E1,2.5E1,5E1,3.1E1,1.4E1,4.4E1,5.2E1,1.7E1,2.7E1,2.6E1,1.9E1],"tree_param":{"num_deleted":"0","num_feature":"4","num_nodes":"61","size_leaf_vector":"1"}},{"base_weights":[-2.1609227E-4,5.3251207E-1,-4.1395503E-1,6.789188E-1,3.9112654E-1,-6.1065423E-1,-1.564609E-1,3.6540274E-2,3.1387616E-2,2.4178188E-2,2.930532E-1,-1.8936585E-1,-7.2467905E-1,7.9888016E-2,-3.1403303E-1,2.6690128E-1,2.1504086E-2,-4.3109244E-1,-9.663879E-2,-4.093205E-2,-6.234289E-1,1.7104988E-1,-3.0958723E-2,-4.1897783E-1,-9.348464E-2,1.0736854E-2,1.4576532E-2,-2.3417605E-2,-1.0164362E-2,-1.5450378E-1,1.55931655E-2,-4.7520107E-1,-3.7803132E-2,1.3577873E-1,1.1355846E-2,-1.136692E-1,1.6060995E-1,-2.9431674E-1,-4.8639044E-1,2.6805213E-2,-1.7108108E-1,-9.106694E-3,-4.723467E-3,-1.4558277E-3,2.7638823E-3,-2.818411E-2,-1.9915175E-2,4.8752134E-3,7.742431E-3,-7.374578E-3,-3.5152007E-3,8.800103E-3,4.423424E-3,-1.7358346E-2,-1.0544785E-2,-2.7029086E-2,-2.0827362E-2,-9.902215E-4,1.0394136E-2,-1.0002962E-2,-1.1224377E-3],"categories":[],"categories_nodes":[],"categories_segments":[],"categories_sizes":[],"default_left":[0,0,0,0,0,0,0,0,0,0,0,0,0,0,0,0,0,0,0,0,0,0,0,0,0,0,0,0,0,0,0,0,0,0,0,0,0,0,0,0,0,0,0,0,0,0,0,0,0,0,0,0,0,0,0,0,0,0,0,0,0],"id":21,"left_children":[1,3,5,7,9,11,13,-1,-1,-1,15,17,19,21,23,25,-1,27,29,-1,31,33,35,37,39,-1,-1,-1,-1,41,43,45,-1,47,-1,49,51,53,55,57,59,-1,-1,-1,-1,-1,-1,-1,-1,-1,-1,-1,-1,-1,-1,-1,-1,-1,-1,-1,-1],"loss_changes":[2.6823947E2,1.074675E1,3.4598946E1,2.3149109E-1,2.3332024E0,1.8501266E1,1.1123203E1,0E0,0E0,0E0,3.6898994E-1,1.841166E0,2.3912964E0,1.2178949E0,4.103859E0,8.643055E-2,0E0,1.000123E-1,4.0505582E-1,0E0,2.6093826E0,9.9680424E-2,8.89717E-1,8.736992E-1,5.552956E-1,0E0,0E0,0E0,0E0,5.0802946E-2,4.06437E-2,2.7897835E-1,0E0,1.628691E-2,0E0,4.6832502E-2,3.3062994E-3,1.2518072E-1,6.626129E-2,2.06676E-1,1.5056431E-1,0E0,0E0,0E0,0E0,0E0,0E0,0E0,0E0,0E0,0E0,0E0,0E0,0E0,0E0,0E0,0E0,0E0,0E0,0E0,0E0],"parents":[2147483647,0,0,1,1,2,2,3,3,4,4,5,5,6,6,10,10,11,11,12,12,13,13,14,14,15,15,17,17,18,18,20,20,21,21,22,22,23,23,24,24,29,29,30,30,31,31,33,33,35,35,36,36,37,37,38,38,39,39,40,40],"right_children":[2,4,6,8,10,12,14,-1,-1,-1,16,18,20,22,24,26,-1,28,30,-1,32,34,36,38,40,-1,-1,-1,-1,42,44,46,-1,48,-1,50,52,54,56,58,60,-1,-1,-1,-1,-1,-1,-1,-1,-1,-1,-1,-1,-1,-1,-1,-1,-1,-1,-1,-1],"split_conditions":[1E2,8E1,2.5E-1,7E1,9E1,1.1E2,1.2E2,3.6540274E-2,3.1387616E-2,2.4178188E-2,4E-1,1E-1,1.5E-1,1.1E2,4E-1,2E-2,2.1504086E-2,5E-2,2E-1,-4.093205E-2,1.3E2,4E-1,4E-1,1.3E2,1.3E2,1.0736854E-2,1.4576532E-2,-2.3417605E-2,-1.0164362E-2,3E-2,2E-2,2E-2,-3.7803132E-2,2E-2,1.1355846E-2,3E-2,5E-2,3E-1,3E-1,5E-2,5E-2,-9.106694E-3,-4.723467E-3,-1.4558277E-3,2.7638823E-3,-2.818411E-2,-1.9915175E-2,4.8752134E-3,7.742431E-3,-7.374578E-3,-3.5152007E-3,8.800103E-3,4.423424E-3,-1.7358346E-2,-1.0544785E-2,-2.7029086E-2,-2.0827362E-2,-9.902215E-4,1.0394136E-2,-1.0002962E-2,-1.1224377E-3],"split_indices":[0,0,3,0,0,0,0,0,0,0,3,3,3,0,3,2,0,2,3,0,0,3,3,0,0,0,0,0,0,2,2,2,0,2,0,2,2,3,3,2,2,0,0,0,0,0,0,0,0,0,0,0,0,0,0,0,0,0,0,0,0],"split_type":[0,0,0,0,0,0,0,0,0,0,0,0,0,0,0,0,0,0,0,0,0,0,0,0,0,0,0,0,0,0,0,0,0,0,0,0,0,0,0,0,0,0,0,0,0,0,0,0,0,0,0,0,0,0,0,0,0,0,0,0,0],"sum_hessian":[1.215E3,5.31E2,6.84E2,2.59E2,2.72E2,3.87E2,2.97E2,1.22E2,1.37E2,1.38E2,1.34E2,8.3E1,3.04E2,1.19E2,1.78E2,1.15E2,1.9E1,2.2E1,6.1E1,1.54E2,1.5E2,6.5E1,5.4E1,1.2E2,5.8E1,4E1,7.5E1,1.8E1,4E0,4E1,2.1E1,7.3E1,7.7E1,4.2E1,2.3E1,3.8E1,1.6E1,4.4E1,7.6E1,2.3E1,3.5E1,2.6E1,1.4E1,1E1,1.1E1,3.1E1,4.2E1,1.6E1,2.6E1,2E1,1.8E1,1.2E1,4E0,2.5E1,1.9E1,3.9E1,3.7E1,1.9E1,4E0,2.9E1,6E0],"tree_param":{"num_deleted":"0","num_feature":"4","num_nodes":"61","size_leaf_vector":"1"}},{"base_weights":[-8.858324E-3,5.063876E-1,-3.966077E-1,6.406493E-1,3.7328106E-1,-6.234271E-1,-1.645731E-1,3.4556437E-2,2.9495379E-2,2.3033394E-2,2.8024712E-1,-2.2785176E-1,-7.276838E-1,9.667963E-2,-3.2911193E-1,2.465416E-1,2.1170048E-2,-3.1301835E-1,-2.9097533E-2,-8.0798537E-1,-5.653003E-1,2.0967697E-1,-2.4890656E-2,-4.4767132E-1,-6.904301E-2,9.13209E-3,1.4201889E-2,-1.9900015E-2,-2.0871714E-1,-1.5762693E-1,1.8492881E-3,-4.3951605E-2,-7.296212E-1,-1.9867683E-2,-3.5089366E-2,6.421921E-2,2.8755802E-1,-1.1895502E-1,1.4796127E-1,-3.7312979E-1,-3.0002901E-2,1.2972842E-1,-1.7837955E-1,-1.1387279E-2,-5.525139E-3,-1.4950653E-2,-4.735639E-3,-2.6582325E-2,-3.907093E-2,-3.0007875E-3,7.552178E-3,1.0050084E-2,1.7892426E-2,-7.6569016E-3,2.2732501E-3,4.007411E-4,1.4995075E-2,-2.128367E-2,-1.4646828E-2,2.0932483E-3,9.474884E-3,-1.209408E-2,2.9121115E-4],"categories":[],"categories_nodes":[],"categories_segments":[],"categories_sizes":[],"default_left":[0,0,0,0,0,0,0,0,0,0,0,0,0,0,0,0,0,0,0,0,0,0,0,0,0,0,0,0,0,0,0,0,0,0,0,0,0,0,0,0,0,0,0,0,0,0,0,0,0,0,0,0,0,0,0,0,0,0,0,0,0,0,0],"id":22,"left_children":[1,3,5,7,9,11,13,-1,-1,-1,15,17,19,21,23,25,-1,27,29,31,33,35,37,39,41,-1,-1,-1,43,45,-1,-1,47,-1,-1,49,51,53,55,57,-1,59,61,-1,-1,-1,-1,-1,-1,-1,-1,-1,-1,-1,-1,-1,-1,-1,-1,-1,-1,-1,-1],"loss_changes":[2.3774672E2,8.893005E0,3.5633118E1,2.4033356E-1,1.9765549E0,1.3979996E1,1.4518174E1,0E0,0E0,0E0,5.1322365E-1,1.226579E0,3.0769958E0,1.8047813E0,6.3516483E0,2.020979E-1,0E0,3.689804E-1,2.0118381E-1,3.5521698E-1,1.8529377E0,7.518649E-1,1.05819E0,1.3890972E0,1.4575177E0,0E0,0E0,0E0,2.1555185E-2,4.284115E-2,0E0,0E0,5.177269E-1,0E0,0E0,2.7873048E-1,1.957717E-1,2.4301797E-1,4.8665667E-1,2.882414E-1,0E0,1.18103474E-1,5.0439346E-1,0E0,0E0,0E0,0E0,0E0,0E0,0E0,0E0,0E0,0E0,0E0,0E0,0E0,0E0,0E0,0E0,0E0,0E0,0E0,0E0],"parents":[2147483647,0,0,1,1,2,2,3,3,4,4,5,5,6,6,10,10,11,11,12,12,13,13,14,14,15,15,17,17,18,18,19,19,20,20,21,21,22,22,23,23,24,24,28,28,29,29,32,32,35,35,36,36,37,37,38,38,39,39,41,41,42,42],"right_children":[2,4,6,8,10,12,14,-1,-1,-1,16,18,20,22,24,26,-1,28,30,32,34,36,38,40,42,-1,-1,-1,44,46,-1,-1,48,-1,-1,50,52,54,56,58,-1,60,62,-1,-1,-1,-1,-1,-1,-1,-1,-1,-1,-1,-1,-1,-1,-1,-1,-1,-1,-1,-1],"split_conditions":[1E2,8E1,7.5E-1,7E1,9E1,1.1E2,1.2E2,3.4556437E-2,2.9495379E-2,2.3033394E-2,2E0,5E-1,5E-1,1.1E2,2E0,5E-1,2.1170048E-2,2.5E-1,2E-2,2.5E-1,1.3E2,1E0,2E0,1.4E2,1.3E2,9.13209E-3,1.4201889E-2,-1.9900015E-2,5E-2,1E-2,1.8492881E-3,-4.3951605E-2,1.2E2,-1.9867683E-2,-3.5089366E-2,2E-2,2E0,5E-2,3E-2,3E-2,-3.0002901E-2,2E-2,5E-2,-1.1387279E-2,-5.525139E-3,-1.4950653E-2,-4.735639E-3,-2.6582325E-2,-3.907093E-2,-3.0007875E-3,7.552178E-3,1.0050084E-2,1.7892426E-2,-7.6569016E-3,2.2732501E-3,4.007411E-4,1.4995075E-2,-2.128367E-2,-1.4646828E-2,2.0932483E-3,9.474884E-3,-1.209408E-2,2.9121115E-4],"split_indices":[0,0,1,0,0,0,0,0,0,0,1,1,1,0,1,1,0,1,2,1,0,1,1,0,0,0,0,0,2,2,0,0,0,0,0,2,1,2,2,2,0,2,2,0,0,0,0,0,0,0,0,0,0,0,0,0,0,0,0,0,0,0,0],"split_type":[0,0,0,0,0,0,0,0,0,0,0,0,0,0,0,0,0,0,0,0,0,0,0,0,0,0,0,0,0,0,0,0,0,0,0,0,0,0,0,0,0,0,0,0,0,0,0,0,0,0,0,0,0,0,0,0,0,0,0,0,0,0,0],"sum_hessian":[1.188E3,5.1E2,6.78E2,2.52E2,2.58E2,3.42E2,3.36E2,1.2E2,1.32E2,1.31E2,1.27E2,7.2E1,2.7E2,1.3E2,2.06E2,1.05E2,2.2E1,5E1,2.2E1,1.78E2,9.2E1,6.7E1,6.3E1,1.41E2,6.5E1,4.1E1,6.4E1,2.6E1,2.4E1,7E0,1.5E1,8.8E1,9E1,4.3E1,4.9E1,2.4E1,4.3E1,4.1E1,2.2E1,9.7E1,4.4E1,2.3E1,4.2E1,1.9E1,5E0,1E0,6E0,2.1E1,6.9E1,1E1,1.4E1,2.1E1,2.2E1,3.4E1,7E0,1.2E1,1E1,5.6E1,4.1E1,1E1,1.3E1,3.1E1,1.1E1],"tree_param":{"num_deleted":"0","num_feature":"4","num_nodes":"63","size_leaf_vector":"1"}},{"base_weights":[-1.5081133E-3,4.827799E-1,-3.8272387E-1,6.1509657E-1,3.5493013E-1,-6.233131E-1,-1.9188724E-1,3.293064E-2,2.8110443E-2,2.175071E-2,2.662209E-1,-2.1588172E-1,-7.209466E-1,-4.957994E-1,1.0214991E-1,2.1730961E-1,3.6467707E-1,-4.012873E-1,1.0342027E-2,-3.8494416E-2,-6.069182E-1,-1.826936E-1,-7.094284E-1,-1.6858717E-2,3.6580604E-1,8.808369E-3,2.513532E-1,1.3324243E-2,2.0931512E-2,-4.8406816E-1,-2.3669606E-1,-7.406442E-2,9.838141E-3,-7.0840704E-1,-3.163827E-1,-4.8681492E-1,-4.666442E-2,-8.4314185E-1,-4.4766572E-1,-1.860983E-1,1.5511762E-1,2.4454258E-1,4.911815E-1,9.868773E-3,1.4301284E-2,-2.683109E-2,-1.511503E-2,-1.538824E-2,-3.0716562E-3,-5.5913404E-3,1.634281E-3,-2.7547E-2,-3.7821002E-2,-4.6041864E-4,-2.1549879E-2,-1.2683568E-2,-3.494096E-2,-8.514549E-3,3.1017035E-3,-4.6452593E-2,-3.645193E-2,-2.8747145E-2,-2.9924668E-3,5.3482554E-3,-1.723879E-2,1.1674341E-2,-6.8676346E-3,1.6094072E-2,1.2705392E-4,1.9061869E-2,2.8419008E-2],"categories":[],"categories_nodes":[],"categories_segments":[],"categories_sizes":[],"default_left":[0,0,0,0,0,0,0,0,0,0,0,0,0,0,0,0,0,0,0,0,0,0,0,0,0,0,0,0,0,0,0,0,0,0,0,0,0,0,0,0,0,0,0,0,0,0,0,0,0,0,0,0,0,0,0,0,0,0,0,0,0,0,0,0,0,0,0,0,0,0,0],"id":23,"left_children":[1,3,5,7,9,11,13,-1,-1,-1,15,17,19,21,23,25,27,29,31,-1,33,35,37,39,41,-1,43,-1,-1,45,47,49,-1,51,53,55,57,59,61,63,65,67,69,-1,-1,-1,-1,-1,-1,-1,-1,-1,-1,-1,-1,-1,-1,-1,-1,-1,-1,-1,-1,-1,-1,-1,-1,-1,-1,-1,-1],"loss_changes":[2.2634206E2,8.916679E0,3.1376892E1,2.3731995E-1,1.8520546E0,1.1897385E1,3.4365448E1,0E0,0E0,0E0,5.660448E-1,2.5207386E0,8.944473E-1,1.2512314E1,6.156129E0,8.457756E-2,1.1624575E-1,3.350482E-1,4.551564E-1,0E0,2.0757866E0,3.2040942E0,3.5426903E0,3.987175E0,8.072958E-1,0E0,3.3379555E-2,0E0,0E0,3.8382053E-2,1.4301735E-1,8.4277846E-2,0E0,1.4205933E-2,7.705796E-1,1.0089884E0,7.496548E-1,3.8272858E-2,1.9399967E0,3.2455566E0,1.5906752E0,6.168139E-1,2.945137E-2,0E0,0E0,0E0,0E0,0E0,0E0,0E0,0E0,0E0,0E0,0E0,0E0,0E0,0E0,0E0,0E0,0E0,0E0,0E0,0E0,0E0,0E0,0E0,0E0,0E0,0E0,0E0,0E0],"parents":[2147483647,0,0,1,1,2,2,3,3,4,4,5,5,6,6,10,10,11,11,12,12,13,13,14,14,15,15,16,16,17,17,18,18,20,20,21,21,22,22,23,23,24,24,26,26,29,29,30,30,31,31,33,33,34,34,35,35,36,36,37,37,38,38,39,39,40,40,41,41,42,42],"right_children":[2,4,6,8,10,12,14,-1,-1,-1,16,18,20,22,24,26,28,30,32,-1,34,36,38,40,42,-1,44,-1,-1,46,48,50,-1,52,54,56,58,60,62,64,66,68,70,-1,-1,-1,-1,-1,-1,-1,-1,-1,-1,-1,-1,-1,-1,-1,-1,-1,-1,-1,-1,-1,-1,-1,-1,-1,-1,-1,-1],"split_conditions":[1E2,8E1,2E-1,7E1,9E1,1.1E2,7.5E-1,3.293064E-2,2.8110443E-2,2.175071E-2,1E0,7.5E-1,1.5E-1,1.2E2,2E0,5E-1,2E-1,1.5E-1,2E0,-3.8494416E-2,1E0,2.5E-1,5E-1,3E-1,3E-1,8.808369E-3,2E-1,1.3324243E-2,2.0931512E-2,5E-1,5E-1,1.5E-1,9.838141E-3,1.2E2,1.2E2,1.1E2,3E-1,2.5E-1,4E-1,1.2E2,1.4E2,1.4E2,4E-1,9.868773E-3,1.4301284E-2,-2.683109E-2,-1.511503E-2,-1.538824E-2,-3.0716562E-3,-5.5913404E-3,1.634281E-3,-2.7547E-2,-3.7821002E-2,-4.6041864E-4,-2.1549879E-2,-1.2683568E-2,-3.494096E-2,-8.514549E-3,3.1017035E-3,-4.6452593E-2,-3.645193E-2,-2.8747145E-2,-2.9924668E-3,5.3482554E-3,-1.723879E-2,1.1674341E-2,-6.8676346E-3,1.6094072E-2,1.2705392E-4,1.9061869E-2,2.8419008E-2],"split_indices":[0,0,3,0,0,0,1,0,0,0,1,1,3,0,1,1,3,3,1,0,1,1,1,3,3,0,3,0,0,1,1,3,0,0,0,0,3,1,3,0,0,0,3,0,0,0,0,0,0,0,0,0,0,0,0,0,0,0,0,0,0,0,0,0,0,0,0,0,0,0,0],"split_type":[0,0,0,0,0,0,0,0,0,0,0,0,0,0,0,0,0,0,0,0,0,0,0,0,0,0,0,0,0,0,0,0,0,0,0,0,0,0,0,0,0,0,0,0,0,0,0,0,0,0,0,0,0,0,0,0,0,0,0,0,0,0,0,0,0,0,0,0,0,0,0],"sum_hessian":[1.224E3,5.39E2,6.85E2,2.63E2,2.76E2,3.02E2,3.83E2,1.38E2,1.25E2,1.43E2,1.33E2,5.9E1,2.43E2,1.88E2,1.95E2,9.1E1,4.2E1,3.2E1,2.7E1,1.66E2,7.7E1,7.7E1,1.11E2,1.35E2,6E1,4.4E1,4.7E1,1.7E1,2.5E1,2E1,1.2E1,1.9E1,8E0,5.6E1,2.1E1,2.3E1,5.4E1,7.2E1,3.9E1,6.8E1,6.7E1,3.2E1,2.8E1,2.1E1,2.6E1,1.4E1,6E0,8E0,4E0,1.4E1,5E0,1.6E1,4E1,6E0,1.5E1,1.2E1,1.1E1,2.5E1,2.9E1,3.7E1,3.5E1,2.9E1,1E1,2.4E1,4.4E1,5.3E1,1.4E1,2.4E1,8E0,1.4E1,1.4E1],"tree_param":{"num_deleted":"0","num_feature":"4","num_nodes":"71","size_leaf_vector":"1"}},{"base_weights":[-4.005356E-3,4.559051E-1,-3.6051404E-1,5.818455E-1,3.3384475E-1,-5.0710225E-1,-6.0553484E-2,3.136626E-2,2.6754394E-2,2.0703992E-2,2.5056496E-1,-1.4092998E-1,-5.9702295E-1,8.895465E-2,-2.833288E-1,8.216864E-3,2.9573077E-1,-2.8685543E-1,1.7855627E-2,-7.2426546E-1,-4.6793884E-1,-4.5134082E-2,2.1602593E-1,-1.9940118E-1,-3.6109707E-1,1.3180195E-2,1.9589096E-2,-1.8328954E-2,-2.0529781E-1,-1.66065E-3,8.632866E-2,-3.9679866E-2,-6.4630747E-1,-2.3006105E-1,-5.4222566E-1,1.3326271E-1,-1.4780352E-1,1.7437045E-2,1.436603E-1,-1.3607909E-2,-1.2136735E-1,-2.253616E-2,-2.813334E-1,-1.2776226E-2,-5.6788665E-3,-1.2466343E-3,1.0236972E-3,2.2608996E-4,7.005647E-3,-2.682336E-2,-3.7002977E-2,-1.5999055E-2,-6.311439E-3,-2.3962278E-2,-3.289946E-2,4.517482E-3,9.9756885E-3,-1.0295494E-2,-1.2805504E-3,-1.8952618E-3,1.1497685E-2,-8.424058E-3,-4.0933504E-3,-1.51094E-2,-8.92895E-3],"categories":[],"categories_nodes":[],"categories_segments":[],"categories_sizes":[],"default_left":[0,0,0,0,0,0,0,0,0,0,0,0,0,0,0,0,0,0,0,0,0,0,0,0,0,0,0,0,0,0,0,0,0,0,0,0,0,0,0,0,0,0,0,0,0,0,0,0,0,0,0,0,0,0,0,0,0,0,0,0,0,0,0,0,0],"id":24,"left_children":[1,3,5,7,9,11,13,-1,-1,-1,15,17,19,21,23,-1,25,27,29,31,33,35,37,39,41,-1,-1,-1,43,45,47,-1,49,51,53,55,57,-1,59,-1,61,-1,63,-1,-1,-1,-1,-1,-1,-1,-1,-1,-1,-1,-1,-1,-1,-1,-1,-1,-1,-1,-1,-1,-1],"loss_changes":[1.9937828E2,7.96846E0,3.0089218E1,2.1722412E-1,1.7137394E0,1.5062042E1,7.5525217E0,0E0,0E0,0E0,4.8105812E-1,2.1368413E0,5.7219086E0,2.3270307E0,5.21945E-1,0E0,1.6827726E-1,2.368412E-1,6.0278602E-2,4.8160553E-1,3.1620903E0,1.2468618E0,6.2218E-1,2.2813427E-1,2.020464E-1,0E0,0E0,0E0,9.075546E-2,1.9054685E-2,4.3365665E-2,0E0,5.503769E-1,3.8909316E-1,7.1266556E-1,5.3049922E-2,3.000334E-1,0E0,7.4510795E-1,0E0,3.0871242E-2,0E0,3.8938522E-3,0E0,0E0,0E0,0E0,0E0,0E0,0E0,0E0,0E0,0E0,0E0,0E0,0E0,0E0,0E0,0E0,0E0,0E0,0E0,0E0,0E0,0E0],"parents":[2147483647,0,0,1,1,2,2,3,3,4,4,5,5,6,6,10,10,11,11,12,12,13,13,14,14,16,16,17,17,18,18,19,19,20,20,21,21,22,22,23,23,24,24,28,28,29,29,30,30,32,32,33,33,34,34,35,35,36,36,38,38,40,40,42,42],"right_children":[2,4,6,8,10,12,14,-1,-1,-1,16,18,20,22,24,-1,26,28,30,32,34,36,38,40,42,-1,-1,-1,44,46,48,-1,50,52,54,56,58,-1,60,-1,62,-1,64,-1,-1,-1,-1,-1,-1,-1,-1,-1,-1,-1,-1,-1,-1,-1,-1,-1,-1,-1,-1,-1,-1],"split_conditions":[1E2,8E1,1E0,7E1,9E1,1.1E2,1.3E2,3.136626E-2,2.6754394E-2,2.0703992E-2,5E-1,5E-1,5E-1,2E0,1.4E2,8.216864E-3,2E0,2.5E-1,5E-2,2.5E-1,1.2E2,1.1E2,1.1E2,2E0,2E0,1.3180195E-2,1.9589096E-2,-1.8328954E-2,3E-2,2E-2,7.5E-1,-3.9679866E-2,1.3E2,7.5E-1,1.4E2,3E-2,3E-2,1.7437045E-2,2E-2,-1.3607909E-2,2E-2,-2.253616E-2,5E-2,-1.2776226E-2,-5.6788665E-3,-1.2466343E-3,1.0236972E-3,2.2608996E-4,7.005647E-3,-2.682336E-2,-3.7002977E-2,-1.5999055E-2,-6.311439E-3,-2.3962278E-2,-3.289946E-2,4.517482E-3,9.9756885E-3,-1.0295494E-2,-1.2805504E-3,-1.8952618E-3,1.1497685E-2,-8.424058E-3,-4.0933504E-3,-1.51094E-2,-8.92895E-3],"split_indices":[0,0,1,0,0,0,0,0,0,0,1,1,1,1,0,0,1,1,2,1,0,0,0,1,1,0,0,0,2,2,1,0,0,1,0,2,2,0,2,0,2,0,2,0,0,0,0,0,0,0,0,0,0,0,0,0,0,0,0,0,0,0,0,0,0],"split_type":[0,0,0,0,0,0,0,0,0,0,0,0,0,0,0,0,0,0,0,0,0,0,0,0,0,0,0,0,0,0,0,0,0,0,0,0,0,0,0,0,0,0,0,0,0,0,0,0,0,0,0,0,0,0,0,0,0,0,0,0,0,0,0,0,0],"sum_hessian":[1.214E3,5.3E2,6.84E2,2.59E2,2.71E2,4.59E2,2.25E2,1.25E2,1.34E2,1.36E2,1.35E2,9.1E1,3.68E2,1.35E2,9E1,4.8E1,8.7E1,4.7E1,4.4E1,1.83E2,1.85E2,6.6E1,6.9E1,4.5E1,4.5E1,6.8E1,1.9E1,2.2E1,2.5E1,3.5E1,9E0,9.2E1,9.1E1,4.5E1,1.4E2,2.4E1,4.2E1,2.3E1,4.6E1,2.2E1,2.3E1,1.9E1,2.6E1,1.5E1,1E1,1.7E1,1.8E1,4E0,5E0,4.5E1,4.6E1,2.3E1,2.2E1,9.4E1,4.6E1,1.6E1,8E0,2.8E1,1.4E1,1.5E1,3.1E1,9E0,1.4E1,2E1,6E0],"tree_param":{"num_deleted":"0","num_feature":"4","num_nodes":"65","size_leaf_vector":"1"}},{"base_weights":[-1.0986174E-2,4.330576E-1,-3.471394E-1,5.55062E-1,3.1697747E-1,-5.848508E-1,-1.6051784E-1,2.979875E-2,2.551121E-2,1.9741809E-2,2.2971067E-1,-2.438365E-1,-6.653967E-1,7.2605714E-2,-3.225253E-1,2.092974E-1,1.7058732E-2,-3.630863E-1,-1.6210407E-1,-3.749629E-2,-6.2221223E-1,1.0438384E-2,2.4191576E-1,-3.898644E-1,-1.19621806E-1,1.7725767E-1,1.148028E-2,-2.3629604E-2,-1.3939822E-2,-1.1198007E-2,-5.3468924E-3,-5.294695E-1,-3.485515E-2,7.544784E-2,-6.8944745E-2,1.5581548E-1,1.2980198E-2,-3.301013E-1,